{"learner":{"attributes":{"best_iteration":"99","best_score":"0.01657142410861244","scikit_learn":"{\"_estimator_type\": \"classifier\"}"},"feature_names":[],"feature_types":[],"gradient_booster":{"model":{"cats":{"enc":[],"feature_segments":[],"sorted_idx":[]},"gbtree_model_param":{"num_parallel_tree":"1","num_trees":"1500"},"iteration_indptr":[0,15,30,45,60,75,90,105,120,135,150,165,180,195,210,225,240,255,270,285,300,315,330,345,360,375,390,405,420,435,450,465,480,495,510,525,540,555,570,585,600,615,630,645,660,675,690,705,720,735,750,765,780,795,810,825,840,855,870,885,900,915,930,945,960,975,990,1005,1020,1035,1050,1065,1080,1095,1110,1125,1140,1155,1170,1185,1200,1215,1230,1245,1260,1275,1290,1305,1320,1335,1350,1365,1380,1395,1410,1425,1440,1455,1470,1485,1500],"tree_info":[0,1,2,3,4,5,6,7,8,9,10,11,12,13,14,0,1,2,3,4,5,6,7,8,9,10,11,12,13,14,0,1,2,3,4,5,6,7,8,9,10,11,12,13,14,0,1,2,3,4,5,6,7,8,9,10,11,12,13,14,0,1,2,3,4,5,6,7,8,9,10,11,12,13,14,0,1,2,3,4,5,6,7,8,9,10,11,12,13,14,0,1,2,3,4,5,6,7,8,9,10,11,12,13,14,0,1,2,3,4,5,6,7,8,9,10,11,12,13,14,0,1,2,3,4,5,6,7,8,9,10,11,12,13,14,0,1,2,3,4,5,6,7,8,9,10,11,12,13,14,0,1,2,3,4,5,6,7,8,9,10,11,12,13,14,0,1,2,3,4,5,6,7,8,9,10,11,12,13,14,0,1,2,3,4,5,6,7,8,9,10,11,12,13,14,0,1,2,3,4,5,6,7,8,9,10,11,12,13,14,0,1,2,3,4,5,6,7,8,9,10,11,12,13,14,0,1,2,3,4,5,6,7,8,9,10,11,12,13,14,0,1,2,3,4,5,6,7,8,9,10,11,12,13,14,0,1,2,3,4,5,6,7,8,9,10,11,12,13,14,0,1,2,3,4,5,6,7,8,9,10,11,12,13,14,0,1,2,3,4,5,6,7,8,9,10,11,12,13,14,0,1,2,3,4,5,6,7,8,9,10,11,12,13,14,0,1,2,3,4,5,6,7,8,9,10,11,12,13,14,0,1,2,3,4,5,6,7,8,9,10,11,12,13,14,0,1,2,3,4,5,6,7,8,9,10,11,12,13,14,0,1,2,3,4,5,6,7,8,9,10,11,12,13,14,0,1,2,3,4,5,6,7,8,9,10,11,12,13,14,0,1,2,3,4,5,6,7,8,9,10,11,12,13,14,0,1,2,3,4,5,6,7,8,9,10,11,12,13,14,0,1,2,3,4,5,6,7,8,9,10,11,12,13,14,0,1,2,3,4,5,6,7,8,9,10,11,12,13,14,0,1,2,3,4,5,6,7,8,9,10,11,12,13,14,0,1,2,3,4,5,6,7,8,9,10,11,12,13,14,0,1,2,3,4,5,6,7,8,9,10,11,12,13,14,0,1,2,3,4,5,6,7,8,9,10,11,12,13,14,0,1,2,3,4,5,6,7,8,9,10,11,12,13,14,0,1,2,3,4,5,6,7,8,9,10,11,12,13,14,0,1,2,3,4,5,6,7,8,9,10,11,12,13,14,0,1,2,3,4,5,6,7,8,9,10,11,12,13,14,0,1,2,3,4,5,6,7,8,9,10,11,12,13,14,0,1,2,3,4,5,6,7,8,9,10,11,12,13,14,0,1,2,3,4,5,6,7,8,9,10,11,12,13,14,0,1,2,3,4,5,6,7,8,9,10,11,12,13,14,0,1,2,3,4,5,6,7,8,9,10,11,12,13,14,0,1,2,3,4,5,6,7,8,9,10,11,12,13,14,0,1,2,3,4,5,6,7,8,9,10,11,12,13,14,0,1,2,3,4,5,6,7,8,9,10,11,12,13,14,0,1,2,3,4,5,6,7,8,9,10,11,12,13,14,0,1,2,3,4,5,6,7,8,9,10,11,12,13,14,0,1,2,3,4,5,6,7,8,9,10,11,12,13,14,0,1,2,3,4,5,6,7,8,9,10,11,12,13,14,0,1,2,3,4,5,6,7,8,9,10,11,12,13,14,0,1,2,3,4,5,6,7,8,9,10,11,12,13,14,0,1,2,3,4,5,6,7,8,9,10,11,12,13,14,0,1,2,3,4,5,6,7,8,9,10,11,12,13,14,0,1,2,3,4,5,6,7,8,9,10,11,12,13,14,0,1,2,3,4,5,6,7,8,9,10,11,12,13,14,0,1,2,3,4,5,6,7,8,9,10,11,12,13,14,0,1,2,3,4,5,6,7,8,9,10,11,12,13,14,0,1,2,3,4,5,6,7,8,9,10,11,12,13,14,0,1,2,3,4,5,6,7,8,9,10,11,12,13,14,0,1,2,3,4,5,6,7,8,9,10,11,12,13,14,0,1,2,3,4,5,6,7,8,9,10,11,12,13,14,0,1,2,3,4,5,6,7,8,9,10,11,12,13,14,0,1,2,3,4,5,6,7,8,9,10,11,12,13,14,0,1,2,3,4,5,6,7,8,9,10,11,12,13,14,0,1,2,3,4,5,6,7,8,9,10,11,12,13,14,0,1,2,3,4,5,6,7,8,9,10,11,12,13,14,0,1,2,3,4,5,6,7,8,9,10,11,12,13,14,0,1,2,3,4,5,6,7,8,9,10,11,12,13,14,0,1,2,3,4,5,6,7,8,9,10,11,12,13,14,0,1,2,3,4,5,6,7,8,9,10,11,12,13,14,0,1,2,3,4,5,6,7,8,9,10,11,12,13,14,0,1,2,3,4,5,6,7,8,9,10,11,12,13,14,0,1,2,3,4,5,6,7,8,9,10,11,12,13,14,0,1,2,3,4,5,6,7,8,9,10,11,12,13,14,0,1,2,3,4,5,6,7,8,9,10,11,12,13,14,0,1,2,3,4,5,6,7,8,9,10,11,12,13,14,0,1,2,3,4,5,6,7,8,9,10,11,12,13,14,0,1,2,3,4,5,6,7,8,9,10,11,12,13,14,0,1,2,3,4,5,6,7,8,9,10,11,12,13,14,0,1,2,3,4,5,6,7,8,9,10,11,12,13,14,0,1,2,3,4,5,6,7,8,9,10,11,12,13,14,0,1,2,3,4,5,6,7,8,9,10,11,12,13,14,0,1,2,3,4,5,6,7,8,9,10,11,12,13,14,0,1,2,3,4,5,6,7,8,9,10,11,12,13,14,0,1,2,3,4,5,6,7,8,9,10,11,12,13,14,0,1,2,3,4,5,6,7,8,9,10,11,12,13,14,0,1,2,3,4,5,6,7,8,9,10,11,12,13,14,0,1,2,3,4,5,6,7,8,9,10,11,12,13,14,0,1,2,3,4,5,6,7,8,9,10,11,12,13,14,0,1,2,3,4,5,6,7,8,9,10,11,12,13,14,0,1,2,3,4,5,6,7,8,9,10,11,12,13,14,0,1,2,3,4,5,6,7,8,9,10,11,12,13,14,0,1,2,3,4,5,6,7,8,9,10,11,12,13,14,0,1,2,3,4,5,6,7,8,9,10,11,12,13,14,0,1,2,3,4,5,6,7,8,9,10,11,12,13,14,0,1,2,3,4,5,6,7,8,9,10,11,12,13,14,0,1,2,3,4,5,6,7,8,9,10,11,12,13,14,0,1,2,3,4,5,6,7,8,9,10,11,12,13,14,0,1,2,3,4,5,6,7,8,9,10,11,12,13,14],"trees":[{"base_weights":[2.468729E-4,-2.2733171E-1,7.485295E0,-3.1477714E-1,2.3996582E0,7.4991784E0,3.8497148E0,-4.4224307E-1,1.3521052E-2,7.499303E-1,5.841035E-1,7.499642E0,3.559873E0,-7.463692E-2,7.404415E-1,7.1337733E0,-4.4708514E-1,6.136252E0,-4.283679E-1,7.852934E-2,7.4716043E0,7.49973E-1,1.4875297E-1,-2.9777927E-2,5.722477E-1,-4.384358E-1,4.4220853E0,7.3261493E-1,2.7283726E-3,-4.5090057E-2,6.756245E-1,7.418845E-1,2.2951314E-2,7.1267426E-1,-4.5968547E-2,-9.887879E-3,6.54735E-1,7.4921507E-1,-4.1437887E-2,5.49363E-2,-4.8686817E-2,8.158135E-2,5.403354E-1],"categories":[],"categories_nodes":[],"categories_segments":[],"categories_sizes":[],"default_left":[0,0,0,0,0,0,0,0,0,0,0,0,0,0,0,0,0,0,0,0,0,0,0,0,0,0,0,0,0,0,0,0,0,0,0,0,0,0,0,0,0,0,0],"id":0,"left_children":[1,3,5,7,9,11,13,15,17,-1,19,21,23,25,-1,27,29,31,33,35,37,-1,-1,-1,-1,39,41,-1,-1,-1,-1,-1,-1,-1,-1,-1,-1,-1,-1,-1,-1,-1,-1],"loss_changes":[4.622826E6,6.050194E5,3.978E3,1.0666361E5,7.855495E5,8.7E1,4.313613E3,6.735559E4,1.928712E6,0E0,2.178807E5,1.55E1,1.17280594E2,2.451772E2,0E0,1.5992383E3,5.0431844E4,3.6353038E5,1.5731925E5,6.6905555E4,7.0303125E2,0E0,0E0,0E0,0E0,7.1781006E0,2.7739304E1,0E0,0E0,0E0,0E0,0E0,0E0,0E0,0E0,0E0,0E0,0E0,0E0,0E0,0E0,0E0,0E0],"parents":[2147483647,0,0,1,1,2,2,3,3,4,4,5,5,6,6,7,7,8,8,10,10,11,11,12,12,13,13,15,15,16,16,17,17,18,18,19,19,20,20,25,25,26,26],"right_children":[2,4,6,8,10,12,14,16,18,-1,20,22,24,26,-1,28,30,32,34,36,38,-1,-1,-1,-1,40,42,-1,-1,-1,-1,-1,-1,-1,-1,-1,-1,-1,-1,-1,-1,-1,-1],"split_conditions":[3.7E1,3.2785E4,1.17113625E5,8.4E1,3E0,2.68E2,8.4E1,2.4E1,4.44E2,7.499303E-1,1.7897858E1,6.5E5,8.4E1,3.2E1,7.404415E-1,3.4641016E0,4.6193716E2,7.437527E3,6E0,2.6E2,1.11E7,7.49973E-1,1.4875297E-1,-2.9777927E-2,5.722477E-1,3.0456064E2,3E0,7.3261493E-1,2.7283726E-3,-4.5090057E-2,6.756245E-1,7.418845E-1,2.2951314E-2,7.1267426E-1,-4.5968547E-2,-9.887879E-3,6.54735E-1,7.4921507E-1,-4.1437887E-2,5.49363E-2,-4.8686817E-2,8.158135E-2,5.403354E-1],"split_indices":[11,0,42,0,11,7,0,55,0,0,17,36,0,35,0,41,9,37,39,67,21,0,0,0,0,52,2,0,0,0,0,0,0,0,0,0,0,0,0,0,0,0,0],"split_type":[0,0,0,0,0,0,0,0,0,0,0,0,0,0,0,0,0,0,0,0,0,0,0,0,0,0,0,0,0,0,0,0,0,0,0,0,0,0,0,0,0,0,0],"sum_hessian":[2.713817E6,2.6337415E6,8.007552E4,2.5488975E6,8.484399E4,7.976865E4,3.0688004E2,1.8360348E6,7.128629E5,2.2273691E4,6.2570297E4,7.975732E4,1.1324446E1,1.4672002E2,1.6016002E2,1.1707734E3,1.8348639E6,4.798379E4,6.648791E5,5.829339E4,4.276907E3,7.975558E4,1.7422223E0,4.604445E0,6.7200007E0,1.3751112E2,9.20889E0,1.1397867E3,3.098667E1,1.8338945E6,9.694223E2,3.9422883E4,8.560907E3,2.7427559E3,6.621363E5,5.6739203E4,1.5541868E3,4.265956E3,1.0951112E1,4.9777784E0,1.3253334E2,2.8622224E0,6.3466673E0],"tree_param":{"num_deleted":"0","num_feature":"78","num_nodes":"43","size_leaf_vector":"1"}},{"base_weights":[2.809457E-5,5.6046696E0,-1.8357517E-1,-5.3560812E-2,6.8801823E0,-4.894753E-1,1.584545E0,7.482345E0,4.586499E0,-5.0379354E-1,5.5055485E0,6.716124E0,-5.2900493E-1,-5.1460054E-2,7.4926467E0,5.7142396E0,1.7804201E0,-3.8338774E-1,-5.352973E-1,-4.900372E-1,7.44089E0,-5.3421813E-1,7.348504E0,-4.237221E-1,-5.3422827E-1,-4.305473E-2,7.49449E-1,-5.332148E-2,6.108004E-1,-3.5952777E-2,2.671493E-1,1.6385613E-2,-5.336363E-2,-5.2963473E-2,-5.3571273E-2,-5.344921E-2,2.3329341E-1,-4.8267327E-2,7.495882E-1,-5.355407E-2,1.1155604E-2,7.455031E-1,-5.3458225E-2,-5.341819E-2,6.0484016E-1,-5.3570785E-2,-5.121392E-2],"categories":[],"categories_nodes":[],"categories_segments":[],"categories_sizes":[],"default_left":[0,0,0,0,0,0,0,0,0,0,0,0,0,0,0,0,0,0,0,0,0,0,0,0,0,0,0,0,0,0,0,0,0,0,0,0,0,0,0,0,0,0,0,0,0,0,0],"id":1,"left_children":[1,3,5,-1,7,9,11,13,15,17,19,21,23,-1,25,27,29,31,33,35,37,39,41,43,45,-1,-1,-1,-1,-1,-1,-1,-1,-1,-1,-1,-1,-1,-1,-1,-1,-1,-1,-1,-1,-1,-1],"loss_changes":[2.7922935E6,6.741335E5,1.4211016E6,0E0,9.835975E4,1.9227369E5,4.203053E6,4.6615E3,4.6889875E4,8.4754375E3,6.1939344E4,5.18339E5,1.5000781E2,0E0,8.335E2,2.6021406E4,8.112951E3,3.8104703E4,3.09375E0,1.6526343E2,1.7688906E3,8.078857E0,8.733E4,9.289059E3,7.46875E0,0E0,0E0,0E0,0E0,0E0,0E0,0E0,0E0,0E0,0E0,0E0,0E0,0E0,0E0,0E0,0E0,0E0,0E0,0E0,0E0,0E0,0E0],"parents":[2147483647,0,0,1,1,2,2,4,4,5,5,6,6,7,7,8,8,9,9,10,10,11,11,12,12,14,14,15,15,16,16,17,17,18,18,19,19,20,20,21,21,22,22,23,23,24,24],"right_children":[2,4,6,-1,8,10,12,14,16,18,20,22,24,-1,26,28,30,32,34,36,38,40,42,44,46,-1,-1,-1,-1,-1,-1,-1,-1,-1,-1,-1,-1,-1,-1,-1,-1,-1,-1,-1,-1,-1,-1],"split_conditions":[2.4E1,2.37E2,5.59E2,-5.3560812E-2,2.44E2,1.7632115E3,1.246579E6,7.722008E3,5.4E1,2.1E1,7.7655655E1,2.6103723E4,1E0,-5.1460054E-2,8.221204E0,9E0,2.56E2,4.28765E5,3.2E1,6.416426E1,4.7564E4,3.2607754E4,4.7666668E1,5.0976712E2,9E0,-4.305473E-2,7.49449E-1,-5.332148E-2,6.108004E-1,-3.5952777E-2,2.671493E-1,1.6385613E-2,-5.336363E-2,-5.2963473E-2,-5.3571273E-2,-5.344921E-2,2.3329341E-1,-4.8267327E-2,7.495882E-1,-5.355407E-2,1.1155604E-2,7.455031E-1,-5.3458225E-2,-5.341819E-2,6.0484016E-1,-5.3570785E-2,-5.121392E-2],"split_indices":[34,66,29,0,66,9,1,36,1,69,37,26,68,0,52,52,67,1,69,37,18,27,12,71,64,0,0,0,0,0,0,0,0,0,0,0,0,0,0,0,0,0,0,0,0,0,0],"split_type":[0,0,0,0,0,0,0,0,0,0,0,0,0,0,0,0,0,0,0,0,0,0,0,0,0,0,0,0,0,0,0,0,0,0,0,0,0,0,0,0,0,0,0,0,0,0,0],"sum_hessian":[2.7135122E6,8.607089E4,2.6274415E6,1.4804286E4,7.12666E4,2.239918E6,3.8752353E5,5.644365E4,1.4822952E4,2.2345828E6,5.335058E3,1.1304721E5,2.744763E5,7.2426674E1,5.6371223E4,1.057193E4,4.2510225E3,4.6342728E5,1.7711556E6,1.3021868E3,4.0328713E3,9.069014E3,1.03978195E5,1.2986152E4,2.6149016E5,1.2942224E1,5.635828E4,6.267023E2,9.945228E3,1.2499202E3,3.0011025E3,9.982723E4,3.6360006E5,1.2131829E5,1.6498372E6,1.283769E3,1.841778E1,2.7626669E1,4.0052449E3,9.051592E3,1.7422224E1,1.0259201E5,1.3861868E3,1.2770116E4,2.1603557E2,2.4500986E5,1.6480303E4],"tree_param":{"num_deleted":"0","num_feature":"78","num_nodes":"47","size_leaf_vector":"1"}},{"base_weights":[2.334722E-4,-1.7724535E-1,3.1570873E0,-2.5823483E-1,3.5038571E0,7.499766E-1,-5.3569414E-2,-4.57595E-1,9.3066746E-1,-5.3433704E-1,7.433698E0,-4.8427403E-1,4.669914E0,4.8748875E0,-5.304621E-1,-5.3491946E-2,-4.127263E-1,7.499442E-1,-5.289219E-2,-5.3232532E-2,-7.5089536E-3,-5.2293178E-2,7.439529E-1,-4.962039E-2,7.028479E-1,-5.327946E-2,2.7399954E-1,-5.245005E-2,2.9620072E-1],"categories":[],"categories_nodes":[],"categories_segments":[],"categories_sizes":[],"default_left":[0,0,0,0,0,0,0,0,0,0,0,0,0,0,0,0,0,0,0,0,0,0,0,0,0,0,0,0,0],"id":2,"left_children":[1,3,5,7,9,-1,-1,11,13,15,17,19,21,23,25,-1,27,-1,-1,-1,-1,-1,-1,-1,-1,-1,-1,-1,-1],"loss_changes":[1.5204078E6,7.659684E5,2.3163818E6,5.9585144E5,8.7775094E5,0E0,0E0,2.9451553E5,2.0805182E6,1.0161133E0,1.46855E4,4.2110938E4,1.6028642E5,1.1287978E6,2.0113672E3,0E0,5.5780525E1,0E0,0E0,0E0,0E0,0E0,0E0,0E0,0E0,0E0,0E0,0E0,0E0],"parents":[2147483647,0,0,1,1,2,2,3,3,4,4,7,7,8,8,9,9,10,10,11,11,12,12,13,13,14,14,16,16],"right_children":[2,4,6,8,10,-1,-1,12,14,16,18,20,22,24,26,-1,28,-1,-1,-1,-1,-1,-1,-1,-1,-1,-1,-1,-1],"split_conditions":[2.6986094E3,2E0,7.8E1,6E0,1.1601E4,7.499766E-1,-5.3569414E-2,3.0507402E7,1.2960969E-2,5.3225023E4,9E0,1.9335E3,1.1601E4,4E0,1.175E3,-5.3491946E-2,1E0,7.499442E-1,-5.289219E-2,-5.3232532E-2,-7.5089536E-3,-5.2293178E-2,7.439529E-1,-4.962039E-2,7.028479E-1,-5.327946E-2,2.7399954E-1,-5.245005E-2,2.9620072E-1],"split_indices":[13,51,4,38,5,0,0,75,37,22,3,12,5,2,12,0,38,0,0,0,0,0,0,0,0,0,0,0,0],"split_type":[0,0,0,0,0,0,0,0,0,0,0,0,0,0,0,0,0,0,0,0,0,0,0,0,0,0,0,0,0],"sum_hessian":[2.713676E6,2.569235E6,1.4444106E5,2.513927E6,5.530797E4,6.637855E4,7.8062516E4,2.1529182E6,3.6100875E5,2.7278723E4,2.8029246E4,2.1417762E6,1.114201E4,9.758374E4,2.6342503E5,2.7137852E4,1.4087112E2,2.7799896E4,2.2935114E2,1.9166935E6,2.2508269E5,3.8760715E3,7.2659385E3,2.7929193E4,6.965455E4,2.632391E5,1.8592001E2,1.3813335E2,2.737778E0],"tree_param":{"num_deleted":"0","num_feature":"78","num_nodes":"29","size_leaf_vector":"1"}},{"base_weights":[3.388701E-5,-1.1638512E-1,5.836342E0,-4.9862772E-1,1.6491388E0,7.459383E0,-5.230617E-1,-5.2170855E-1,6.303844E0,-5.285228E-1,5.635908E0,7.4887843E0,-5.2570093E-2,-5.327849E-1,5.1551266E0,-5.2925813E-1,1.0252012E0,-5.342871E-2,7.4975383E-1,-5.316882E-1,2.0519838E0,7.4121423E0,-5.2941877E-1,7.4987516E0,-5.067567E-2,-5.355682E-2,7.845489E-1,-2.4918964E-2,6.471239E-1,-4.4219177E-2,-5.3364027E-2,5.762154E-1,-6.6903234E-3,-5.3397346E-2,-1.1966682E-2,6.7799926E-1,-9.522062E-3,7.451055E-1,-4.8004966E-2,-5.3567227E-2,5.7459533E-1,-1.8564356E-2,7.499227E-1,4.7965112E-1,-4.548055E-2],"categories":[],"categories_nodes":[],"categories_segments":[],"categories_sizes":[],"default_left":[0,0,0,0,0,0,0,0,0,0,0,0,0,0,0,0,0,0,0,0,0,0,0,0,0,0,0,0,0,0,0,0,0,0,0,0,0,0,0,0,0,0,0,0,0],"id":3,"left_children":[1,3,5,7,9,11,13,15,17,19,21,23,-1,25,27,29,31,-1,-1,33,35,37,39,41,-1,-1,43,-1,-1,-1,-1,-1,-1,-1,-1,-1,-1,-1,-1,-1,-1,-1,-1,-1,-1],"loss_changes":[1.8440308E6,1.7957282E6,5.478591E5,3.4342938E5,4.1114245E6,9.939E3,5.9911646E2,2.5459375E4,6.0387344E4,2.503211E3,1.8320485E6,3.36875E3,0E0,4.0231934E1,1.3828442E2,8.266875E2,5.477663E4,0E0,0E0,2.8757812E2,3.816282E3,3.98965E4,1.4719775E3,1.6025E2,0E0,0E0,1.2166887E2,0E0,0E0,0E0,0E0,0E0,0E0,0E0,0E0,0E0,0E0,0E0,0E0,0E0,0E0,0E0,0E0,0E0,0E0],"parents":[2147483647,0,0,1,1,2,2,3,3,4,4,5,5,6,6,7,7,8,8,9,9,10,10,11,11,13,13,14,14,15,15,16,16,19,19,20,20,21,21,22,22,23,23,26,26],"right_children":[2,4,6,8,10,12,14,16,18,20,22,24,-1,26,28,30,32,-1,-1,34,36,38,40,42,-1,-1,44,-1,-1,-1,-1,-1,-1,-1,-1,-1,-1,-1,-1,-1,-1,-1,-1,-1,-1],"split_conditions":[3.267934E6,8.3223906E5,2E0,6.87E7,7.05E2,1E0,8.577842E6,9.99855E5,1.48E2,6.821667E2,6.1760724E7,5.15E2,-5.2570093E-2,4.7237004E7,2.57E2,2.29E2,3.003057E6,-5.342871E-2,7.4975383E-1,5.605E2,4.51E2,9E0,4.931E5,2.79E2,-5.067567E-2,-5.355682E-2,5.51378E7,-2.4918964E-2,6.471239E-1,-4.4219177E-2,-5.3364027E-2,5.762154E-1,-6.6903234E-3,-5.3397346E-2,-1.1966682E-2,6.7799926E-1,-9.522062E-3,7.451055E-1,-4.8004966E-2,-5.3567227E-2,5.7459533E-1,-1.8564356E-2,7.499227E-1,4.7965112E-1,-4.548055E-2],"split_indices":[19,26,40,17,12,48,17,19,4,12,1,66,0,74,66,66,1,0,0,12,4,3,29,66,0,0,1,0,0,0,0,0,0,0,0,0,0,0,0,0,0,0,0,0,0],"split_type":[0,0,0,0,0,0,0,0,0,0,0,0,0,0,0,0,0,0,0,0,0,0,0,0,0,0,0,0,0,0,0,0,0,0,0,0,0,0,0,0,0,0,0,0,0],"sum_hessian":[2.7139682E6,2.6608922E6,5.3075934E4,2.187329E6,4.7356328E5,4.2283984E4,1.0791947E4,2.1799345E6,7.394614E3,3.0627225E5,1.6729105E5,4.212905E4,1.5493335E2,1.0775396E4,1.6551113E1,2.1693488E6,1.0585743E4,1.0990934E3,6.2955205E3,3.0589878E5,3.734578E2,1.2987397E5,3.7417086E4,4.2076785E4,5.226667E1,1.0754241E4,2.1155558E1,3.4844446E0,1.3066668E1,1.0396837E5,2.0653804E6,1.981778E3,8.603965E3,3.042097E5,1.6890846E3,1.1536001E2,2.580978E2,1.2923694E5,6.370312E2,3.7381746E4,3.5342224E1,2.4888892E0,4.2074297E4,3.7333336E0,1.7422224E1],"tree_param":{"num_deleted":"0","num_feature":"78","num_nodes":"45","size_leaf_vector":"1"}},{"base_weights":[-2.1310846E-4,-3.007993E-1,4.854139E0,-4.0810442E-1,3.2012541E0,-5.367601E-2,7.4418674E0,-4.289646E-1,5.769965E0,6.9800587E0,-5.3562082E-2,7.339241E0,-4.356334E-1,-5.3361285E-2,7.499703E0,-4.363956E-1,2.0708036E0,7.445169E0,-5.3481814E-2,7.478421E0,-5.3504594E-2,7.4536977E0,-4.9686883E-2,-4.9866313E-1,4.6768723E0,-8.587788E-3,7.49982E-1,-4.5565512E-2,3.792494E-2,-5.3519316E-2,7.443784E-1,7.4890953E-1,-4.944574E-2,-5.1036138E-2,7.4920124E-1,-4.1994106E-2,7.4888E-1,7.267031E-1,-5.1459797E-2,-5.286482E-2,7.462416E-1],"categories":[],"categories_nodes":[],"categories_segments":[],"categories_sizes":[],"default_left":[0,0,0,0,0,0,0,0,0,0,0,0,0,0,0,0,0,0,0,0,0,0,0,0,0,0,0,0,0,0,0,0,0,0,0,0,0,0,0,0,0],"id":4,"left_children":[1,3,5,7,9,11,13,15,17,19,-1,21,23,-1,25,27,29,31,-1,33,-1,35,-1,37,39,-1,-1,-1,-1,-1,-1,-1,-1,-1,-1,-1,-1,-1,-1,-1,-1],"loss_changes":[3.9600592E6,9.604023E5,2.0098088E6,3.195779E5,1.0729209E6,1.5428255E5,4.7807E4,4.5908438E4,8.814569E4,1.4150075E5,0E0,2.4182812E3,1.6744129E4,0E0,9.6E1,3.8708094E4,1.0257494E5,2.3102812E3,0E0,3.857875E3,0E0,7.4103125E2,0E0,6.3550547E3,9.187219E3,0E0,0E0,0E0,0E0,0E0,0E0,0E0,0E0,0E0,0E0,0E0,0E0,0E0,0E0,0E0,0E0],"parents":[2147483647,0,0,1,1,2,2,3,3,4,4,5,5,6,6,7,7,8,8,9,9,11,11,12,12,14,14,15,15,16,16,17,17,19,19,21,21,23,23,24,24],"right_children":[2,4,6,8,10,12,14,16,18,20,-1,22,24,-1,26,28,30,32,-1,34,-1,36,-1,38,40,-1,-1,-1,-1,-1,-1,-1,-1,-1,-1,-1,-1,-1,-1,-1,-1],"split_conditions":[2.95E7,4E5,1.68E2,1E0,3E0,2E0,1.0893518E3,2.77E7,8.4E1,8.4E1,-5.3562082E-2,8.4E1,9.030259E2,-5.3361285E-2,2.39E2,2E0,2E2,1E0,-5.3481814E-2,2.5E1,-5.3504594E-2,6.1968972E7,-4.9686883E-2,4.8431478E0,2.35E2,-8.587788E-3,7.49982E-1,-4.5565512E-2,3.792494E-2,-5.3519316E-2,7.443784E-1,7.4890953E-1,-4.944574E-2,-5.1036138E-2,7.4920124E-1,-4.1994106E-2,7.4888E-1,7.267031E-1,-5.1459797E-2,-5.286482E-2,7.462416E-1],"split_indices":[22,36,35,43,52,68,13,22,0,0,0,0,40,0,4,51,34,47,0,0,0,76,0,8,67,0,0,0,0,0,0,0,0,0,0,0,0,0,0,0,0],"split_type":[0,0,0,0,0,0,0,0,0,0,0,0,0,0,0,0,0,0,0,0,0,0,0,0,0,0,0,0,0,0,0,0,0,0,0,0,0,0,0,0,0],"sum_hessian":[2.7139448E6,2.5556955E6,1.5824917E5,2.4797172E6,7.5978195E4,5.463385E4,1.0361531E5,2.4713748E6,8.342632E3,3.777636E4,3.8201836E4,2.6821514E3,5.1951703E4,7.457956E2,1.0286952E5,2.4640518E6,7.322934E3,6.591076E3,1.7515557E3,3.5427098E4,2.3492625E3,2.643698E3,3.8453335E1,5.1320895E4,6.3080896E2,1.4933335E0,1.0286802E5,2.4072125E6,5.6839133E4,4.932356E3,2.390578E3,6.5549873E3,3.608889E1,5.9982227E1,3.5367113E4,1.1573335E1,2.6321248E3,1.0316445E2,5.121773E4,2.2039113E2,4.1041782E2],"tree_param":{"num_deleted":"0","num_feature":"78","num_nodes":"41","size_leaf_vector":"1"}},{"base_weights":[1.030771E-4,-4.0010378E-1,4.174984E0,-4.1988403E-1,7.1619987E0,5.482458E-1,7.167306E0,-4.4914973E-1,4.394185E0,7.497334E-1,-5.2992996E-2,-5.255478E-1,5.378768E0,7.409552E0,-4.208015E-1,-4.6990982E-1,5.1972446E0,7.4968877E0,-5.3544175E-2,6.5880113E0,-5.356393E-1,7.486874E0,-4.9468413E-1,-5.343324E-2,7.481765E0,-5.3531826E-2,7.23892E-1,-4.8175137E-2,6.813482E-1,-5.350259E-2,7.145468E-1,7.4983066E-1,-1.0135136E-2,7.344453E-1,-4.2304017E-2,8.602449E-2,-5.3569634E-2,-2.593458E-2,7.4987096E-1,-5.3540796E-2,6.949052E-1,7.484418E-1,-4.9943566E-2],"categories":[],"categories_nodes":[],"categories_segments":[],"categories_sizes":[],"default_left":[0,0,0,0,0,0,0,0,0,0,0,0,0,0,0,0,0,0,0,0,0,0,0,0,0,0,0,0,0,0,0,0,0,0,0,0,0,0,0,0,0,0,0],"id":5,"left_children":[1,3,5,7,9,11,13,15,17,-1,-1,19,21,23,25,27,29,31,-1,33,35,37,39,-1,41,-1,-1,-1,-1,-1,-1,-1,-1,-1,-1,-1,-1,-1,-1,-1,-1,-1,-1],"loss_changes":[4.5337965E6,3.7038656E5,2.5759708E6,3.4795022E5,1.6674312E4,5.5662244E5,2.39082E5,2.8775062E5,2.282634E5,0E0,0E0,6.30658E3,2.416585E5,7.23115E4,3.5353562E3,2.1094406E5,1.0043675E5,1.039375E2,0E0,6.6970703E2,7.7402344E0,1.3241875E3,1.5673593E3,0E0,2.656E3,0E0,0E0,0E0,0E0,0E0,0E0,0E0,0E0,0E0,0E0,0E0,0E0,0E0,0E0,0E0,0E0,0E0,0E0],"parents":[2147483647,0,0,1,1,2,2,3,3,4,4,5,5,6,6,7,7,8,8,11,11,12,12,13,13,14,14,15,15,16,16,17,17,19,19,20,20,21,21,22,22,24,24],"right_children":[2,4,6,8,10,12,14,16,18,-1,-1,20,22,24,26,28,30,32,-1,34,36,38,40,-1,42,-1,-1,-1,-1,-1,-1,-1,-1,-1,-1,-1,-1,-1,-1,-1,-1,-1,-1],"split_conditions":[1.05E7,1.87E2,1E0,1.448E3,8.4E1,1.4238606E-1,3E0,3E0,3.99E2,7.497334E-1,-5.2992996E-2,2E0,2.35E2,4.477148E3,5.13E7,5.18E7,2.35E2,8.4E1,-5.3544175E-2,8.4E1,5.257144E4,2E0,1.6393E4,-5.343324E-2,8.4E1,-5.3531826E-2,7.23892E-1,-4.8175137E-2,6.813482E-1,-5.350259E-2,7.145468E-1,7.4983066E-1,-1.0135136E-2,7.344453E-1,-4.2304017E-2,8.602449E-2,-5.3569634E-2,-2.593458E-2,7.4987096E-1,-5.3540796E-2,6.949052E-1,7.484418E-1,-4.9943566E-2],"split_indices":[16,38,46,8,0,15,68,51,1,0,0,2,66,70,26,26,67,0,0,0,21,4,67,0,0,0,0,0,0,0,0,0,0,0,0,0,0,0,0,0,0,0,0],"split_type":[0,0,0,0,0,0,0,0,0,0,0,0,0,0,0,0,0,0,0,0,0,0,0,0,0,0,0,0,0,0,0,0,0,0,0,0,0,0,0,0,0,0,0],"sum_hessian":[2.713517E6,2.476153E6,2.3736398E5,2.469695E6,6.458045E3,1.0730783E5,1.3005616E5,2.454774E6,1.4921139E4,6.188374E3,2.6967114E2,8.779357E4,1.951426E4,1.2603274E5,4.0234136E3,2.4457835E6,8.990489E3,9.156872E3,5.764267E3,1.2245335E2,8.767112E4,1.43597705E4,5.1544893E3,1.1351824E3,1.24897555E5,3.9660447E3,5.7368893E1,2.4418152E6,3.968036E3,2.2808179E3,6.709672E3,9.155254E3,1.617778E0,1.10506676E2,1.1946668E1,1.9911113E0,8.7669125E4,2.177778E1,1.4337992E4,5.128356E3,2.6133335E1,1.2485624E5,4.131556E1],"tree_param":{"num_deleted":"0","num_feature":"78","num_nodes":"43","size_leaf_vector":"1"}},{"base_weights":[1.4874934E-4,-2.62355E-1,4.968012E0,-4.3369526E-1,1.3965474E0,7.2297783E0,-5.322477E-1,-4.9572662E-1,8.493357E-1,7.0343204E0,-2.5140038E-1,7.482244E0,-5.3519752E-2,7.098702E-1,-5.3567458E-2,-5.026663E-1,-1.3792689E-1,7.498787E-1,-3.1766465E-1,-5.351449E-2,7.4372306E0,-5.321264E-1,1.8692294E0,-5.2781254E-2,7.4991684E0,6.680953E-1,-5.1876616E-2,-5.0982084E-2,-2.0248478E-2,7.2463846E-1,-5.3480543E-2,-5.2796222E-2,4.6367693E-1,7.442787E-1,-4.944574E-2,-4.6506252E-2,-5.338929E-2,7.478972E-1,-2.1885894E-2,7.499823E-1,-3.718721E-2],"categories":[],"categories_nodes":[],"categories_segments":[],"categories_sizes":[],"default_left":[0,0,0,0,0,0,0,0,0,0,0,0,0,0,0,0,0,0,0,0,0,0,0,0,0,0,0,0,0,0,0,0,0,0,0,0,0,0,0,0,0],"id":6,"left_children":[1,3,5,7,9,11,13,15,17,19,21,23,-1,25,-1,27,29,-1,31,-1,33,35,37,-1,39,-1,-1,-1,-1,-1,-1,-1,-1,-1,-1,-1,-1,-1,-1,-1,-1],"loss_changes":[3.538665E6,7.325754E5,1.6942272E6,1.859234E5,2.2416872E6,1.89198E5,1.6959668E2,5.5324375E3,8.3601806E5,1.664555E5,1.11151375E5,1.2682E4,0E0,8.143962E2,0E0,4.6940625E3,1.2426787E5,0E0,9.549501E4,0E0,2.2945E3,1.8539062E1,2.5567984E5,0E0,4.9E2,0E0,0E0,0E0,0E0,0E0,0E0,0E0,0E0,0E0,0E0,0E0,0E0,0E0,0E0,0E0,0E0],"parents":[2147483647,0,0,1,1,2,2,3,3,4,4,5,5,6,6,7,7,8,8,9,9,10,10,11,11,13,13,15,15,16,16,18,18,20,20,21,21,22,22,24,24],"right_children":[2,4,6,8,10,12,14,16,18,20,22,24,-1,26,-1,28,30,-1,32,-1,34,36,38,-1,40,-1,-1,-1,-1,-1,-1,-1,-1,-1,-1,-1,-1,-1,-1,-1,-1],"split_conditions":[2.5E7,8.56182E5,2.66E2,8E0,1.5056002E6,2.8708725E0,3.49E2,8.0469455E6,1E1,3.4E1,2.35E2,8E0,-5.3519752E-2,6.416627E6,-5.3567458E-2,2E0,4E0,7.498787E-1,1E0,-5.351449E-2,1E0,3.196576E6,5.700436E-2,-5.2781254E-2,1.65E2,6.680953E-1,-5.1876616E-2,-5.0982084E-2,-2.0248478E-2,7.2463846E-1,-5.3480543E-2,-5.2796222E-2,4.6367693E-1,7.442787E-1,-4.944574E-2,-4.6506252E-2,-5.338929E-2,7.478972E-1,-2.1885894E-2,7.499823E-1,-3.718721E-2],"split_indices":[26,24,39,7,21,12,39,26,4,69,67,6,0,16,0,51,3,0,48,0,7,18,36,0,19,0,0,0,0,0,0,0,0,0,0,0,0,0,0,0,0],"split_type":[0,0,0,0,0,0,0,0,0,0,0,0,0,0,0,0,0,0,0,0,0,0,0,0,0,0,0,0,0,0,0,0,0,0,0,0,0,0,0,0,0],"sum_hessian":[2.7135228E6,2.577337E6,1.3618567E5,2.3360582E6,2.4127877E5,9.650232E4,3.9683344E4,2.228326E6,1.0773244E5,5.4573125E4,1.8670564E5,9.346363E4,3.0386848E3,1.07644455E2,3.95757E4,2.185927E6,4.2398973E4,1.6082952E4,9.1649484E4,2.757938E3,5.1815188E4,1.6488069E5,2.1824943E4,1.9687112E2,9.3266766E4,1.6924446E1,9.072001E1,2.1350375E6,5.088957E4,2.160729E3,4.0238242E4,8.791951E4,3.7299736E3,5.1779098E4,3.608889E1,4.252267E3,1.6062842E5,5.918827E3,1.5906117E4,9.325917E4,7.5911117E0],"tree_param":{"num_deleted":"0","num_feature":"78","num_nodes":"41","size_leaf_vector":"1"}},{"base_weights":[2.535539E-4,7.384397E0,-5.3563774E-2,7.124938E-1,7.4908943E0,4.7823553E0,-5.3500365E-2,7.4998746E0,-5.280102E-2,-5.273187E-2,6.782139E0,7.4999136E-1,1.6810344E-1,-4.6146575E-2,7.078465E-1],"categories":[],"categories_nodes":[],"categories_segments":[],"categories_sizes":[],"default_left":[0,0,0,0,0,0,0,0,0,0,0,0,0,0,0],"id":7,"left_children":[1,3,-1,5,7,9,-1,11,-1,-1,13,-1,-1,-1,-1],"loss_changes":[1.0737855E7,1.30446E5,0E0,1.4664928E4,1.3027E4,7.2052656E3,0E0,1.2E1,0E0,0E0,1.0668398E3,0E0,0E0,0E0,0E0],"parents":[2147483647,0,0,1,1,3,3,4,4,5,5,7,7,10,10],"right_children":[2,4,-1,6,8,10,-1,12,-1,-1,14,-1,-1,-1,-1],"split_conditions":[2.2E1,8E0,-5.3563774E-2,2.35E2,1E1,1.9E1,-5.3500365E-2,2.29E2,-5.280102E-2,-5.273187E-2,1.7E1,7.4999136E-1,1.6810344E-1,-4.6146575E-2,7.078465E-1],"split_indices":[0,6,0,66,2,19,0,67,0,0,0,0,0,0,0],"split_type":[0,0,0,0,0,0,0,0,0,0,0,0,0,0,0],"sum_hessian":[2.713563E6,1.8360547E5,2.5299578E6,2.8849958E3,1.8072048E5,6.7560895E2,2.209387E3,1.805185E5,2.0197334E2,1.8517336E2,4.904356E2,1.8051664E5,1.8666668E0,1.9164446E1,4.7127115E2],"tree_param":{"num_deleted":"0","num_feature":"78","num_nodes":"15","size_leaf_vector":"1"}},{"base_weights":[-1.4620443E-4,-5.355648E-1,7.496281E0,-5.357137E-2,4.9325086E-2,-5.1695317E-2,7.4999136E-1,-5.3308852E-2,7.183127E-1],"categories":[],"categories_nodes":[],"categories_segments":[],"categories_sizes":[],"default_left":[0,0,0,0,0,0,0,0,0],"id":8,"left_children":[1,3,5,-1,7,-1,-1,-1,-1],"loss_changes":[1.08905E7,2.2075E2,5.276E3,0E0,2.6924146E3,0E0,0E0,0E0,0E0],"parents":[2147483647,0,0,1,1,2,2,4,4],"right_children":[2,4,6,-1,8,-1,-1,-1,-1],"split_conditions":[1.650093E6,3.751555E3,4.44E2,-5.357137E-2,8.4E1,-5.1695317E-2,7.4999136E-1,-5.3308852E-2,7.183127E-1],"split_indices":[5,12,0,0,0,0,0,0,0],"split_type":[0,0,0,0,0,0,0,0,0],"sum_hessian":[2.7133105E6,2.5324378E6,1.808728E5,2.5317945E6,6.433778E2,8.176001E1,1.8079103E5,5.964623E2,4.6915558E1],"tree_param":{"num_deleted":"0","num_feature":"78","num_nodes":"9","size_leaf_vector":"1"}},{"base_weights":[-7.985436E-5,-4.3247086E-1,4.824513E0,-5.197505E-1,8.979508E-2,-5.3569008E-2,7.027359E0,-4.1502357E-1,-5.357129E-2,-3.2916933E-1,6.853955E0,7.4965587E0,-5.3554427E-2,-4.8183408E-1,2.5456586E0,-4.3274286E-1,4.444525E0,-5.3441502E-2,7.3093877E0,7.4998885E-1,-5.110545E-2,4.767331E-2,-5.342219E-2,-5.353051E-2,7.493515E-1,-5.1643945E-2,1.6683494E-1,7.277904E-1,-5.3510707E-2,-5.3220965E-2,7.4922955E-1],"categories":[],"categories_nodes":[],"categories_segments":[],"categories_sizes":[],"default_left":[0,0,0,0,0,0,0,0,0,0,0,0,0,0,0,0,0,0,0,0,0,0,0,0,0,0,0,0,0,0,0],"id":9,"left_children":[1,3,5,7,9,-1,11,13,-1,15,17,19,-1,21,23,25,27,-1,29,-1,-1,-1,-1,-1,-1,-1,-1,-1,-1,-1,-1],"loss_changes":[5.6610155E6,1.1352384E5,2.635507E6,3.56625E3,1.0106095E6,0E0,5.61355E5,5.582956E4,0E0,1.6603517E5,7.0000125E4,3.9825E3,0E0,1.386109E4,9.4960984E4,5.7800812E4,1.0062795E5,0E0,2.8112375E4,0E0,0E0,0E0,0E0,0E0,0E0,0E0,0E0,0E0,0E0,0E0,0E0],"parents":[2147483647,0,0,1,1,2,2,3,3,4,4,6,6,7,7,9,9,10,10,11,11,13,13,14,14,15,15,16,16,18,18],"right_children":[2,4,6,8,10,-1,12,14,-1,16,18,20,-1,22,24,26,28,-1,30,-1,-1,-1,-1,-1,-1,-1,-1,-1,-1,-1,-1],"split_conditions":[1.8678569E2,1E0,4.44E2,2.8E1,2.1920311E1,-5.3569008E-2,4.64E2,2.6E1,-5.357129E-2,4.493983E3,5.45694E5,4.4666668E1,-5.3554427E-2,7.6826996E1,1.1E1,6.2E2,1E0,-5.3441502E-2,4.44E2,7.4998885E-1,-5.110545E-2,4.767331E-2,-5.342219E-2,-5.353051E-2,7.493515E-1,-5.1643945E-2,1.6683494E-1,7.277904E-1,-5.3510707E-2,-5.3220965E-2,7.4922955E-1],"split_indices":[8,38,0,69,9,0,0,69,0,27,1,12,0,14,3,24,51,0,0,0,0,0,0,0,0,0,0,0,0,0,0],"split_type":[0,0,0,0,0,0,0,0,0,0,0,0,0,0,0,0,0,0,0,0,0,0,0,0,0,0,0,0,0,0,0],"sum_hessian":[2.7136672E6,2.4904678E6,2.2319947E5,2.1338635E6,3.5660428E5,6.5010406E4,1.5818906E5,2.8223653E5,1.8516269E6,3.3580666E5,2.0797654E4,1.4894844E5,9.240623E3,2.7600997E5,6.226578E3,3.2867734E5,7.1292983E3,1.2074845E3,1.959017E4,1.4888672E5,6.172445E1,1.430153E4,2.6170844E5,3.8382402E3,2.388338E3,3.1608778E5,1.2589548E4,4.543343E3,2.5859558E3,4.4638226E2,1.914379E4],"tree_param":{"num_deleted":"0","num_feature":"78","num_nodes":"31","size_leaf_vector":"1"}},{"base_weights":[-1.3649726E-4,-4.3963352E-1,3.319283E0,2.432591E0,-4.851053E-1,-5.356554E-1,7.3683653E0,-5.333118E-1,7.493731E-1,-5.304113E-1,1.2635797E-1,-5.3566765E-2,1.7506141E-2,7.4962527E-1,-5.3507693E-2,-5.354776E-1,3.484927E0,-5.347851E-1,-5.001769E-1,-5.357037E-2,7.405024E0,-5.3560503E-2,3.5913136E-2,-0E0,4.4157964E-1,-5.3501334E-2,-5.2366924E-2,-5.3229798E-2,2.596924E-1,-5.2008748E-2,7.463135E-1],"categories":[],"categories_nodes":[],"categories_segments":[],"categories_sizes":[],"default_left":[0,0,0,0,0,0,0,0,0,0,0,0,0,0,0,0,0,0,0,0,0,0,0,0,0,0,0,0,0,0,0],"id":10,"left_children":[1,3,5,7,9,11,13,15,-1,17,19,-1,-1,-1,-1,21,23,25,27,-1,29,-1,-1,-1,-1,-1,-1,-1,-1,-1,-1],"loss_changes":[3.9584415E6,3.129452E5,4.95193E6,5.605623E5,6.5345062E4,1.7851562E0,1.56404E5,2.0717725E2,0E0,2.89375E2,7.841265E5,0E0,0E0,0E0,0E0,3.1567383E0,4.3376175E1,3.8125E0,2.7616328E4,0E0,6.2590625E3,0E0,0E0,0E0,0E0,0E0,0E0,0E0,0E0,0E0,0E0],"parents":[2147483647,0,0,1,1,2,2,3,3,4,4,5,5,6,6,7,7,9,9,10,10,15,15,16,16,17,17,18,18,20,20],"right_children":[2,4,6,8,10,12,14,16,-1,18,20,-1,-1,-1,-1,22,24,26,28,-1,30,-1,-1,-1,-1,-1,-1,-1,-1,-1,-1],"split_conditions":[1.4285714E4,3.2E1,1E0,1E0,4E1,6.81E2,2E0,1.85093E5,7.493731E-1,1.3315579E2,0E0,-5.3566765E-2,1.7506141E-2,7.4962527E-1,-5.3507693E-2,6.681E3,1.03031E5,2E0,2.896E4,-5.357037E-2,1E0,-5.3560503E-2,3.5913136E-2,-0E0,4.4157964E-1,-5.3501334E-2,-5.2366924E-2,-5.3229798E-2,2.596924E-1,-5.2008748E-2,7.463135E-1],"split_indices":[37,34,46,46,69,1,2,24,0,37,67,0,0,0,0,24,73,51,67,0,11,0,0,0,0,0,0,0,0,0,0],"split_type":[0,0,0,0,0,0,0,0,0,0,0,0,0,0,0,0,0,0,0,0,0,0,0,0,0,0,0,0,0,0,0],"sum_hessian":[2.7133492E6,2.3961028E6,3.1724638E5,3.734105E4,2.3587618E6,1.6252023E5,1.5472614E5,2.3545016E4,1.3796037E4,2.196048E6,1.6271373E5,1.6251861E5,1.617778E0,1.5226252E5,2.463627E3,2.353419E4,1.0826668E1,1.9184669E6,2.775812E5,1.4914905E5,1.3564694E4,2.3532197E4,1.9911113E0,2.6133335E0,8.213334E0,1.8797332E6,3.8733586E4,2.7473366E5,2.847538E3,9.8560005E1,1.3466135E4],"tree_param":{"num_deleted":"0","num_feature":"78","num_nodes":"31","size_leaf_vector":"1"}},{"base_weights":[-3.073613E-4,3.4366815E0,-5.3571362E-2,-5.357057E-2,7.4379396E0,7.486081E0,2.093075E0,-4.9901392E-2,7.487895E0,7.344549E0,-5.342698E-2,7.495751E-1,6.165672E-1,-3.5804022E-2,7.445038E-1],"categories":[],"categories_nodes":[],"categories_segments":[],"categories_sizes":[],"default_left":[0,0,0,0,0,0,0,0,0,0,0,0,0,0,0],"id":11,"left_children":[1,3,-1,-1,5,7,9,-1,11,13,-1,-1,-1,-1,-1],"loss_changes":[4.9937845E6,5.813641E6,0E0,0E0,4.6851E4,2.626E3,2.2493957E4,0E0,1.776E3,4.29625E2,0E0,0E0,0E0,0E0,0E0],"parents":[2147483647,0,0,1,1,4,4,5,5,6,6,8,8,9,9],"right_children":[2,4,-1,-1,6,8,10,-1,12,14,-1,-1,-1,-1,-1],"split_conditions":[2.5E1,2.2E1,-5.3571362E-2,-5.357057E-2,2.9307385E3,2.4E1,2E0,-4.9901392E-2,1.33E2,1E0,-5.342698E-2,7.495751E-1,6.165672E-1,-3.5804022E-2,7.445038E-1],"split_indices":[0,0,0,0,14,34,10,0,19,3,0,0,0,0,0],"split_type":[0,0,0,0,0,0,0,0,0,0,0,0,0,0,0],"sum_hessian":[2.713737E6,3.6576053E5,2.3479765E6,1.8354325E5,1.822173E5,1.8058981E5,1.6274846E3,4.081778E1,1.80549E5,5.415823E2,1.0859023E3,1.7947292E5,1.0760712E3,6.844445E0,5.347378E2],"tree_param":{"num_deleted":"0","num_feature":"78","num_nodes":"15","size_leaf_vector":"1"}},{"base_weights":[1.013353E-5,-4.1774476E-1,2.9384427E0,-4.687195E-1,3.1408274E-1,2.387059E0,4.524313E0,-4.9994516E-1,-2.5787407E-1,5.479167E0,-5.357025E-2,-2.8857952E-1,2.5715132E0,4.953214E0,-5.3548362E-2,-5.329494E-1,-2.0838016E-1,-3.1770012E-1,4.0629745E0,5.8932047E-2,7.160271E0,-5.302889E-1,9.677703E-1,3.077478E0,2.06758E0,5.353056E0,3.873619E0,-5.334639E-2,-4.203901E-2,-3.6650952E-2,5.761196E-1,5.714921E-3,-5.0997473E-2,-3.8233187E-2,6.425301E-1,1.0102429E-1,-5.3522136E-2,7.4928457E-1,7.229428E-2,-5.355972E-2,-0E0,2.7030697E-2,6.354225E-1,2.8710708E-1,4.7793707E-1,2.2259001E-1,3.148734E-2,4.162604E-1,5.968112E-1,1.2505297E-1,4.0633568E-1],"categories":[],"categories_nodes":[],"categories_segments":[],"categories_sizes":[],"default_left":[0,0,0,0,0,0,0,0,0,0,0,0,0,0,0,0,0,0,0,0,0,0,0,0,0,0,0,0,0,0,0,0,0,0,0,0,0,0,0,0,0,0,0,0,0,0,0,0,0,0,0],"id":12,"left_children":[1,3,5,7,9,11,13,15,17,19,-1,21,23,25,-1,27,29,31,33,35,37,39,41,43,45,47,49,-1,-1,-1,-1,-1,-1,-1,-1,-1,-1,-1,-1,-1,-1,-1,-1,-1,-1,-1,-1,-1,-1,-1,-1],"loss_changes":[3.331472E6,8.864084E4,2.95365E5,1.4624531E4,6.791484E5,1.23713875E5,1.8913325E5,1.8618156E4,7.407413E4,1.991885E5,0E0,4.9104424E3,5.9775625E4,3.4633375E4,0E0,9.978125E1,1.8572834E5,2.0371305E4,4.1103734E4,2.9275698E3,3.570675E4,3.799414E1,9.794836E3,4.1072E4,3.2600062E4,4.286675E4,1.0797375E4,0E0,0E0,0E0,0E0,0E0,0E0,0E0,0E0,0E0,0E0,0E0,0E0,0E0,0E0,0E0,0E0,0E0,0E0,0E0,0E0,0E0,0E0,0E0,0E0],"parents":[2147483647,0,0,1,1,2,2,3,3,4,4,5,5,6,6,7,7,8,8,9,9,11,11,12,12,13,13,15,15,16,16,17,17,18,18,19,19,20,20,21,21,22,22,23,23,24,24,25,25,26,26],"right_children":[2,4,6,8,10,12,14,16,18,20,-1,22,24,26,-1,28,30,32,34,36,38,40,42,44,46,48,50,-1,-1,-1,-1,-1,-1,-1,-1,-1,-1,-1,-1,-1,-1,-1,-1,-1,-1,-1,-1,-1,-1,-1,-1],"split_conditions":[2.896E4,1.15E3,4.0190225E6,1E0,8.4E1,2.3854802E6,2E0,1.052E3,3.6E2,2.9270182E0,-5.357025E-2,6.41E2,8.65E2,1.9747596E6,-5.3548362E-2,2.0489E4,6.02E2,2.41E2,4.1E2,2.82136E5,1.258E3,6.2E2,1.57E2,1.968368E-1,1.156E3,4.070461E6,6.2E1,-5.334639E-2,-4.203901E-2,-3.6650952E-2,5.761196E-1,5.714921E-3,-5.0997473E-2,-3.8233187E-2,6.425301E-1,1.0102429E-1,-5.3522136E-2,7.4928457E-1,7.229428E-2,-5.355972E-2,-0E0,2.7030697E-2,6.354225E-1,2.8710708E-1,4.7793707E-1,2.2259001E-1,3.148734E-2,4.162604E-1,5.968112E-1,1.2505297E-1,4.0633568E-1],"split_indices":[67,67,22,48,0,21,4,29,67,37,0,24,24,16,0,4,6,66,66,25,67,24,19,37,24,22,19,0,0,0,0,0,0,0,0,0,0,0,0,0,0,0,0,0,0,0,0,0,0,0,0],"split_type":[0,0,0,0,0,0,0,0,0,0,0,0,0,0,0,0,0,0,0,0,0,0,0,0,0,0,0,0,0,0,0,0,0,0,0,0,0,0,0,0,0,0,0,0,0,0,0,0,0,0,0],"sum_hessian":[2.7139262E6,2.376117E6,3.378093E5,2.2213895E6,1.5472739E5,2.5066286E5,8.714646E4,1.9348399E6,2.8654966E5,2.1858545E4,1.3286884E5,1.6165584E4,2.3449728E5,8.0336734E4,6.809725E3,1.7380901E6,1.967498E5,2.8263825E5,3.9114136E3,5.175147E3,1.6683396E4,1.3558597E4,2.6069868E3,1.1700716E5,1.17490125E5,5.8618316E4,2.171842E4,1.7301702E6,7.9197695E3,1.9167445E5,5.075343E3,9.582373E4,1.8681452E5,1.3578135E3,2.5536E3,1.989369E3,3.185778E3,1.5863433E4,8.1996454E2,1.3423574E4,1.3502223E2,2.3100625E3,2.9692447E2,1.0435638E5,1.2650774E4,1.0775583E5,9.734294E3,1.9974207E4,3.864411E4,1.4662046E3,2.0252215E4],"tree_param":{"num_deleted":"0","num_feature":"78","num_nodes":"51","size_leaf_vector":"1"}},{"base_weights":[4.6982555E-4,-2.334566E-1,1.823676E0,-4.3809623E-1,1.3984525E0,2.9256077E0,-5.356983E-2,-5.3558785E-1,-8.600784E-2,6.104238E0,-5.35706E-2,5.8801923E0,1.4320365E0,-5.3571332E-2,-5.062192E-1,-5.352844E-1,6.0378113E0,-5.355927E-2,7.42188E0,2.6666858E0,7.2907453E0,-1.1956843E-2,4.414588E0,-5.354944E-2,6.949052E-1,-5.3548723E-2,-5.2127745E-2,7.495852E-1,-5.3544104E-2,-5.32131E-2,7.4755824E-1,1.530715E-1,6.98234E-1,-5.3331412E-2,7.396249E-1,-4.2819125E-3,3.406187E-1,7.158263E-1,-5.356176E-2],"categories":[],"categories_nodes":[],"categories_segments":[],"categories_sizes":[],"default_left":[0,0,0,0,0,0,0,0,0,0,0,0,0,0,0,0,0,0,0,0,0,0,0,0,0,0,0,0,0,0,0,0,0,0,0,0,0,0,0],"id":13,"left_children":[1,3,5,7,9,11,-1,13,15,17,-1,19,21,-1,23,25,27,-1,29,31,33,35,37,-1,-1,-1,-1,-1,-1,-1,-1,-1,-1,-1,-1,-1,-1,-1,-1],"loss_changes":[1.1571445E6,8.0303006E5,8.0212744E5,7.334259E4,2.4387042E6,9.280261E5,0E0,5.0625E0,1.2747954E6,6.8284725E5,0E0,3.2003525E5,6.016268E5,0E0,1.5697994E3,1.5625E-1,3.0353888E5,0E0,2.78295E4,1.05591484E5,4.051875E4,9.927998E3,6.189242E5,0E0,0E0,0E0,0E0,0E0,0E0,0E0,0E0,0E0,0E0,0E0,0E0,0E0,0E0,0E0,0E0],"parents":[2147483647,0,0,1,1,2,2,3,3,4,4,5,5,7,7,8,8,9,9,11,11,12,12,14,14,15,15,16,16,18,18,19,19,20,20,21,21,22,22],"right_children":[2,4,6,8,10,12,-1,14,16,18,-1,20,22,-1,24,26,28,-1,30,32,34,36,38,-1,-1,-1,-1,-1,-1,-1,-1,-1,-1,-1,-1,-1,-1,-1,-1],"split_conditions":[1E0,2.289058E2,1.0368964E-1,2.310536E2,5.077241E6,2.59E2,-5.356983E-2,1.3914001E2,7.0710677E-1,4.638906E5,-5.35706E-2,2.41E2,2.6E2,-5.3571332E-2,1.193617E6,1.6303041E2,9.0208026E2,-5.355927E-2,1.4856761E3,3.6515667E1,7.030056E3,1E0,2.94E2,-5.354944E-2,6.949052E-1,-5.3548723E-2,-5.2127745E-2,7.495852E-1,-5.3544104E-2,-5.32131E-2,7.4755824E-1,1.530715E-1,6.98234E-1,-5.3331412E-2,7.396249E-1,-4.2819125E-3,3.406187E-1,7.158263E-1,-5.356176E-2],"split_indices":[48,9,14,36,1,66,0,36,13,16,0,66,66,0,22,27,14,0,22,17,15,24,66,0,0,0,0,0,0,0,0,0,0,0,0,0,0,0,0],"split_type":[0,0,0,0,0,0,0,0,0,0,0,0,0,0,0,0,0,0,0,0,0,0,0,0,0,0,0,0,0,0,0,0,0,0,0,0,0,0,0],"sum_hessian":[2.7131362E6,2.4046138E6,3.0852244E5,2.1366785E6,2.6793538E5,2.1030192E5,9.822052E4,1.6733369E6,4.6334156E5,7.8046086E4,1.898893E5,7.061165E4,1.3969027E5,1.6661658E6,7.171112E3,4.3167356E5,3.1668002E4,1.2923433E4,6.5122656E4,2.1541709E4,4.906994E4,9.412282E4,4.5567453E4,7.1449785E3,2.6133335E1,4.254019E5,6.271627E3,2.5918668E4,5.749334E3,4.3655115E2,6.46861E4,1.7055236E4,4.4864717E3,6.527112E2,4.841723E4,9.3282695E4,8.401245E2,2.9317371E4,1.6250081E4],"tree_param":{"num_deleted":"0","num_feature":"78","num_nodes":"39","size_leaf_vector":"1"}},{"base_weights":[3.755481E-5,-4.919952E-1,3.4608269E0,-5.093692E-1,-1.5842248E-2,4.009178E0,1.4541471E0,-4.2919728E-1,-5.297556E-1,7.4515924E0,-5.3569417E-2,-5.355208E-2,4.2488556E0,1.7259626E0,-5.35534E-2,-5.2520925E-1,-3.1360197E-1,-5.327887E-1,-2.0480074E-1,-4.846054E-2,7.493997E0,3.787193E0,4.702721E0,1.0736368E0,2.9919589E0,-5.286468E-2,-4.1919593E-2,-5.346815E-2,1.4560273E-1,-5.3564567E-2,-5.236725E-2,1.2620366E-1,-5.3560037E-2,-1.5388771E-2,7.497136E-1,3.94556E-1,1.6364358E-1,4.7604895E-1,-3.62431E-2,1.4665438E-1,7.0737764E-2,3.2302076E-1,-3.7301477E-2],"categories":[],"categories_nodes":[],"categories_segments":[],"categories_sizes":[],"default_left":[0,0,0,0,0,0,0,0,0,0,0,0,0,0,0,0,0,0,0,0,0,0,0,0,0,0,0,0,0,0,0,0,0,0,0,0,0,0,0,0,0,0,0],"id":14,"left_children":[1,3,5,7,9,11,13,15,17,19,-1,-1,21,23,-1,25,27,29,31,-1,33,35,37,39,41,-1,-1,-1,-1,-1,-1,-1,-1,-1,-1,-1,-1,-1,-1,-1,-1,-1,-1],"loss_changes":[4.6204625E6,1.9652812E4,3.7164075E5,3.7451875E3,3.2467284E5,2.88951E5,3.920764E4,5.156547E3,1.8005312E3,1.8426875E3,0E0,0E0,5.2758E4,5.2662953E4,0E0,9.158594E1,8.249028E4,4.609375E1,8.203022E3,0E0,1.359375E2,4.25355E4,3.718225E4,6.054457E3,1.7390062E4,0E0,0E0,0E0,0E0,0E0,0E0,0E0,0E0,0E0,0E0,0E0,0E0,0E0,0E0,0E0,0E0,0E0,0E0],"parents":[2147483647,0,0,1,1,2,2,3,3,4,4,5,5,6,6,7,7,8,8,9,9,12,12,13,13,15,15,16,16,17,17,18,18,20,20,21,21,22,22,23,23,24,24],"right_children":[2,4,6,8,10,12,14,16,18,20,-1,-1,22,24,-1,26,28,30,32,-1,34,36,38,40,42,-1,-1,-1,-1,-1,-1,-1,-1,-1,-1,-1,-1,-1,-1,-1,-1,-1,-1],"split_conditions":[2.896E4,2.0489E4,5.743361E6,2E0,5.93E2,2.5498862E6,2E0,2.94E2,2.081E3,2.225E2,-5.3569417E-2,-5.355208E-2,8.65E2,1.9747596E6,-5.35534E-2,2.48E2,2.310536E2,8.9562546E1,8.4E1,-4.846054E-2,2.7148E4,5.677291E6,6.681E3,8.45E2,9.06E2,-5.286468E-2,-4.1919593E-2,-5.346815E-2,1.4560273E-1,-5.3564567E-2,-5.236725E-2,1.2620366E-1,-5.3560037E-2,-1.5388771E-2,7.497136E-1,3.94556E-1,1.6364358E-1,4.7604895E-1,-3.62431E-2,1.4665438E-1,7.0737764E-2,3.2302076E-1,-3.7301477E-2],"split_indices":[67,63,20,40,6,22,63,66,67,53,0,0,24,16,0,67,36,53,0,0,5,18,24,24,24,0,0,0,0,0,0,0,0,0,0,0,0,0,0,0,0,0,0],"split_type":[0,0,0,0,0,0,0,0,0,0,0,0,0,0,0,0,0,0,0,0,0,0,0,0,0,0,0,0,0,0,0,0,0,0,0,0,0,0,0,0,0,0,0],"sum_hessian":[2.7134102E6,2.3756562E6,3.3775394E5,2.2920232E6,8.363315E4,2.652647E5,7.2489266E4,4.6468044E5,1.8273428E6,5.441458E3,7.819169E4,1.3288428E4,2.5197625E5,6.3777035E4,8.712231E3,2.5383608E5,2.1084438E5,1.8104414E6,1.6901424E4,2.874667E1,5.4127114E3,1.2492494E5,1.2705132E5,4.209234E4,2.1684695E4,2.458516E5,7.9844805E3,1.8743039E5,2.3413975E4,1.3783154E6,4.321259E5,3.1088713E3,1.3792553E4,2.1155558E0,5.410596E3,1.1635544E5,8.569494E3,1.25618836E5,1.4324801E3,2.030386E4,2.1788482E4,2.0251096E4,1.4336001E3],"tree_param":{"num_deleted":"0","num_feature":"78","num_nodes":"43","size_leaf_vector":"1"}},{"base_weights":[9.0661E-4,3.6808488E0,-2.165857E-1,6.637674E0,3.6528866E0,-3.035371E-1,1.7579526E0,3.650821E0,7.3933477E0,3.6499372E0,5.365174E0,-3.2153174E-1,3.981494E0,3.690595E0,5.322728E-1,3.7831724E0,1.3226849E0,7.467493E-1,3.3196673E-1,3.8664033E0,3.64807E-1,3.6576453E-1,7.7810426E0,1.612393E-2,-4.3990558E-1,7.051094E0,3.714751E0,3.663316E-1,3.7280583E-1,4.54272E0,8.790976E-2,3.79446E-1,2.6319528E-2,2.612439E-1,-1.3331546E-2,6.0322255E-1,3.84076E-1,2.1226351E-1,7.907315E-1,3.8375238E-1,-9.292223E-3,-4.4803698E-2,2.9763576E-1,7.467594E-1,3.9033258E-1,3.6764458E-1,6.5726644E-1,5.976551E-1,3.6657646E-1,-1.7056545E-2,3.6491242E-1],"categories":[],"categories_nodes":[],"categories_segments":[],"categories_sizes":[],"default_left":[0,0,0,0,0,0,0,0,0,0,0,0,0,0,0,0,0,0,0,0,0,0,0,0,0,0,0,0,0,0,0,0,0,0,0,0,0,0,0,0,0,0,0,0,0,0,0,0,0,0,0],"id":15,"left_children":[1,3,5,7,9,11,13,15,17,19,21,23,25,27,29,31,33,-1,-1,35,-1,-1,37,39,41,43,45,-1,-1,47,49,-1,-1,-1,-1,-1,-1,-1,-1,-1,-1,-1,-1,-1,-1,-1,-1,-1,-1,-1,-1],"loss_changes":[2.1588822E6,1.239175E4,4.3726862E5,3.1174492E3,7.095E2,1.8810033E5,2.544601E5,7.627026E1,2.836953E2,2.825E1,9.763867E2,9.709609E4,8.295109E3,1.15625E1,1.171473E5,6.7614746E0,3.7213398E1,0E0,0E0,1.744336E1,0E0,0E0,3.458789E1,2.6276734E5,4.9966625E4,1.0022031E3,9.7452344E2,0E0,0E0,8.196297E3,5.447952E4,0E0,0E0,0E0,0E0,0E0,0E0,0E0,0E0,0E0,0E0,0E0,0E0,0E0,0E0,0E0,0E0,0E0,0E0,0E0,0E0],"parents":[2147483647,0,0,1,1,2,2,3,3,4,4,5,5,6,6,7,7,8,8,9,9,10,10,11,11,12,12,13,13,14,14,15,15,16,16,19,19,22,22,23,23,24,24,25,25,26,26,29,29,30,30],"right_children":[2,4,6,8,10,12,14,16,18,20,22,24,26,28,30,32,34,-1,-1,36,-1,-1,38,40,42,44,46,-1,-1,48,50,-1,-1,-1,-1,-1,-1,-1,-1,-1,-1,-1,-1,-1,-1,-1,-1,-1,-1,-1,-1],"split_conditions":[0E0,3.4E1,3.2785E4,3.7E1,4.44E2,6.5535E4,3E0,1.85093E5,3.2771E4,3.625E1,9E0,2.5E1,8.4E1,1E0,2.37E2,2.2874238E7,2.580301E2,7.467493E-1,3.3196673E-1,7E1,3.64807E-1,3.6576453E-1,2.61E2,5E0,3.5576398E2,4.6193716E2,4.44E2,3.663316E-1,3.7280583E-1,1.7897858E1,1.7897858E1,3.79446E-1,2.6319528E-2,2.612439E-1,-1.3331546E-2,6.0322255E-1,3.84076E-1,2.1226351E-1,7.907315E-1,3.8375238E-1,-9.292223E-3,-4.4803698E-2,2.9763576E-1,7.467594E-1,3.9033258E-1,3.6764458E-1,6.5726644E-1,5.976551E-1,3.6657646E-1,-1.7056545E-2,3.6491242E-1],"split_indices":[66,39,0,4,0,66,11,24,0,12,62,69,0,48,66,25,75,0,0,0,0,0,4,52,9,9,0,0,0,17,17,0,0,0,0,0,0,0,0,0,0,0,0,0,0,0,0,0,0,0,0],"split_type":[0,0,0,0,0,0,0,0,0,0,0,0,0,0,0,0,0,0,0,0,0,0,0,0,0,0,0,0,0,0,0,0,0,0,0,0,0,0,0,0,0,0,0,0,0,0,0,0,0,0,0],"sum_hessian":[2.6973858E6,1.5052317E5,2.5468625E6,1.4055455E3,1.4911762E5,2.4394405E6,1.0742205E5,2.862898E2,1.1192557E3,1.4886775E5,2.498753E2,2.429241E6,1.0199435E4,4.1686566E4,6.5735484E4,2.6950412E2,1.6785666E1,1.0974916E3,2.1764217E1,1.2352815E3,1.4763247E5,1.4946727E2,1.0040803E2,6.305695E5,1.7986715E6,8.112351E2,9.3882E3,2.4244154E4,1.744241E4,6.5550996E3,5.9180383E4,2.6834558E2,1.158523E0,8.240743E0,8.544923E0,8.744624E0,1.2265369E3,3.0557594E0,9.7352264E1,1.7492727E4,6.1307675E5,1.7944024E6,4.2691455E3,7.138746E2,9.736057E1,9.268717E3,1.1948269E2,2.4830637E3,4.072036E3,5.5177344E4,4.0030427E3],"tree_param":{"num_deleted":"0","num_feature":"78","num_nodes":"51","size_leaf_vector":"1"}},{"base_weights":[-9.2130643E-4,-5.273281E-1,2.5310376E0,3.4365454E-1,-5.3308237E-2,3.020275E0,-5.2674395E-1,-5.3438574E-2,3.5533166E0,2.1754422E0,3.7693448E0,-5.3264767E-2,5.0491543E0,3.5926046E0,-5.069366E-2,3.4302444E0,-5.204811E-1,3.661657E0,6.07202E0,6.998629E-1,-4.5500606E-2,-4.8418906E-2,3.6311588E-1,-5.3346794E-2,3.5623088E-1,-5.3011533E-2,7.232283E-1,-5.3255588E-2,3.6798623E-1,6.949512E-1,2.0356344E-1],"categories":[],"categories_nodes":[],"categories_segments":[],"categories_sizes":[],"default_left":[0,0,0,0,0,0,0,0,0,0,0,0,0,0,0,0,0,0,0,0,0,0,0,0,0,0,0,0,0,0,0],"id":16,"left_children":[1,3,5,7,-1,9,11,-1,13,15,17,-1,19,21,-1,23,25,27,29,-1,-1,-1,-1,-1,-1,-1,-1,-1,-1,-1,-1],"loss_changes":[3.6022438E6,1.12145E4,6.959145E5,4.139357E4,0E0,2.5376425E5,2.1153145E3,0E0,5.0846094E2,6.3757144E5,5.265825E4,0E0,7.389324E2,4.9628125E2,0E0,6.732825E4,4.4755205E3,1.55105E4,3.359078E4,0E0,0E0,0E0,0E0,0E0,0E0,0E0,0E0,0E0,0E0,0E0,0E0],"parents":[2147483647,0,0,1,1,2,2,3,3,5,5,6,6,8,8,9,9,10,10,12,12,13,13,15,15,16,16,17,17,18,18],"right_children":[2,4,6,8,-1,10,12,-1,14,16,18,-1,20,22,-1,24,26,28,30,-1,-1,-1,-1,-1,-1,-1,-1,-1,-1,-1,-1],"split_conditions":[2.385E3,2.4E1,3.2E1,1.814E3,-5.3308237E-2,9.2E1,5.0695E4,-5.3438574E-2,9.1E2,2.4E1,1.0603332E5,-5.3264767E-2,3.4142857E1,2.35E2,-5.069366E-2,2.37E2,2.5E1,4.4273E4,5.6682856E3,6.998629E-1,-4.5500606E-2,-4.8418906E-2,3.6311588E-1,-5.3346794E-2,3.5623088E-1,-5.3011533E-2,7.232283E-1,-5.3255588E-2,3.6798623E-1,6.949512E-1,2.0356344E-1],"split_indices":[0,34,69,0,0,34,73,0,66,34,27,0,52,66,0,66,69,28,42,0,0,0,0,0,0,0,0,0,0,0,0],"split_type":[0,0,0,0,0,0,0,0,0,0,0,0,0,0,0,0,0,0,0,0,0,0,0,0,0,0,0,0,0,0,0],"sum_hessian":[2.702679E6,2.2374945E6,4.6518438E5,1.4683998E4,2.2228105E6,4.0102203E5,6.416234E4,1.1531055E4,3.1529426E3,1.8846812E5,2.125539E5,6.4096375E4,6.596613E1,3.1230764E3,2.9866055E1,1.2860794E5,5.986019E4,2.030628E5,9.491107E3,4.8378975E1,1.7587156E1,2.8919996E1,3.0941565E3,4.14652E3,1.24461414E5,5.978782E4,7.236931E1,8.772294E2,2.0218558E5,7.7949536E3,1.696154E3],"tree_param":{"num_deleted":"0","num_feature":"78","num_nodes":"31","size_leaf_vector":"1"}},{"base_weights":[-5.69454E-5,1.3699675E0,-5.331548E-2,2.9291942E0,-5.3290684E-2,3.6222243E0,-5.3638977E-1,-4.294329E-1,3.8471332E0,-5.551496E-1,-5.3287525E-2,-4.9050037E-2,2.548116E-1,3.8594326E-1,-5.1847328E-2,-5.328262E-2,-5.6906678E-2],"categories":[],"categories_nodes":[],"categories_segments":[],"categories_sizes":[],"default_left":[0,0,0,0,0,0,0,0,0,0,0,0,0,0,0,0,0],"id":17,"left_children":[1,3,-1,5,-1,7,9,11,13,15,-1,-1,-1,-1,-1,-1,-1],"loss_changes":[1.972479E6,2.2445925E6,0E0,9.986625E5,0E0,3.157645E5,3.4335938E0,3.3153535E3,1.7633E4,2.2177734E0,0E0,0E0,0E0,0E0,0E0,0E0,0E0],"parents":[2147483647,0,0,1,1,3,3,5,5,6,6,7,7,8,8,9,9],"right_children":[2,4,-1,6,-1,8,10,12,14,16,-1,-1,-1,-1,-1,-1,-1],"split_conditions":[2.1E1,2.35E2,-5.331548E-2,1.0333333E1,-5.3290684E-2,1.8E1,1.2960969E-2,2.29E2,8.4E1,3E0,-5.3287525E-2,-4.9050037E-2,2.548116E-1,3.8594326E-1,-5.1847328E-2,-5.328262E-2,-5.6906678E-2],"split_indices":[69,67,0,8,0,4,37,67,0,68,0,0,0,0,0,0,0],"split_type":[0,0,0,0,0,0,0,0,0,0,0,0,0,0,0,0,0],"sum_hessian":[2.7007015E6,7.565126E5,1.944189E6,4.158015E5,3.407111E5,3.4650853E5,6.929297E4,1.8223031E4,3.282855E5,1.0861358E4,5.8431613E4,1.7858602E4,3.644291E2,3.2736356E5,9.21929E2,4.214964E3,6.646394E3],"tree_param":{"num_deleted":"0","num_feature":"78","num_nodes":"17","size_leaf_vector":"1"}},{"base_weights":[-1.5035538E-3,-3.3915246E-1,1.2746692E0,-4.9698874E-1,3.2506518E0,-5.301577E-1,3.088756E0,-5.2616525E-1,1.358688E0,3.5928986E0,-5.325776E-2,-5.310328E-1,-4.6568435E-1,3.616309E0,-5.063342E-1,-5.274011E-1,-2.771594E-1,2.4143603E0,-5.3424716E-2,3.6193607E0,-5.2982207E-2,2.2985004E-1,-5.310685E-1,1.8652614E0,-5.256193E-1,3.6314068E0,-5.5844028E-2,-5.3272724E-1,3.162708E0,-5.3290166E-2,-4.7229517E-2,-5.313254E-2,6.276943E-1,-5.3418994E-2,3.845409E-1,-5.292309E-2,3.6384112E-1,-5.312107E-2,-3.5306865E-3,-5.338173E-2,5.003569E-1,-5.331263E-2,4.186662E-1,-4.840205E-2,3.6444148E-1,-5.3281087E-2,5.2147154E-3,3.7557897E-1,-4.9150117E-2],"categories":[],"categories_nodes":[],"categories_segments":[],"categories_sizes":[],"default_left":[0,0,0,0,0,0,0,0,0,0,0,0,0,0,0,0,0,0,0,0,0,0,0,0,0,0,0,0,0,0,0,0,0,0,0,0,0,0,0,0,0,0,0,0,0,0,0,0,0],"id":18,"left_children":[1,3,5,7,9,11,13,15,17,19,-1,21,23,25,27,29,31,33,-1,35,-1,-1,37,39,41,43,-1,45,47,-1,-1,-1,-1,-1,-1,-1,-1,-1,-1,-1,-1,-1,-1,-1,-1,-1,-1,-1,-1],"loss_changes":[1.1655236E6,1.2119338E6,1.8528948E6,1.10931125E5,1.1664669E5,1.5015625E1,5.3529625E5,6.2E2,6.3381492E4,9.017875E3,0E0,2.9828125E1,5.353561E2,1.551825E4,3.499628E3,6.07375E2,1.6608613E4,8.5920305E4,0E0,6.49275E3,0E0,0E0,1.9414062E1,7.308256E2,1.3454102E2,1.313375E4,0E0,2.0498047E0,5.647129E2,0E0,0E0,0E0,0E0,0E0,0E0,0E0,0E0,0E0,0E0,0E0,0E0,0E0,0E0,0E0,0E0,0E0,0E0,0E0,0E0],"parents":[2147483647,0,0,1,1,2,2,3,3,4,4,5,5,6,6,7,7,8,8,9,9,11,11,12,12,13,13,14,14,15,15,16,16,17,17,19,19,22,22,23,23,24,24,25,25,27,27,28,28],"right_children":[2,4,6,8,10,12,14,16,18,20,-1,22,24,26,28,30,32,34,-1,36,-1,-1,38,40,42,44,-1,46,48,-1,-1,-1,-1,-1,-1,-1,-1,-1,-1,-1,-1,-1,-1,-1,-1,-1,-1,-1,-1],"split_conditions":[8.3223906E5,1.33E7,2.077E3,9.99855E5,3.2E1,3.5734503E2,5.81E7,7.0667725E5,1.0368964E-1,1.3505739E2,-5.325776E-2,1E0,4.51E2,2.43E2,4.047153E6,7.28E2,1.1657916E3,1E0,-5.3424716E-2,1.4078776E7,-5.2982207E-2,2.2985004E-1,1.59137E5,2.1E1,3.1532556E7,3.525E3,-5.5844028E-2,3.8358072E6,1E1,-5.3290166E-2,-4.7229517E-2,-5.313254E-2,6.276943E-1,-5.3418994E-2,3.845409E-1,-5.292309E-2,3.6384112E-1,-5.312107E-2,-3.5306865E-3,-5.338173E-2,5.003569E-1,-5.331263E-2,4.186662E-1,-4.840205E-2,3.6444148E-1,-5.3281087E-2,5.2147154E-3,3.7557897E-1,-4.9150117E-2],"split_indices":[26,16,10,19,35,52,25,26,14,22,0,3,4,67,70,19,41,47,0,74,0,0,19,69,26,5,0,70,3,0,0,0,0,0,0,0,0,0,0,0,0,0,0,0,0,0,0,0,0],"split_type":[0,0,0,0,0,0,0,0,0,0,0,0,0,0,0,0,0,0,0,0,0,0,0,0,0,0,0,0,0,0,0,0,0,0,0,0,0,0,0,0,0,0,0,0,0,0,0,0,0],"sum_hessian":[2.7048665E6,2.1389472E6,5.659193E5,2.0488648E6,9.00825E4,2.8368425E5,2.8223506E5,2.0171511E6,3.1713648E4,8.260953E4,7.4729697E3,2.7986347E5,3.8207998E3,2.4611903E5,3.6116027E4,2.0071852E6,9.965895E3,2.0359219E4,1.1354432E4,8.208304E4,5.2649115E2,1.7301035E0,2.7986172E5,9.406112E1,3.7267385E3,2.4523255E5,8.8648535E2,3.5859918E4,2.5611072E2,1.8249914E6,1.8219384E5,9.59569E3,3.7020367E2,6.652739E3,1.37064795E4,3.7483865E2,8.17082E4,2.797803E5,8.141612E1,5.4159435E1,3.9901684E1,3.722688E3,4.050634E0,7.723433E2,2.444602E5,3.585583E4,4.092112E0,2.2041791E2,3.5692814E1],"tree_param":{"num_deleted":"0","num_feature":"78","num_nodes":"49","size_leaf_vector":"1"}},{"base_weights":[7.128226E-4,-2.8552306E-1,2.2957778E0,-3.966418E-1,2.140335E0,-4.801999E-1,3.5183854E0,-1.9475853E-1,-4.996235E-1,3.5046408E0,-5.302921E-1,3.030629E0,-5.2522945E-1,-5.32731E-2,3.6346025E0,-3.4150484E-1,2.6460876E0,-5.2026117E-1,4.5840937E-1,3.6331143E0,-5.3162124E-2,-5.3276043E-2,-3.0027074E-1,3.6376152E0,-5.2450866E-2,-5.2913547E-1,3.0048335E0,-5.3042974E-2,3.6426866E0,-4.3528583E-2,2.671784E-1,6.231907E-1,1.5914096E-3,5.368212E-3,-5.2206594E-2,3.2048997E-1,-5.1746953E-2,-5.400606E-2,3.6381763E-1,3.3135247E-1,-5.2669533E-2,-3.669267E-2,3.6668754E-1,7.635796E-2,-5.3097583E-2,-4.3210767E-2,3.5591123E-1,3.642304E-1,5.331029E-1],"categories":[],"categories_nodes":[],"categories_segments":[],"categories_sizes":[],"default_left":[0,0,0,0,0,0,0,0,0,0,0,0,0,0,0,0,0,0,0,0,0,0,0,0,0,0,0,0,0,0,0,0,0,0,0,0,0,0,0,0,0,0,0,0,0,0,0,0,0],"id":19,"left_children":[1,3,5,7,9,11,13,15,17,19,21,23,25,-1,27,29,31,33,35,37,-1,-1,39,41,-1,43,45,-1,47,-1,-1,-1,-1,-1,-1,-1,-1,-1,-1,-1,-1,-1,-1,-1,-1,-1,-1,-1,-1],"loss_changes":[1.7719272E6,6.4645206E5,1.0151201E6,4.7674688E4,3.827235E5,1.445993E4,9.7767E4,3.2292625E5,3.0024281E4,3.6057125E4,1.9430664E1,2.5048389E3,1.246998E3,0E0,6.80175E3,2.0814828E5,3.588416E5,1.5400312E3,8.583276E4,1.4288125E3,0E0,0E0,3.161691E2,1.2031055E2,0E0,2.1528711E2,1.9506744E2,0E0,8.675E1,0E0,0E0,0E0,0E0,0E0,0E0,0E0,0E0,0E0,0E0,0E0,0E0,0E0,0E0,0E0,0E0,0E0,0E0,0E0,0E0],"parents":[2147483647,0,0,1,1,2,2,3,3,4,4,5,5,6,6,7,7,8,8,9,9,10,10,11,11,12,12,14,14,15,15,16,16,17,17,18,18,19,19,22,22,23,23,25,25,26,26,28,28],"right_children":[2,4,6,8,10,12,14,16,18,20,22,24,26,-1,28,30,32,34,36,38,-1,-1,40,42,-1,44,46,-1,48,-1,-1,-1,-1,-1,-1,-1,-1,-1,-1,-1,-1,-1,-1,-1,-1,-1,-1,-1,-1],"split_conditions":[2.19E7,4E5,1.36E2,2.22139E5,2E0,4E0,1.175E3,1.04E2,1.693473E7,8.4E1,1.12E2,1E0,3.8614785E3,-5.32731E-2,2.39E2,9.21E2,1.9782E4,5.9E1,6E0,6.3E1,-5.3162124E-2,-5.3276043E-2,1.4E1,1.02E8,-5.2450866E-2,8E0,6.4E1,-5.3042974E-2,1.4E1,-4.3528583E-2,2.671784E-1,6.231907E-1,1.5914096E-3,5.368212E-3,-5.2206594E-2,3.2048997E-1,-5.1746953E-2,-5.400606E-2,3.6381763E-1,3.3135247E-1,-5.2669533E-2,-3.669267E-2,3.6668754E-1,7.635796E-2,-5.3097583E-2,-4.3210767E-2,3.5591123E-1,3.642304E-1,5.331029E-1],"split_indices":[17,36,35,18,40,40,12,34,17,0,34,51,12,0,4,24,20,66,68,34,0,0,4,20,0,39,4,0,2,0,0,0,0,0,0,0,0,0,0,0,0,0,0,0,0,0,0,0,0],"split_type":[0,0,0,0,0,0,0,0,0,0,0,0,0,0,0,0,0,0,0,0,0,0,0,0,0,0,0,0,0,0,0,0,0,0,0,0,0,0,0,0,0,0,0,0,0,0,0,0,0],"sum_hessian":[2.6972795E6,2.3981845E6,2.990952E5,2.2931465E6,1.0503789E5,9.145159E4,2.0764358E5,7.746159E5,1.5185306E6,6.952182E4,3.551607E4,1.1562761E3,9.029532E4,5.790373E3,2.018532E5,7.365697E5,3.8046195E4,1.4865101E6,3.202052E4,6.737753E4,2.144289E3,3.513424E4,3.8183286E2,9.877303E2,1.6854587E2,9.019736E4,9.796108E1,3.9065158E2,2.0146256E5,7.1433956E5,2.2230127E4,1.6097251E4,2.1948943E4,4.6586836E3,1.4818515E6,8.393631E3,2.3626889E4,8.125102E1,6.729628E4,2.077541E1,3.6105743E2,6.8733273E0,9.8085693E2,1.2666456E2,9.0070695E4,1.354024E1,8.4420845E1,2.0142352E5,3.9035576E1],"tree_param":{"num_deleted":"0","num_feature":"78","num_nodes":"49","size_leaf_vector":"1"}},{"base_weights":[-3.5119487E-4,-3.9090973E-1,2.5735343E0,-4.501569E-1,3.5941343E0,3.318147E0,-5.327446E-2,-4.7189927E-1,3.068069E0,-4.0955773E-1,3.873239E0,3.4418116E0,-5.325958E-2,-5.08324E-1,4.5325425E-2,-5.390205E-2,3.629655E0,-5.3317558E-2,7.257667E-1,3.6591024E0,6.818473E0,1.7185159E0,3.5682626E0,-5.165661E-2,-6.567914E-3,4.819884E-1,-5.2933913E-2,3.7858197E-1,-5.397982E-2,3.599982E-1,7.840457E-1,7.4397296E-1,-5.2583754E-2,-5.2936234E-2,3.6542755E-1,3.6096564E-1,-5.3192902E-2],"categories":[],"categories_nodes":[],"categories_segments":[],"categories_sizes":[],"default_left":[0,0,0,0,0,0,0,0,0,0,0,0,0,0,0,0,0,0,0,0,0,0,0,0,0,0,0,0,0,0,0,0,0,0,0,0,0],"id":20,"left_children":[1,3,5,7,9,11,-1,13,15,17,19,21,-1,23,25,-1,27,-1,-1,29,31,33,35,-1,-1,-1,-1,-1,-1,-1,-1,-1,-1,-1,-1,-1,-1],"loss_changes":[2.7148888E6,5.536366E5,8.22987E5,1.7674553E5,3.839122E4,1.3668025E5,0E0,4.3263094E4,2.875286E4,2.1277988E3,2.0198281E4,6.058275E4,0E0,7.8261875E3,4.1453228E5,0E0,8.0014688E3,0E0,0E0,7.3394375E3,9.931117E3,8.274261E4,4.397525E4,0E0,0E0,0E0,0E0,0E0,0E0,0E0,0E0,0E0,0E0,0E0,0E0,0E0,0E0],"parents":[2147483647,0,0,1,1,2,2,3,3,4,4,5,5,7,7,8,8,9,9,10,10,11,11,13,13,14,14,16,16,19,19,20,20,21,21,22,22],"right_children":[2,4,6,8,10,12,-1,14,16,18,20,22,-1,24,26,-1,28,-1,-1,30,32,34,36,-1,-1,-1,-1,-1,-1,-1,-1,-1,-1,-1,-1,-1,-1],"split_conditions":[1.05E7,1.87E2,2.72E7,3E0,2.61E2,4E0,-5.327446E-2,2.225E2,3.2E1,5.35E2,1E0,3.6032797E5,-5.325958E-2,2E0,5.25E2,-5.390205E-2,8.4E1,-5.3317558E-2,7.257667E-1,2.7413794E2,8.4E1,8E0,3.31E7,-5.165661E-2,-6.567914E-3,4.819884E-1,-5.2933913E-2,3.7858197E-1,-5.397982E-2,3.599982E-1,7.840457E-1,7.4397296E-1,-5.2583754E-2,-5.2936234E-2,3.6542755E-1,3.6096564E-1,-5.3192902E-2],"split_indices":[16,7,16,51,4,3,0,8,69,5,11,17,0,51,6,0,0,0,0,12,0,7,24,0,0,0,0,0,0,0,0,0,0,0,0,0,0],"split_type":[0,0,0,0,0,0,0,0,0,0,0,0,0,0,0,0,0,0,0,0,0,0,0,0,0,0,0,0,0,0,0,0,0,0,0,0,0],"sum_hessian":[2.7006988E6,2.3448898E6,3.558091E5,2.31054E6,3.4349773E4,2.8700947E5,6.8799625E4,2.2963505E6,1.4189401E4,2.2383547E3,3.211142E4,2.7807944E5,8.930024E3,2.145274E6,1.5107669E5,1.9114249E3,1.2277977E4,2.2047341E3,3.3620567E1,2.9939303E4,2.1721157E3,1.9012133E4,2.5906731E5,2.1060578E6,3.921618E4,1.6228605E4,1.3484808E5,1.1835007E4,4.4297034E2,2.952568E4,4.1362317E2,2.0027454E3,1.6937047E2,8.797423E3,1.021471E4,2.5647838E5,2.588934E3],"tree_param":{"num_deleted":"0","num_feature":"78","num_nodes":"37","size_leaf_vector":"1"}},{"base_weights":[-8.7338756E-4,-2.3763564E-1,3.4070685E0,-4.0600458E-1,1.1107076E0,3.578485E0,-5.1742405E-1,-4.6483558E-1,2.1933925E-1,3.5192425E0,-2.4072358E-1,3.6381264E0,-5.3151906E-2,8.3081955E-1,-5.343003E-2,-4.8983368E-1,5.9822667E-1,3.6251562E0,-4.2232E-1,-5.3301632E-2,3.6241305E0,-4.9800324E-1,1.8827186E0,-5.252674E-2,3.6427925E0,-5.0766673E-2,3.6328888E-1,-5.1112056E-2,-2.5910331E-2,3.6017197E-1,-5.3275406E-2,-5.195729E-2,3.6393392E-1,-5.3097423E-2,3.5200623E-1,3.6266944E-1,-1.2343736E-2,-1.4882627E-3,-5.2647304E-2,-5.327819E-2,3.6438546E-1,3.642819E-1,-1.9523686E-3],"categories":[],"categories_nodes":[],"categories_segments":[],"categories_sizes":[],"default_left":[0,0,0,0,0,0,0,0,0,0,0,0,0,0,0,0,0,0,0,0,0,0,0,0,0,0,0,0,0,0,0,0,0,0,0,0,0,0,0,0,0,0,0],"id":21,"left_children":[1,3,5,7,9,11,13,15,17,19,21,23,-1,25,-1,27,29,31,33,-1,35,37,39,-1,41,-1,-1,-1,-1,-1,-1,-1,-1,-1,-1,-1,-1,-1,-1,-1,-1,-1,-1],"loss_changes":[2.1808235E6,5.7373175E5,1.18119625E5,8.265525E4,9.131742E5,4.124275E4,1.679668E2,5.457147E4,4.2219688E5,4.2864125E4,9.818145E4,3.22675E3,0E0,3.475833E2,0E0,9.853469E3,1.6026914E5,1.80575E3,6.963782E4,0E0,9.47125E2,2.2044414E3,8.262441E4,0E0,1.8E1,0E0,0E0,0E0,0E0,0E0,0E0,0E0,0E0,0E0,0E0,0E0,0E0,0E0,0E0,0E0,0E0,0E0,0E0],"parents":[2147483647,0,0,1,1,2,2,3,3,4,4,5,5,6,6,7,7,8,8,9,9,10,10,11,11,13,13,15,15,16,16,17,17,18,18,20,20,21,21,22,22,24,24],"right_children":[2,4,6,8,10,12,14,16,18,20,22,24,-1,26,-1,28,30,32,34,-1,36,38,40,-1,42,-1,-1,-1,-1,-1,-1,-1,-1,-1,-1,-1,-1,-1,-1,-1,-1,-1,-1],"split_conditions":[3.14E7,8.56182E5,2.66E2,1E0,1.5056002E6,2.8708725E0,3.49E2,1.97E7,1E1,8.192E3,2.68E7,8E0,-5.3151906E-2,1.6547589E-1,-5.343003E-2,6.59E2,2.66E2,7.0736947E0,3.84207E1,-5.3301632E-2,6E0,7.8E1,1E0,-5.252674E-2,8.4E1,-5.0766673E-2,3.6328888E-1,-5.1112056E-2,-2.5910331E-2,3.6017197E-1,-5.3275406E-2,-5.195729E-2,3.6393392E-1,-5.3097423E-2,3.5200623E-1,3.6266944E-1,-1.2343736E-2,-1.4882627E-3,-5.2647304E-2,-5.327819E-2,3.6438546E-1,3.642819E-1,-1.9523686E-3],"split_indices":[29,24,39,30,21,12,39,26,4,66,17,6,0,15,0,29,39,8,13,0,40,19,30,0,0,0,0,0,0,0,0,0,0,0,0,0,0,0,0,0,0,0,0],"split_type":[0,0,0,0,0,0,0,0,0,0,0,0,0,0,0,0,0,0,0,0,0,0,0,0,0,0,0,0,0,0,0,0,0,0,0,0,0,0,0,0,0,0,0],"sum_hessian":[2.70281E6,2.5272358E6,1.7557434E5,2.246691E6,2.805447E5,1.6822673E5,7.347609E3,2.0535031E6,1.931879E5,1.0083416E5,1.7971053E5,1.6582083E5,2.405916E3,8.927564E1,7.2583335E3,2.0063255E6,4.7177527E4,3.0625342E4,1.6256256E5,2.5437974E3,9.829036E4,1.6029116E5,1.9419367E4,1.8526697E2,1.6563556E5,6.1403675E1,2.7871965E1,1.8368552E6,1.6947034E5,1.2904287E4,3.4273242E4,1.0407701E2,3.0521266E4,1.5820423E5,4.358338E3,9.822336E4,6.7003815E1,8.921288E3,1.5136988E5,8.18891E3,1.1230457E4,1.656345E5,1.0495008E0],"tree_param":{"num_deleted":"0","num_feature":"78","num_nodes":"43","size_leaf_vector":"1"}},{"base_weights":[-1.3687531E-3,3.6097724E0,-5.328859E-2,3.631679E0,-5.3205717E-2,3.6352189E0,-5.2934118E-2,3.6369023E0,-4.7445866E-1,-5.161948E-2,3.6379322E-1,-5.2326877E-2,1.9432144E-1],"categories":[],"categories_nodes":[],"categories_segments":[],"categories_sizes":[],"default_left":[0,0,0,0,0,0,0,0,0,0,0,0,0],"id":22,"left_children":[1,3,-1,5,-1,7,-1,9,11,-1,-1,-1,-1],"loss_changes":[5.194541E6,3.1511E4,0E0,5.0925E3,0E0,2.3925E3,0E0,1.48E3,1.819347E1,0E0,0E0,0E0,0E0],"parents":[2147483647,0,0,1,1,3,3,5,5,7,7,8,8],"right_children":[2,4,-1,6,-1,8,-1,10,12,-1,-1,-1,-1],"split_conditions":[2.2E1,1E0,-5.328859E-2,1E1,-5.3205717E-2,2.29E2,-5.2934118E-2,2.5E1,1.413023E1,-5.161948E-2,3.6379322E-1,-5.2326877E-2,1.9432144E-1],"split_indices":[0,11,0,2,0,67,0,69,13,0,0,0,0],"split_type":[0,0,0,0,0,0,0,0,0,0,0,0,0],"sum_hessian":[2.7063562E6,3.472331E5,2.359123E6,3.4540656E5,1.8265352E3,3.4511334E5,2.9321317E2,3.4497238E5,1.4095601E2,8.5153206E1,3.4488725E5,1.3990541E2,1.0505927E0],"tree_param":{"num_deleted":"0","num_feature":"78","num_nodes":"13","size_leaf_vector":"1"}},{"base_weights":[-1.7688298E-3,-5.3297497E-2,3.6501184E-1],"categories":[],"categories_nodes":[],"categories_segments":[],"categories_sizes":[],"default_left":[0,0,0],"id":23,"left_children":[1,-1,-1],"loss_changes":[5.2482705E6,0E0,0E0],"parents":[2147483647,0,0],"right_children":[2,-1,-1],"split_conditions":[1.3032E4,-5.3297497E-2,3.6501184E-1],"split_indices":[10,0,0],"split_type":[0,0,0],"sum_hessian":[2.7054235E6,2.3618665E6,3.4355697E5],"tree_param":{"num_deleted":"0","num_feature":"78","num_nodes":"3","size_leaf_vector":"1"}},{"base_weights":[-1.2495484E-3,-4.2437032E-1,2.8186774E0,-5.1602054E-1,8.591913E-2,3.4907131E0,-5.3329308E-2,-5.2793694E-1,-3.541417E-1,-4.643121E-1,2.881281E0,-5.3264607E-2,3.6035974E0,-5.3302605E-2,-4.5438233E-1,-5.3277295E-2,3.5657704E0,-5.2036846E-1,2.235963E0,8.8261944E-1,3.6290717E0,3.6316776E0,-5.322386E-2,6.5582246E-1,-5.3277668E-2,4.0313268E-1,-5.3171474E-2,-5.3292777E-2,-3.5736308E-2,3.6669067E-1,-5.351705E-2,-5.396783E-2,4.6032244E-1,1.5004653E-3,3.7270397E-1,-5.306836E-2,3.6443743E-1],"categories":[],"categories_nodes":[],"categories_segments":[],"categories_sizes":[],"default_left":[0,0,0,0,0,0,0,0,0,0,0,0,0,0,0,0,0,0,0,0,0,0,0,0,0,0,0,0,0,0,0,0,0,0,0,0,0],"id":24,"left_children":[1,3,5,7,9,11,-1,13,15,17,19,-1,21,-1,23,-1,25,27,29,31,33,35,-1,-1,-1,-1,-1,-1,-1,-1,-1,-1,-1,-1,-1,-1,-1],"loss_changes":[3.2266098E6,1.0997153E5,7.947865E5,3.8445E3,5.5067706E5,1.334865E5,0E0,6.940625E2,9.57135E4,4.5281887E4,8.7995875E4,0E0,3.320575E4,0E0,6.606627E4,0E0,1.1370703E4,5.991328E2,2.4130355E4,8.486145E4,1.5169375E4,1.501175E4,0E0,0E0,0E0,0E0,0E0,0E0,0E0,0E0,0E0,0E0,0E0,0E0,0E0,0E0,0E0],"parents":[2147483647,0,0,1,1,2,2,3,3,4,4,5,5,7,7,8,8,9,9,10,10,12,12,14,14,16,16,17,17,18,18,19,19,20,20,21,21],"right_children":[2,4,6,8,10,12,-1,14,16,18,20,-1,22,-1,24,-1,26,28,30,32,34,36,-1,-1,-1,-1,-1,-1,-1,-1,-1,-1,-1,-1,-1,-1,-1],"split_conditions":[1.8678569E2,1E0,2.7E1,1E0,3.66E2,3.402988E6,-5.3329308E-2,1.4179116E7,1.6E2,8.7845E4,0E0,-5.3264607E-2,4.4666668E1,-5.3302605E-2,6.952772E5,-5.3277295E-2,2.66E2,7.142857E4,3E0,4.651507E3,4.7075E4,2.55E2,-5.322386E-2,6.5582246E-1,-5.3277668E-2,4.0313268E-1,-5.3171474E-2,-5.3292777E-2,-3.5736308E-2,3.6669067E-1,-5.351705E-2,-5.396783E-2,4.6032244E-1,1.5004653E-3,3.7270397E-1,-5.306836E-2,3.6443743E-1],"split_indices":[8,38,69,11,24,1,0,27,35,25,67,0,12,0,22,0,39,36,11,14,1,66,0,0,0,0,0,0,0,0,0,0,0,0,0,0,0],"split_type":[0,0,0,0,0,0,0,0,0,0,0,0,0,0,0,0,0,0,0,0,0,0,0,0,0,0,0,0,0,0,0,0,0,0,0,0,0],"sum_hessian":[2.7042308E6,2.351411E6,3.5281962E5,1.9933904E6,3.5802075E5,2.9389647E5,5.8923152E4,1.8567048E6,1.366856E5,2.991403E5,5.8880457E4,8.020564E3,2.858759E5,1.7365386E6,1.2016616E5,1.3073006E5,5.955541E3,2.9305838E5,6.081941E3,1.603306E4,4.28474E4,2.839484E5,1.9274921E3,1.3265953E3,1.1883956E5,5.34805E3,6.0749146E2,2.720869E5,2.0971463E4,4.0105354E3,2.0714055E3,1.1600169E4,4.43289E3,1.1310201E3,4.171638E4,8.631301E2,2.8308528E5],"tree_param":{"num_deleted":"0","num_feature":"78","num_nodes":"37","size_leaf_vector":"1"}},{"base_weights":[-1.5544669E-3,-5.076416E-1,1.9587201E0,-5.126548E-1,4.4656092E-1,3.5997608E0,-5.3169256E-1,-5.2559215E-1,-3.1162965E-1,3.626119E0,-5.326671E-2,-5.3421717E-2,3.640973E0,-5.328644E-2,-5.00622E-1,-5.3207797E-1,-4.8306972E-1,-5.1449025E-1,3.6287389E0,3.6476806E-1,-4.330857E-2,3.640998E-1,-1.4062169E-2,-5.3261127E-2,6.608675E0,-1.5204019E-2,-5.3210933E-2,-5.16402E-2,5.7596934E-1,-5.283078E-2,1.398974E-1,3.6440346E-1,-4.7473785E-2,7.0754606E-1,-1.6208855E-2],"categories":[],"categories_nodes":[],"categories_segments":[],"categories_sizes":[],"default_left":[0,0,0,0,0,0,0,0,0,0,0,0,0,0,0,0,0,0,0,0,0,0,0,0,0,0,0,0,0,0,0,0,0,0,0],"id":25,"left_children":[1,3,5,7,9,11,13,15,17,19,-1,-1,21,-1,23,25,27,29,31,-1,-1,-1,-1,-1,33,-1,-1,-1,-1,-1,-1,-1,-1,-1,-1],"loss_changes":[2.683759E6,1.028575E4,2.2686188E6,5.561875E3,3.4994184E4,5.7013E4,6.9804688E0,5.531875E2,1.0338628E5,2.3638281E2,0E0,0E0,3.4E1,0E0,1.8375238E3,2.028125E1,5.5349707E4,3.2532402E3,4.0252344E2,0E0,0E0,0E0,0E0,0E0,1.201405E2,0E0,0E0,0E0,0E0,0E0,0E0,0E0,0E0,0E0,0E0],"parents":[2147483647,0,0,1,1,2,2,3,3,4,4,5,5,6,6,7,7,8,8,9,9,12,12,14,14,15,15,16,16,17,17,18,18,24,24],"right_children":[2,4,6,8,10,12,14,16,18,20,-1,-1,22,-1,24,26,28,30,32,-1,-1,-1,-1,-1,34,-1,-1,-1,-1,-1,-1,-1,-1,-1,-1],"split_conditions":[7.017544E4,6.644183E4,4E0,4.64E2,4E0,1E0,2E2,1.3315579E2,3.3E1,1E0,-5.326671E-2,-5.3421717E-2,2E0,-5.328644E-2,2.177345E3,1.9E1,2.896E4,5.0403043E4,3.8E1,3.6476806E-1,-4.330857E-2,3.640998E-1,-1.4062169E-2,-5.3261127E-2,3.993E3,-1.5204019E-2,-5.3210933E-2,-5.16402E-2,5.7596934E-1,-5.283078E-2,1.398974E-1,3.6440346E-1,-4.7473785E-2,7.0754606E-1,-1.6208855E-2],"split_indices":[14,14,4,0,40,46,55,37,69,21,0,0,3,0,13,69,67,14,67,0,0,0,0,0,1,0,0,0,0,0,0,0,0,0,0],"split_type":[0,0,0,0,0,0,0,0,0,0,0,0,0,0,0,0,0,0,0,0,0,0,0,0,0,0,0,0,0,0,0,0,0,0,0],"sum_hessian":[2.7052088E6,2.1501125E6,5.550962E5,2.1388768E6,1.1235718E4,3.3460788E5,2.2048831E5,2.0095429E6,1.2933395E5,2.6444102E3,8.591308E3,3.3024702E3,3.313054E5,2.1242808E5,8.0602295E3,1.7435659E6,2.6597706E5,1.2300328E5,6.330668E3,2.6307622E3,1.3648012E1,3.313034E5,1.9785838E0,8.0260356E3,3.4193764E1,1.4598499E2,1.7434199E6,2.6456634E5,1.4106967E3,1.2212311E5,8.801723E2,6.3075024E3,2.3165657E1,3.1973324E1,2.2204416E0],"tree_param":{"num_deleted":"0","num_feature":"78","num_nodes":"35","size_leaf_vector":"1"}},{"base_weights":[-1.6832681E-3,2.2558765E0,-5.329867E-2,-5.3276893E-2,3.630767E0,-2.5537413E-1,3.639153E0,-5.3271603E-2,3.0196228E0,3.6415017E0,-5.2794307E-2,3.517321E-1,-3.7326436E-2,3.643785E-1,-5.2457865E-2],"categories":[],"categories_nodes":[],"categories_segments":[],"categories_sizes":[],"default_left":[0,0,0,0,0,0,0,0,0,0,0,0,0,0,0],"id":26,"left_children":[1,3,-1,-1,5,7,9,-1,11,13,-1,-1,-1,-1,-1],"loss_changes":[3.2447642E6,1.9759648E6,0E0,0E0,1.12525E4,6.786623E2,3.3765E3,0E0,1.0268646E2,3.28E3,0E0,0E0,0E0,0E0,0E0],"parents":[2147483647,0,0,1,1,4,4,5,5,6,6,8,8,9,9],"right_children":[2,4,-1,-1,6,8,10,-1,12,14,-1,-1,-1,-1,-1],"split_conditions":[2.5E1,2.2E1,-5.329867E-2,-5.3276893E-2,2.5E1,5E0,3.4E1,-5.3271603E-2,2E0,1E0,-5.2794307E-2,3.517321E-1,-3.7326436E-2,3.643785E-1,-5.2457865E-2],"split_indices":[0,0,0,0,69,29,2,0,3,11,0,0,0,0,0],"split_type":[0,0,0,0,0,0,0,0,0,0,0,0,0,0,0],"sum_hessian":[2.7052085E6,5.153651E5,2.1898435E6,1.701851E5,3.4518E5,7.430105E2,3.4443697E5,6.8668604E2,5.632441E1,3.442433E5,1.9365877E2,4.9183727E1,7.14068E0,3.4405512E5,1.881906E2],"tree_param":{"num_deleted":"0","num_feature":"78","num_nodes":"15","size_leaf_vector":"1"}},{"base_weights":[5.1788543E-3,-4.0896565E-1,2.1097143E0,-4.6202263E-1,2.8393984E-1,-4.875369E-1,2.2285905E0,-4.755554E-1,1.3366303E-1,2.6056397E0,-4.9830762E-1,-5.345531E-2,1.9527163E-1,1.8524348E0,2.8677833E0,-4.8499832E-1,1.8980142E-1,-5.3296532E-2,3.7336607E0,3.460557E0,-5.3157496E-1,-5.3079253E-1,2.7104965E-1,3.0425384E0,-5.3430576E-2,1.9198107E0,2.2676788E-1,2.9049938E0,2.465817E-1,-3.6867306E-2,-5.115496E-2,2.7270544E-1,-4.1525196E-2,4.2294857E-1,-5.601709E-2,3.6531892E-1,-5.29774E-2,2.1401668E-1,-5.326196E-2,-2.1373486E-2,-5.3281903E-2,-3.2292496E-2,1.0594592E-1,-5.2021235E-2,4.6813565E-1,2.8219408E-1,1.8328443E-1,8.888902E-2,-3.888926E-2,2.9901692E-1,2.037609E-1,1.1223078E-1,-5.4272003E-2],"categories":[],"categories_nodes":[],"categories_segments":[],"categories_sizes":[],"default_left":[0,0,0,0,0,0,0,0,0,0,0,0,0,0,0,0,0,0,0,0,0,0,0,0,0,0,0,0,0,0,0,0,0,0,0,0,0,0,0,0,0,0,0,0,0,0,0,0,0,0,0,0,0],"id":27,"left_children":[1,3,5,7,9,11,13,15,17,19,21,-1,23,25,27,29,31,-1,33,35,37,39,41,43,-1,45,47,49,51,-1,-1,-1,-1,-1,-1,-1,-1,-1,-1,-1,-1,-1,-1,-1,-1,-1,-1,-1,-1,-1,-1,-1,-1],"loss_changes":[2.3382782E6,8.241184E4,1.3620275E5,1.678575E4,2.8957038E5,6.2023584E2,1.01408875E5,1.27921875E4,1.1100863E5,1.07776125E5,2.9810273E3,0E0,2.5900144E3,2.908475E4,1.5238875E4,6.1994375E3,4.3742758E4,0E0,1.5393203E4,2.4278031E4,2.5497803E1,7.2921875E1,2.2639817E3,1.4918042E3,0E0,1.9992438E4,4.309975E3,1.136875E4,1.5150577E3,0E0,0E0,0E0,0E0,0E0,0E0,0E0,0E0,0E0,0E0,0E0,0E0,0E0,0E0,0E0,0E0,0E0,0E0,0E0,0E0,0E0,0E0,0E0,0E0],"parents":[2147483647,0,0,1,1,2,2,3,3,4,4,5,5,6,6,7,7,8,8,9,9,10,10,12,12,13,13,14,14,15,15,16,16,18,18,19,19,20,20,21,21,22,22,23,23,25,25,26,26,27,27,28,28],"right_children":[2,4,6,8,10,12,14,16,18,20,22,-1,24,26,28,30,32,-1,34,36,38,40,42,44,-1,46,48,50,52,-1,-1,-1,-1,-1,-1,-1,-1,-1,-1,-1,-1,-1,-1,-1,-1,-1,-1,-1,-1,-1,-1,-1,-1],"split_conditions":[2.896E4,1.15E3,5.99E2,3.01E2,1.258E3,5.31E2,5.602816E6,3.6E2,2.01E3,2.289058E2,1.1076E4,-5.345531E-2,2E0,1.156E3,1.759E3,4E1,9.3E1,-5.3296532E-2,5.264474E4,4.0504147E5,5.5E2,1.0368964E-1,5.9E1,5.432209E6,-5.3430576E-2,7.09E2,1.759E3,5.96978E6,6.681E3,-3.6867306E-2,-5.115496E-2,2.7270544E-1,-4.1525196E-2,4.2294857E-1,-5.601709E-2,3.6531892E-1,-5.29774E-2,2.1401668E-1,-5.326196E-2,-2.1373486E-2,-5.3281903E-2,-3.2292496E-2,1.0594592E-1,-5.2021235E-2,4.6813565E-1,2.8219408E-1,1.8328443E-1,8.888902E-2,-3.888926E-2,2.9901692E-1,2.037609E-1,1.1223078E-1,-5.4272003E-2],"split_indices":[67,67,24,9,67,24,23,67,29,9,66,0,4,24,24,34,1,0,42,17,6,14,19,20,0,24,24,1,24,0,0,0,0,0,0,0,0,0,0,0,0,0,0,0,0,0,0,0,0,0,0,0,0],"split_type":[0,0,0,0,0,0,0,0,0,0,0,0,0,0,0,0,0,0,0,0,0,0,0,0,0,0,0,0,0,0,0,0,0,0,0,0,0,0,0,0,0,0,0,0,0,0,0,0,0,0,0,0,0],"sum_hessian":[2.6827938E6,2.2416652E6,4.4112847E5,2.0822269E6,1.5943842E5,1.9306354E4,4.218221E5,2.035975E6,4.625196E4,4.018018E4,1.1925824E5,1.8063705E4,1.242648E3,2.6555522E5,1.5626688E5,2.0074855E6,2.848946E4,3.902676E4,7.2252017E3,3.1575533E4,8.6046455E3,1.1442798E5,4.83027E3,2.5231233E2,9.903356E2,2.5498661E5,1.0568619E4,1.5407917E5,2.1877039E3,3.730674E5,1.6344181E6,5.4844746E3,2.3004986E4,6.477381E3,7.4782074E2,3.0121709E4,1.453824E3,1.5754291E0,8.60307E3,7.296587E2,1.1369831E5,2.75514E3,2.07513E3,7.982807E1,1.7248427E2,2.2413705E4,2.325729E5,5.092129E3,5.47649E3,1.4029683E5,1.3782352E4,1.0369751E3,1.1507288E3],"tree_param":{"num_deleted":"0","num_feature":"78","num_nodes":"53","size_leaf_vector":"1"}},{"base_weights":[-5.700889E-4,-2.2431281E-1,1.3990144E0,-4.3065906E-1,1.1113795E0,2.0267043E0,-5.329106E-2,-5.3204274E-1,6.712897E-2,3.250385E0,-5.328052E-2,-5.3469714E-2,3.1592598E0,-5.327481E-1,-3.8121507E-1,-5.2756125E-1,3.6243274E0,-5.331263E-2,3.6224253E0,3.4668107E0,-5.325635E-2,-5.329886E-2,-4.7972817E-2,-5.3290494E-2,3.6142203E-1,-2.0864027E-2,-5.3284135E-2,-5.1988352E-2,3.6333853E-1,-5.2895244E-2,3.636096E-1,-5.429551E-2,3.6108577E-1],"categories":[],"categories_nodes":[],"categories_segments":[],"categories_sizes":[],"default_left":[0,0,0,0,0,0,0,0,0,0,0,0,0,0,0,0,0,0,0,0,0,0,0,0,0,0,0,0,0,0,0,0,0],"id":28,"left_children":[1,3,5,7,9,11,-1,13,15,17,-1,-1,19,21,23,25,27,-1,29,31,-1,-1,-1,-1,-1,-1,-1,-1,-1,-1,-1,-1,-1],"loss_changes":[8.464678E5,6.4233144E5,4.5179712E5,1.0187819E5,1.096786E6,8.1575825E5,0E0,1.7759375E2,7.225825E5,1.9078688E5,0E0,0E0,2.2139938E5,2.025E1,4.7398643E3,4.9221094E2,1.8418125E3,0E0,7.00875E3,1.0396925E5,0E0,0E0,0E0,0E0,0E0,0E0,0E0,0E0,0E0,0E0,0E0,0E0,0E0],"parents":[2147483647,0,0,1,1,2,2,3,3,4,4,5,5,7,7,8,8,9,9,12,12,13,13,14,14,15,15,16,16,18,18,19,19],"right_children":[2,4,6,8,10,12,-1,14,16,18,-1,-1,20,22,24,26,28,-1,30,32,-1,-1,-1,-1,-1,-1,-1,-1,-1,-1,-1,-1,-1],"split_conditions":[1E0,2.289058E2,1.0368964E-1,1.9885571E2,5.077241E6,7E1,-5.329106E-2,1.3315579E2,4.771716E3,4.638906E5,-5.328052E-2,-5.3469714E-2,2.94E2,9.3784256E1,9.627779E4,8.918212E0,7.0710677E-1,-5.331263E-2,1.4856761E3,2.37E2,-5.325635E-2,-5.329886E-2,-4.7972817E-2,-5.3290494E-2,3.6142203E-1,-2.0864027E-2,-5.3284135E-2,-5.1988352E-2,3.6333853E-1,-5.2895244E-2,3.636096E-1,-5.429551E-2,3.6108577E-1],"split_indices":[48,9,14,37,1,0,0,37,16,16,0,0,66,37,16,14,13,0,22,66,0,0,0,0,0,0,0,0,0,0,0,0,0],"split_type":[0,0,0,0,0,0,0,0,0,0,0,0,0,0,0,0,0,0,0,0,0,0,0,0,0,0,0,0,0,0,0,0,0],"sum_hessian":[2.7030998E6,2.330534E6,3.7256572E5,2.0186776E6,3.1185644E5,2.812022E5,9.136353E4,1.6771052E6,3.415724E5,1.3553294E5,1.763235E5,8.621589E4,1.949863E5,1.6692904E6,7.8148794E3,2.926491E5,4.8923332E4,1.2133862E4,1.2339907E5,1.7999214E5,1.4994158E4,1.6617242E6,7.566135E3,7.530824E3,2.8405527E2,4.7690547E3,2.8788003E5,1.0633016E2,4.8817004E4,4.0465778E2,1.22994414E5,6.241501E3,1.7375064E5],"tree_param":{"num_deleted":"0","num_feature":"78","num_nodes":"33","size_leaf_vector":"1"}},{"base_weights":[5.053494E-3,-4.8638853E-1,2.3657937E0,-5.0741535E-1,-2.2712223E-1,2.481798E0,-5.3460546E-2,-4.2395365E-1,-5.293752E-1,-4.786221E-1,3.4579217E0,1.532108E0,2.7466772E0,-5.219521E-1,-3.016467E-1,-5.3285237E-2,-5.064125E-1,3.1163287E0,-4.9543837E-1,3.6407354E0,-5.3053934E-2,1.2756141E0,2.1432266E0,8.434348E-1,2.8214526E0,-5.2569468E-2,-4.010582E-2,-5.325654E-2,2.2079714E-1,-5.3069264E-2,-4.0289123E-2,-5.3581048E-2,6.343203E-1,-5.037954E-2,3.4842235E-1,-1.7624423E-2,3.6417115E-1,1.9383201E-1,8.496318E-2,1.3246073E-2,2.2537787E-1,-5.3181704E-2,1.4438047E-1,2.6017204E-1,3.0061436E-1],"categories":[],"categories_nodes":[],"categories_segments":[],"categories_sizes":[],"default_left":[0,0,0,0,0,0,0,0,0,0,0,0,0,0,0,0,0,0,0,0,0,0,0,0,0,0,0,0,0,0,0,0,0,0,0,0,0,0,0,0,0,0,0,0,0],"id":29,"left_children":[1,3,5,7,9,11,-1,13,15,17,19,21,23,25,27,-1,29,31,33,35,-1,37,39,41,43,-1,-1,-1,-1,-1,-1,-1,-1,-1,-1,-1,-1,-1,-1,-1,-1,-1,-1,-1,-1],"loss_changes":[3.1150595E6,1.21148125E4,1.5566175E5,3.7666875E3,1.5451756E5,1.11892E5,0E0,5.131836E3,1.2884375E2,9.43691E3,7.7720703E3,1.5200406E4,4.9495E4,1.0667578E2,1.1039442E5,0E0,5.3721094E2,8.575068E3,5.1685625E3,4.096875E1,0E0,1.9288531E4,6.373297E3,1.0861201E4,1.35635E4,0E0,0E0,0E0,0E0,0E0,0E0,0E0,0E0,0E0,0E0,0E0,0E0,0E0,0E0,0E0,0E0,0E0,0E0,0E0,0E0],"parents":[2147483647,0,0,1,1,2,2,3,3,4,4,5,5,7,7,8,8,9,9,10,10,11,11,12,12,13,13,14,14,16,16,17,17,18,18,19,19,21,21,22,22,23,23,24,24],"right_children":[2,4,6,8,10,12,-1,14,16,18,20,22,24,26,28,-1,30,32,34,36,-1,38,40,42,44,-1,-1,-1,-1,-1,-1,-1,-1,-1,-1,-1,-1,-1,-1,-1,-1,-1,-1,-1,-1],"split_conditions":[2.896E4,9.75E2,1.0368964E-1,2E0,1.449375E3,7.036314E-1,-5.3460546E-2,2.94E2,1.7666919E2,1E0,8.346136E2,2.9616038E6,5.022771E6,2.48E2,2.3696682E3,-5.3285237E-2,2.37E2,1.7296942E1,1.2610315E3,6.0228554E1,-5.3053934E-2,4.070461E6,1.6680959E-1,2.5498862E6,1.24E2,-5.2569468E-2,-4.010582E-2,-5.325654E-2,2.2079714E-1,-5.3069264E-2,-4.0289123E-2,-5.3581048E-2,6.343203E-1,-5.037954E-2,3.4842235E-1,-1.7624423E-2,3.6417115E-1,1.9383201E-1,8.496318E-2,1.3246073E-2,2.2537787E-1,-5.3181704E-2,1.4438047E-1,2.6017204E-1,3.0061436E-1],"split_indices":[67,67,14,40,12,15,0,66,9,3,41,21,1,67,36,0,67,15,13,8,0,22,37,22,19,0,0,0,0,0,0,0,0,0,0,0,0,0,0,0,0,0,0,0,0],"split_type":[0,0,0,0,0,0,0,0,0,0,0,0,0,0,0,0,0,0,0,0,0,0,0,0,0,0,0,0,0,0,0,0,0,0,0,0,0,0,0,0,0,0,0,0,0],"sum_hessian":[2.685005E6,2.2223695E6,4.626356E5,2.0556496E6,1.6671977E5,4.448441E5,1.779148E4,4.2821547E5,1.6274341E6,1.5607005E5,1.0649719E4,9.701721E4,3.4782688E5,2.3772647E5,1.9048902E5,1.4133515E6,2.1408272E5,7.2480286E2,1.5534525E5,1.0183263E4,4.6645657E2,6.8340766E4,2.867645E4,1.315016E4,3.3467672E5,2.3057752E5,7.148938E3,1.7443997E5,1.6049053E4,1.7340006E5,4.0682652E4,3.4070724E2,3.8409558E2,1.5502158E5,3.2366156E2,2.3806632E0,1.0180882E4,2.673716E4,4.1603605E4,1.4949337E3,2.7181514E4,3.9960063E3,9.154153E3,1.5285422E5,1.8182252E5],"tree_param":{"num_deleted":"0","num_feature":"78","num_nodes":"45","size_leaf_vector":"1"}},{"base_weights":[2.7520556E-3,-2.0723537E-1,2.5968506E0,-2.9382467E-1,1.4413674E0,2.5752587E0,3.5893173E0,-3.1181857E-1,2.719045E0,2.625264E0,4.8161146E-1,2.577139E0,9.6951365E-1,3.5471252E-1,3.7924013E-1,1.3705901E-2,-4.3062168E-1,3.595259E0,2.6143687E0,2.6472654E0,2.57907E-1,2.957616E0,8.708433E-2,2.576703E0,3.0223143E0,-1.8060014E-1,3.4362078E-1,2.593967E-1,-9.224714E-3,3.353617E-1,-4.3649983E-2,3.6689103E-1,2.8100964E-1,2.5973138E-1,3.585322E-1,2.6396695E-1,2.7813476E-1,3.4236658E-1,2.6102266E-1,-1.5899144E-2,2.594329E-1,2.5767413E-1,5.0047394E-2,3.4226686E-1,2.1646424E-1,-4.9326867E-2,3.425745E-1],"categories":[],"categories_nodes":[],"categories_segments":[],"categories_sizes":[],"default_left":[0,0,0,0,0,0,0,0,0,0,0,0,0,0,0,0,0,0,0,0,0,0,0,0,0,0,0,0,0,0,0,0,0,0,0,0,0,0,0,0,0,0,0,0,0,0,0],"id":30,"left_children":[1,3,5,7,9,11,13,15,17,19,21,23,25,-1,-1,27,29,31,33,35,-1,37,39,41,43,45,-1,-1,-1,-1,-1,-1,-1,-1,-1,-1,-1,-1,-1,-1,-1,-1,-1,-1,-1,-1,-1],"loss_changes":[1.452641E6,3.5217134E5,4.257875E3,1.2707183E5,1.3987889E5,5.8325E2,5.8125E0,9.010919E4,1.2544219E3,3.975E1,6.641739E4,1.9625E1,6.613463E2,0E0,0E0,1.70319E5,3.7972906E4,6.1677734E1,1.8425781E2,2.053125E1,0E0,1.4920391E3,3.6187832E4,1.1375E1,4.360388E1,1.823951E2,0E0,0E0,0E0,0E0,0E0,0E0,0E0,0E0,0E0,0E0,0E0,0E0,0E0,0E0,0E0,0E0,0E0,0E0,0E0,0E0,0E0],"parents":[2147483647,0,0,1,1,2,2,3,3,4,4,5,5,6,6,7,7,8,8,9,9,10,10,11,11,12,12,15,15,16,16,17,17,18,18,19,19,21,21,22,22,23,23,24,24,25,25],"right_children":[2,4,6,8,10,12,14,16,18,20,22,24,26,-1,-1,28,30,32,34,36,-1,38,40,42,44,46,-1,-1,-1,-1,-1,-1,-1,-1,-1,-1,-1,-1,-1,-1,-1,-1,-1,-1,-1,-1,-1],"split_conditions":[3.7E1,3.2785E4,1E0,6.5535E4,3E0,1.85E2,1.693473E7,2.5E1,8.4E1,3.6363637E4,2.37E2,4.43E2,8.4E1,3.5471252E-1,3.7924013E-1,5E0,5.9E1,1.039E3,4.44E2,2E0,2.57907E-1,1.7897858E1,1.7897858E1,1.36E2,1.4022E4,2.36E2,3.4362078E-1,2.593967E-1,-9.224714E-3,3.353617E-1,-4.3649983E-2,3.6689103E-1,2.8100964E-1,2.5973138E-1,3.585322E-1,2.6396695E-1,2.7813476E-1,3.4236658E-1,2.6102266E-1,-1.5899144E-2,2.594329E-1,2.5767413E-1,5.0047394E-2,3.4226686E-1,2.1646424E-1,-4.9326867E-2,3.425745E-1],"split_indices":[11,0,30,66,11,66,17,69,0,14,66,0,0,0,0,52,66,6,0,51,0,17,17,67,0,67,0,0,0,0,0,0,0,0,0,0,0,0,0,0,0,0,0,0,0,0,0],"split_type":[0,0,0,0,0,0,0,0,0,0,0,0,0,0,0,0,0,0,0,0,0,0,0,0,0,0,0,0,0,0,0,0,0,0,0,0,0,0,0,0,0,0,0,0,0,0,0],"sum_hessian":[2.666721E6,2.467022E6,1.9969917E5,2.3439148E6,1.2310713E5,1.9545462E5,4.2445444E3,2.3300012E6,1.3913605E4,5.5115727E4,6.799141E4,1.9522452E5,2.3010513E2,3.547022E3,6.975226E2,6.229888E5,1.7070124E6,1.4771726E3,1.2436434E4,3.725059E4,1.7865139E4,9.342809E3,5.8648598E4,1.9504823E5,1.762759E2,1.5805959E2,7.204555E1,2.4571043E4,5.9841775E5,2.6455374E3,1.7043669E6,1.3431934E3,1.3397928E2,1.2229484E4,2.0694896E2,3.5296105E4,1.954486E3,3.9817869E3,5.361022E3,5.3408453E4,5.240146E3,1.9504394E5,4.3026237E0,1.157026E2,6.057329E1,1.471655E2,1.0894095E1],"tree_param":{"num_deleted":"0","num_feature":"78","num_nodes":"47","size_leaf_vector":"1"}},{"base_weights":[-1.315511E-3,-5.268454E-1,1.9287755E0,-5.3085327E-2,1.0391489E-1,2.2207377E0,-5.2400595E-1,-5.3038187E-2,2.5594525E0,1.5093222E0,2.5734234E0,-5.3023364E-2,2.9928327E0,2.5848196E0,-4.9492944E-2,-5.309057E-2,2.5718575E0,2.619019E0,-5.610487E-2,3.656755E-1,-4.536979E-2,-3.831454E-2,2.593696E-1,-4.9965635E-2,2.572748E-1,-1.7686246E-2,2.6328218E-1],"categories":[],"categories_nodes":[],"categories_segments":[],"categories_sizes":[],"default_left":[0,0,0,0,0,0,0,0,0,0,0,0,0,0,0,0,0,0,0,0,0,0,0,0,0,0,0],"id":31,"left_children":[1,3,5,-1,7,9,11,-1,13,15,17,-1,19,21,-1,-1,23,25,-1,-1,-1,-1,-1,-1,-1,-1,-1],"loss_changes":[2.710747E6,5.3105E3,4.0958E5,0E0,2.0662217E4,1.2822875E5,1.3344316E3,0E0,2.1460547E2,3.6724206E5,4.8839E4,0E0,2.5137128E2,7.426172E1,0E0,0E0,3.083125E2,1.3E4,0E0,0E0,0E0,0E0,0E0,0E0,0E0,0E0,0E0],"parents":[2147483647,0,0,1,1,2,2,4,4,5,5,6,6,8,8,9,9,10,10,12,12,13,13,16,16,17,17],"right_children":[2,4,6,-1,8,10,12,-1,14,16,18,-1,20,22,-1,-1,24,26,-1,-1,-1,-1,-1,-1,-1,-1,-1],"split_conditions":[2.195E3,1.814E3,3.2E1,-5.3085327E-2,2.56E2,3.8E1,5.0695E4,-5.3038187E-2,8.76E3,2.8E1,5.3998E4,-5.3023364E-2,3.2909386E1,1.25E5,-4.9492944E-2,-5.309057E-2,4.9E1,8.221204E0,-5.610487E-2,3.656755E-1,-4.536979E-2,-3.831454E-2,2.593696E-1,-4.9965635E-2,2.572748E-1,-1.7686246E-2,2.6328218E-1],"split_indices":[0,0,69,0,67,67,73,0,67,69,0,0,54,14,0,0,29,52,0,0,0,0,0,0,0,0,0],"split_type":[0,0,0,0,0,0,0,0,0,0,0,0,0,0,0,0,0,0,0,0,0,0,0,0,0,0,0],"sum_hessian":[2.6724725E6,2.1005355E6,5.719372E5,2.0872739E6,1.3261541E4,5.1109978E5,6.0837383E4,1.05402295E4,2.7213115E3,1.694029E5,3.4169688E5,6.0731676E4,1.0570412E2,2.6993643E3,2.1947248E1,5.8011883E4,1.1139103E5,3.3679812E5,4.8987505E3,8.865009E1,1.7054022E1,7.629818E0,2.6917344E3,3.1798838E1,1.11359234E5,1.6542704E3,3.3514384E5],"tree_param":{"num_deleted":"0","num_feature":"78","num_nodes":"27","size_leaf_vector":"1"}},{"base_weights":[-6.9382304E-4,1.1472298E0,-5.308969E-2,2.1704705E0,-5.3059995E-2,2.555963E0,-5.340093E-1,-4.3783888E-1,2.6748679E0,-5.313174E-2,-5.5252993E-1,-4.927432E-2,1.7539471E-1,2.631305E-1,3.2166842E-1,-5.343468E-2,-5.6368794E-2],"categories":[],"categories_nodes":[],"categories_segments":[],"categories_sizes":[],"default_left":[0,0,0,0,0,0,0,0,0,0,0,0,0,0,0,0,0],"id":32,"left_children":[1,3,-1,5,-1,7,9,11,13,-1,15,-1,-1,-1,-1,-1,-1],"loss_changes":[1.625186E6,1.4484115E6,0E0,5.463615E5,0E0,1.632825E5,2.1289062E0,2.1097861E3,1.0393E4,0E0,5.168457E-1,0E0,0E0,0E0,0E0,0E0,0E0],"parents":[2147483647,0,0,1,1,3,3,5,5,6,6,7,7,8,8,10,10],"right_children":[2,4,-1,6,-1,8,10,12,14,-1,16,-1,-1,-1,-1,-1,-1],"split_conditions":[2.1E1,2.35E2,-5.308969E-2,1.0333333E1,-5.3059995E-2,1.6E1,3.0144165E6,2.29E2,3.0151E4,-5.313174E-2,4.683271E0,-4.927432E-2,1.7539471E-1,2.631305E-1,3.2166842E-1,-5.343468E-2,-5.6368794E-2],"split_indices":[69,67,0,53,0,4,70,67,70,0,36,0,0,0,0,0,0],"split_type":[0,0,0,0,0,0,0,0,0,0,0,0,0,0,0,0,0],"sum_hessian":[2.6702212E6,8.4365375E5,1.8265675E6,5.24054E5,3.1959972E5,4.586754E5,6.5378594E4,1.752097E4,4.4115444E5,5.7157465E4,8.22113E3,1.709453E4,4.2644012E2,4.08336E5,3.281843E4,3.1806038E3,5.040526E3],"tree_param":{"num_deleted":"0","num_feature":"78","num_nodes":"17","size_leaf_vector":"1"}},{"base_weights":[-2.0468049E-3,-3.3288306E-1,1.1577761E0,-4.8862055E-1,2.307144E0,-5.2587795E-1,2.276998E0,-5.135139E-1,2.2144852E0,2.5571265E0,-5.1542306E-1,-5.2697235E-1,2.0747356E0,2.5638523E0,-5.250117E-1,-5.218429E-1,7.898369E-1,-5.2973296E-2,2.5798666E-1,2.5617604E0,-5.2853208E-2,-5.274344E-1,2.3579137E0,-5.2862024E-1,-2.512865E-1,-5.077144E-2,4.8007436E0,-5.6369264E-2,2.57328E0,-5.305779E-2,2.356095E0,-5.241842E-2,3.636255E-2,-5.328672E-2,2.274471E-1,-5.3358193E-2,2.5640884E-1,-5.303204E-2,2.8448096E-2,-2.3458896E-2,2.6180056E-1,-5.3075004E-2,-5.197103E-2,3.2596183E-1,-3.702645E-2,4.929669E-1,-3.6279496E-3,2.578312E-1,-5.6488104E-2,2.9316857E-1,-4.3129046E-2],"categories":[],"categories_nodes":[],"categories_segments":[],"categories_sizes":[],"default_left":[0,0,0,0,0,0,0,0,0,0,0,0,0,0,0,0,0,0,0,0,0,0,0,0,0,0,0,0,0,0,0,0,0,0,0,0,0,0,0,0,0,0,0,0,0,0,0,0,0,0,0],"id":33,"left_children":[1,3,5,7,9,11,13,15,17,19,21,23,25,27,29,31,33,-1,-1,35,-1,37,39,41,43,-1,45,-1,47,-1,49,-1,-1,-1,-1,-1,-1,-1,-1,-1,-1,-1,-1,-1,-1,-1,-1,-1,-1,-1,-1],"loss_changes":[1.0255753E6,8.550246E5,1.1178095E6,1.3214056E5,8.1741625E4,6.7558203E2,2.8640688E5,2.1123719E4,1.7971523E4,1.525375E3,3.2690454E2,1.0691406E2,7.09964E2,9.535E3,5.322842E2,4.0086875E3,2.4267355E4,0E0,0E0,7.694375E2,0E0,2.2424805E1,2.9009613E1,3.390625E0,5.910147E2,0E0,3.327539E1,0E0,5.09225E3,0E0,1.0646741E2,0E0,0E0,0E0,0E0,0E0,0E0,0E0,0E0,0E0,0E0,0E0,0E0,0E0,0E0,0E0,0E0,0E0,0E0,0E0,0E0],"parents":[2147483647,0,0,1,1,2,2,3,3,4,4,5,5,6,6,7,7,8,8,9,9,10,10,11,11,12,12,13,13,14,14,15,15,16,16,19,19,21,21,22,22,23,23,24,24,26,26,28,28,30,30],"right_children":[2,4,6,8,10,12,14,16,18,20,22,24,26,28,30,32,34,-1,-1,36,-1,38,40,42,44,-1,46,-1,48,-1,50,-1,-1,-1,-1,-1,-1,-1,-1,-1,-1,-1,-1,-1,-1,-1,-1,-1,-1,-1,-1],"split_conditions":[1.9963732E6,3.267934E6,6.821667E2,6.87E7,3E0,1.158471E3,6.1760724E7,9.99855E5,2.31E2,5.15E2,8.577842E6,5.605E2,3.3786912E6,2.5E1,4.931E5,1.6860799E6,1E0,-5.2973296E-2,2.5798666E-1,2.79E2,-5.2853208E-2,4.7237004E7,2.57E2,3.2081475E6,1.0380512E-1,-5.077144E-2,8.4E1,-5.6369264E-2,2.43E2,-5.305779E-2,2.36E2,-5.241842E-2,3.636255E-2,-5.328672E-2,2.274471E-1,-5.3358193E-2,2.5640884E-1,-5.303204E-2,2.8448096E-2,-2.3458896E-2,2.6180056E-1,-5.3075004E-2,-5.197103E-2,3.2596183E-1,-3.702645E-2,4.929669E-1,-3.6279496E-3,2.578312E-1,-5.6488104E-2,2.9316857E-1,-4.3129046E-2],"split_indices":[27,19,54,17,52,13,1,19,4,66,17,54,75,69,29,27,47,0,0,66,0,74,66,70,37,0,0,0,67,0,67,0,0,0,0,0,0,0,0,0,0,0,0,0,0,0,0,0,0,0,0],"split_type":[0,0,0,0,0,0,0,0,0,0,0,0,0,0,0,0,0,0,0,0,0,0,0,0,0,0,0,0,0,0,0,0,0,0,0,0,0,0,0,0,0,0,0,0,0,0,0,0,0,0,0],"sum_hessian":[2.6727745E6,2.0795815E6,5.9319294E5,1.9637405E6,1.15840945E5,2.3686928E5,3.5632366E5,1.9458229E6,1.7917625E4,1.0641646E5,9.424485E3,2.3677144E5,9.785294E1,3.232332E5,3.3090465E4,1.9334688E6,1.2354099E4,2.1050742E3,1.581255E4,1.0625739E5,1.5907097E2,9.387052E3,3.7433556E1,2.3536089E5,1.4105371E3,5.0991173E1,4.686177E1,9.709343E2,3.2226225E5,3.302846E4,6.2004543E1,1.9283714E6,5.0973896E3,6.533848E3,5.820251E3,7.9345474E1,1.0617805E5,9.355107E3,3.194385E1,3.2556915E0,3.4177864E1,1.8981586E5,4.5545035E4,4.43655E1,1.3661716E3,4.5708523E1,1.1532466E0,3.217469E5,5.1535516E2,5.145501E1,1.0549534E1],"tree_param":{"num_deleted":"0","num_feature":"78","num_nodes":"51","size_leaf_vector":"1"}},{"base_weights":[7.3600264E-4,-2.8786367E-1,2.0937252E0,-3.9792967E-1,1.5249585E0,2.396529E0,-4.9527344E-1,-4.2038593E-1,2.8496034E0,2.4959173E0,-5.305099E-2,2.5626295E0,-5.1539576E-1,2.5383286E0,-5.144822E-1,-8.5826136E-2,-4.73134E-1,3.239101E0,-5.314971E-2,2.5678272E0,-5.2898206E-2,2.574691E0,-5.3537846E-2,-5.3119678E-2,2.5086403E-1,-4.1942906E-2,2.714946E0,-5.2667624E-1,2.607097E-1,2.4381725E-1,-5.071623E-2,-4.99182E-2,3.22279E-2,3.6466512E-1,2.8123692E-1,-5.3521253E-2,2.570981E-1,2.5764605E-1,-5.227808E-2,2.7326274E-1,-3.763952E-3,1.5955065E-1,-5.2774902E-2],"categories":[],"categories_nodes":[],"categories_segments":[],"categories_sizes":[],"default_left":[0,0,0,0,0,0,0,0,0,0,0,0,0,0,0,0,0,0,0,0,0,0,0,0,0,0,0,0,0,0,0,0,0,0,0,0,0,0,0,0,0,0,0],"id":34,"left_children":[1,3,5,7,9,11,13,15,17,19,-1,21,23,25,27,29,31,33,-1,35,-1,37,-1,-1,-1,-1,39,41,-1,-1,-1,-1,-1,-1,-1,-1,-1,-1,-1,-1,-1,-1,-1],"loss_changes":[1.6121535E6,4.6800712E5,2.5355462E5,1.6126466E5,2.679542E5,1.4005512E5,1.975124E3,3.8755062E4,2.00035E4,1.98385E4,0E0,1.024E4,7.4838086E2,1.148374E2,1.2828174E3,3.1807397E5,3.9304375E4,2.3445625E3,0E0,8.75375E2,0E0,1.49925E3,0E0,0E0,0E0,0E0,1.1369141E1,7.747949E1,0E0,0E0,0E0,0E0,0E0,0E0,0E0,0E0,0E0,0E0,0E0,0E0,0E0,0E0,0E0],"parents":[2147483647,0,0,1,1,2,2,3,3,4,4,5,5,6,6,7,7,8,8,9,9,11,11,12,12,13,13,14,14,15,15,16,16,17,17,19,19,21,21,26,26,27,27],"right_children":[2,4,6,8,10,12,14,16,18,20,-1,22,24,26,28,30,32,34,-1,36,-1,38,-1,-1,-1,-1,40,42,-1,-1,-1,-1,-1,-1,-1,-1,-1,-1,-1,-1,-1,-1,-1],"split_conditions":[2.77E7,4E5,4.62E2,1E0,3E0,1.1601E4,2E0,1.2960969E-2,8.4E1,8.4E1,-5.305099E-2,8.4E1,5.003683E6,8.213678E7,1E0,1.3679181E3,2E0,9.21E2,-5.314971E-2,6.3E1,-5.2898206E-2,1E0,-5.3537846E-2,-5.3119678E-2,2.5086403E-1,-4.1942906E-2,3.1017E4,1.2368E4,2.607097E-1,2.4381725E-1,-5.071623E-2,-4.99182E-2,3.22279E-2,3.6466512E-1,2.8123692E-1,-5.3521253E-2,2.570981E-1,2.5764605E-1,-5.227808E-2,2.7326274E-1,-3.763952E-3,1.5955065E-1,-5.2774902E-2],"split_indices":[22,15,29,43,52,5,68,37,0,0,0,0,25,76,43,16,51,24,0,34,0,7,0,0,0,0,73,25,0,0,0,0,0,0,0,0,0,0,0,0,0,0,0],"split_type":[0,0,0,0,0,0,0,0,0,0,0,0,0,0,0,0,0,0,0,0,0,0,0,0,0,0,0,0,0,0,0,0,0,0,0,0,0,0,0,0,0,0,0],"sum_hessian":[2.6689635E6,2.3455412E6,3.2342225E5,2.2112842E6,1.342569E5,2.895567E5,3.3865586E4,2.1961005E6,1.5183847E4,9.118357E4,4.3073336E4,2.7393162E5,1.562505E4,2.112736E2,3.3654312E4,2.9909234E5,1.8970081E6,1.3615584E4,1.5682627E3,8.906669E4,2.1168875E3,2.7286975E5,1.061876E3,1.5545636E4,7.941407E1,1.1590493E1,1.996831E2,3.3525176E4,1.2913858E2,4.2784227E4,2.5630812E5,1.8368566E6,6.015153E4,6.955996E3,6.659588E3,8.992358E1,8.897676E4,2.7271447E5,1.5526968E2,1.9860352E2,1.0795974E0,1.5201031E1,3.3509973E4],"tree_param":{"num_deleted":"0","num_feature":"78","num_nodes":"43","size_leaf_vector":"1"}},{"base_weights":[-7.7507633E-4,-3.8364217E-1,1.9637265E0,-4.448268E-1,2.4866025E0,2.3974051E0,-5.3041227E-2,-4.6722063E-1,2.2458584E0,-1.7993364E-1,2.655913E0,2.4647348E0,-5.3020723E-2,-4.942286E-1,3.6369774E-1,-5.40536E-2,2.5568748E0,-3.8756257E-1,5.0078545E0,2.7162023E0,-5.400833E-2,1.4019521E0,2.5327637E0,-5.0232023E-2,-6.804693E-3,-5.277443E-2,3.2972375E-1,2.6438275E-1,-5.2787747E-2,7.317159E-1,-5.3144038E-2,7.001652E-1,3.6924598E-1,2.6249287E-1,3.6428204E-1,-5.2788615E-2,2.5760713E-1,2.5545806E-1,-5.2954584E-2],"categories":[],"categories_nodes":[],"categories_segments":[],"categories_sizes":[],"default_left":[0,0,0,0,0,0,0,0,0,0,0,0,0,0,0,0,0,0,0,0,0,0,0,0,0,0,0,0,0,0,0,0,0,0,0,0,0,0,0],"id":35,"left_children":[1,3,5,7,9,11,-1,13,15,17,19,21,-1,23,25,-1,27,29,31,33,-1,35,37,-1,-1,-1,-1,-1,-1,-1,-1,-1,-1,-1,-1,-1,-1,-1,-1],"loss_changes":[2.0089331E6,3.9255375E5,4.7122E5,1.3187769E5,2.1065812E4,7.3156E4,0E0,4.871147E4,1.5659422E4,3.0037512E3,8.457094E3,2.62195E4,0E0,7.2492812E3,1.7869784E5,0E0,4.3630547E3,2.9773533E3,2.2437793E2,3.6194062E3,0E0,4.9465523E4,2.2782E4,0E0,0E0,0E0,0E0,0E0,0E0,0E0,0E0,0E0,0E0,0E0,0E0,0E0,0E0,0E0,0E0],"parents":[2147483647,0,0,1,1,2,2,3,3,4,4,5,5,7,7,8,8,9,9,10,10,11,11,13,13,14,14,16,16,17,17,18,18,19,19,21,21,22,22],"right_children":[2,4,6,8,10,12,-1,14,16,18,20,22,-1,24,26,-1,28,30,32,34,-1,36,38,-1,-1,-1,-1,-1,-1,-1,-1,-1,-1,-1,-1,-1,-1,-1,-1],"split_conditions":[1.05E7,8.9E1,2.72E7,3E0,2.61E2,4E0,-5.3041227E-2,6.59842E5,4.4474133E2,5.35E2,8.4E1,4.314688E5,-5.3020723E-2,2E0,2.612E3,-5.40536E-2,2.001E3,1.2960969E-2,1.87E2,1E0,-5.400833E-2,9.333333E0,3.31E7,-5.0232023E-2,-6.804693E-3,-5.277443E-2,3.2972375E-1,2.6438275E-1,-5.2787747E-2,7.317159E-1,-5.3144038E-2,7.001652E-1,3.6924598E-1,2.6249287E-1,3.6428204E-1,-5.2788615E-2,2.5760713E-1,2.5545806E-1,-5.2954584E-2],"split_indices":[16,7,16,51,4,64,0,29,13,5,0,17,0,51,4,0,5,37,4,11,0,52,24,0,0,0,0,0,0,0,0,0,0,0,0,0,0,0,0],"split_type":[0,0,0,0,0,0,0,0,0,0,0,0,0,0,0,0,0,0,0,0,0,0,0,0,0,0,0,0,0,0,0,0,0,0,0,0,0,0,0],"sum_hessian":[2.670943E6,2.2353008E6,4.3564203E5,2.1886475E6,4.665327E4,3.7111344E5,6.452859E4,2.1705842E6,1.8063324E4,2.7851902E3,4.386808E4,3.6277088E5,8.342576E3,2.1022545E6,6.8329734E4,1.8134592E3,1.6249865E4,2.6798813E3,1.0530893E2,4.305632E4,8.117553E2,2.1827145E4,3.4094372E5,2.0630826E6,3.9171844E4,5.240608E4,1.5923653E4,1.5804809E4,4.4505676E2,4.723504E1,2.6326462E3,3.8272266E1,6.703666E1,3.9202953E4,3.85337E3,8.256704E3,1.357044E4,3.3853244E5,2.41128E3],"tree_param":{"num_deleted":"0","num_feature":"78","num_nodes":"39","size_leaf_vector":"1"}},{"base_weights":[-1.2126716E-3,-2.2991619E-1,2.4446347E0,-3.9889625E-1,9.5161617E-1,2.537639E0,-5.1410794E-1,-4.6274593E-1,6.372359E-1,2.48163E0,-2.3145E-1,2.569391E0,-5.2937698E-2,7.50693E-1,-5.3222544E-2,-4.8772097E-1,5.4059666E-1,2.573886E0,-2.965965E-1,-5.3088635E-2,2.559796E0,-4.9376854E-1,1.5174603E0,-5.2263E-2,2.5718935E0,-5.042975E-2,2.6143855E-1,-5.0958056E-2,-2.4812264E-2,2.6011515E-1,-5.3044166E-2,2.5740355E-1,-1.47630265E-2,-5.240531E-2,1.6709736E-1,-5.237629E-2,2.5627822E-1,-8.9094834E-4,-5.2400917E-2,-5.3032387E-2,2.5721598E-1,2.571911E-1,-4.6040686E-3],"categories":[],"categories_nodes":[],"categories_segments":[],"categories_sizes":[],"default_left":[0,0,0,0,0,0,0,0,0,0,0,0,0,0,0,0,0,0,0,0,0,0,0,0,0,0,0,0,0,0,0,0,0,0,0,0,0,0,0,0,0,0,0],"id":36,"left_children":[1,3,5,7,9,11,13,15,17,19,21,23,-1,25,-1,27,29,31,33,-1,35,37,39,-1,41,-1,-1,-1,-1,-1,-1,-1,-1,-1,-1,-1,-1,-1,-1,-1,-1,-1,-1],"loss_changes":[1.4940819E6,4.8767738E5,6.285325E4,1.413754E5,5.5321575E5,2.1568375E4,1.6022742E2,5.044153E4,2.2433566E5,3.1385875E4,7.9072805E4,1.699625E3,0E0,2.3468295E2,0E0,1.02860625E4,1.0789861E5,1.840625E1,3.7455887E4,0E0,1.1996875E3,2.197293E3,4.8556105E4,0E0,1.125E1,0E0,0E0,0E0,0E0,0E0,0E0,0E0,0E0,0E0,0E0,0E0,0E0,0E0,0E0,0E0,0E0,0E0,0E0],"parents":[2147483647,0,0,1,1,2,2,3,3,4,4,5,5,6,6,7,7,8,8,9,9,10,10,11,11,13,13,15,15,16,16,17,17,18,18,20,20,21,21,22,22,24,24],"right_children":[2,4,6,8,10,12,14,16,18,20,22,24,-1,26,-1,28,30,32,34,-1,36,38,40,-1,42,-1,-1,-1,-1,-1,-1,-1,-1,-1,-1,-1,-1,-1,-1,-1,-1,-1,-1],"split_conditions":[3.14E7,8.56182E5,2.66E2,8E0,2.096279E6,2.8708725E0,3.49E2,1.97E7,1.1E1,8.192E3,2.68E7,6.2812386E0,-5.2937698E-2,1.6547589E-1,-5.3222544E-2,6.59E2,2.66E2,1.498E4,7.655227E1,-5.3088635E-2,6.7E1,7.8E1,1E0,-5.2263E-2,1.65E2,-5.042975E-2,2.6143855E-1,-5.0958056E-2,-2.4812264E-2,2.6011515E-1,-5.3044166E-2,2.5740355E-1,-1.47630265E-2,-5.240531E-2,1.6709736E-1,-5.237629E-2,2.5627822E-1,-8.9094834E-4,-5.2400917E-2,-5.3032387E-2,2.5721598E-1,2.571911E-1,-4.6040686E-3],"split_indices":[29,24,39,7,18,12,39,26,8,66,17,8,0,15,0,29,39,1,13,0,55,19,30,0,19,0,0,0,0,0,0,0,0,0,0,0,0,0,0,0,0,0,0],"split_type":[0,0,0,0,0,0,0,0,0,0,0,0,0,0,0,0,0,0,0,0,0,0,0,0,0,0,0,0,0,0,0,0,0,0,0,0,0,0,0,0,0,0,0],"sum_hessian":[2.6709878E6,2.4425908E6,2.2839697E5,2.1369682E6,3.0562256E5,2.2143686E5,6.960123E3,2.0129269E6,1.24041234E5,1.3326905E5,1.7235352E5,2.1916834E5,2.2685105E3,9.675985E1,6.8633633E3,1.9640399E6,4.888702E4,4.035243E4,8.3688805E4,3.3700308E3,1.2989902E5,1.4987545E5,2.2478055E4,1.7674556E2,2.189916E5,5.8534126E1,3.8225723E1,1.7998294E6,1.642105E5,1.6719064E4,3.2167953E4,4.0350504E4,1.9238863E0,7.501821E4,8.670593E3,1.251647E2,1.2977386E5,8.800048E3,1.410754E5,7.6416655E3,1.483639E4,2.1899039E5,1.2117969E0],"tree_param":{"num_deleted":"0","num_feature":"78","num_nodes":"43","size_leaf_vector":"1"}},{"base_weights":[-2.2092971E-3,2.5553446E0,-5.306378E-2,2.5670161E0,-5.296231E-2,2.5689635E0,-5.2813407E-2,2.5697918E0,-4.7784305E-1,-5.1385354E-2,2.570352E-1,-5.174003E-2,1.2780236E-1],"categories":[],"categories_nodes":[],"categories_segments":[],"categories_sizes":[],"default_left":[0,0,0,0,0,0,0,0,0,0,0,0,0],"id":37,"left_children":[1,3,-1,5,-1,7,-1,9,11,-1,-1,-1,-1],"loss_changes":[3.613459E6,1.648875E4,0E0,2.753E3,0E0,1.15375E3,0E0,7.9075E2,9.65173E0,0E0,0E0,0E0,0E0],"parents":[2147483647,0,0,1,1,3,3,5,5,7,7,8,8],"right_children":[2,4,-1,6,-1,8,-1,10,12,-1,-1,-1,-1],"split_conditions":[2.2E1,1E0,-5.306378E-2,1E1,-5.296231E-2,2.29E2,-5.2813407E-2,2.5E1,3.1E1,-5.1385354E-2,2.570352E-1,-5.174003E-2,1.2780236E-1],"split_indices":[0,11,0,2,0,67,0,69,39,0,0,0,0],"split_type":[0,0,0,0,0,0,0,0,0,0,0,0,0],"sum_hessian":[2.6736932E6,4.5782866E5,2.2158645E6,4.5610353E5,1.7251007E3,4.5581725E5,2.8627792E2,4.5569388E5,1.233941E2,8.224683E1,4.5561162E5,1.2233351E2,1.0605875E0],"tree_param":{"num_deleted":"0","num_feature":"78","num_nodes":"13","size_leaf_vector":"1"}},{"base_weights":[-2.16826E-3,-5.3056175E-1,2.5751538E0,-5.3072818E-2,5.23145E-2,-5.139978E-2,2.5757012E-1,-5.271668E-2,2.595402E-1],"categories":[],"categories_nodes":[],"categories_segments":[],"categories_sizes":[],"default_left":[0,0,0,0,0,0,0,0,0],"id":38,"left_children":[1,3,5,-1,7,-1,-1,-1,-1],"loss_changes":[3.6414055E6,2.155625E2,7.725E2,0E0,9.386287E2,0E0,0E0,0E0,0E0],"parents":[2147483647,0,0,1,1,2,2,4,4],"right_children":[2,4,6,-1,8,-1,-1,-1,-1],"split_conditions":[1.650093E6,3.751555E3,2.2772324E3,-5.3072818E-2,1.1E1,-5.139978E-2,2.5757012E-1,-5.271668E-2,2.595402E-1],"split_indices":[5,12,13,0,2,0,0,0,0],"split_type":[0,0,0,0,0,0,0,0,0],"sum_hessian":[2.673883E6,2.218961E6,4.549218E5,2.2183288E6,6.323734E2,8.009285E1,4.5484172E5,5.1614966E2,1.1622378E2],"tree_param":{"num_deleted":"0","num_feature":"78","num_nodes":"9","size_leaf_vector":"1"}},{"base_weights":[-2.0331962E-3,-4.183001E-1,2.1151314E0,-5.130136E-1,8.0772005E-2,-5.3112265E-2,2.5142703E0,-5.2545714E-1,-3.4623393E-1,-4.6054402E-1,2.136068E0,2.5794961E0,-5.301214E-2,-5.307932E-2,-4.677478E-1,-5.3044327E-2,2.490661E0,-5.181188E-1,1.7257699E0,-5.3876944E-2,2.6496022E0,2.5800169E0,-5.111986E-2,3.510915E-1,-5.3060867E-2,2.7741075E-1,-5.3138953E-2,-5.3058505E-2,-3.5982706E-2,2.6006457E-1,-5.330348E-2,2.727281E-1,-5.4469388E-2,2.728093E-1,2.5763842E-1],"categories":[],"categories_nodes":[],"categories_segments":[],"categories_sizes":[],"default_left":[0,0,0,0,0,0,0,0,0,0,0,0,0,0,0,0,0,0,0,0,0,0,0,0,0,0,0,0,0,0,0,0,0,0,0],"id":39,"left_children":[1,3,5,7,9,-1,11,13,15,17,19,21,-1,-1,23,-1,25,27,29,-1,31,33,-1,-1,-1,-1,-1,-1,-1,-1,-1,-1,-1,-1,-1],"loss_changes":[2.354835E6,1.0554944E5,4.6372025E5,3.894125E3,3.9627012E5,0E0,7.5758E4,5.368125E2,6.81016E4,3.5488832E4,1.0199844E5,6.045E2,0E0,0E0,3.697806E4,0E0,6.8105195E3,5.412344E2,1.4299418E4,0E0,1.5460781E4,1.84E2,0E0,0E0,0E0,0E0,0E0,0E0,0E0,0E0,0E0,0E0,0E0,0E0,0E0],"parents":[2147483647,0,0,1,1,2,2,3,3,4,4,6,6,7,7,8,8,9,9,10,10,11,11,14,14,16,16,17,17,18,18,20,20,21,21],"right_children":[2,4,6,8,10,-1,12,14,16,18,20,22,-1,-1,24,-1,26,28,30,-1,32,34,-1,-1,-1,-1,-1,-1,-1,-1,-1,-1,-1,-1,-1],"split_conditions":[1.8678569E2,1E0,4.44E2,1E0,3.56E2,-5.3112265E-2,4.64E2,7.120478E6,7E0,6.7684E4,4.44E2,4.4666668E1,-5.301214E-2,-5.307932E-2,3.446742E6,-5.3044327E-2,2.66E2,7.142857E4,3E0,-5.3876944E-2,4.64E2,0E0,-5.111986E-2,3.510915E-1,-5.3060867E-2,2.7741075E-1,-5.3138953E-2,-5.3058505E-2,-3.5982706E-2,2.6006457E-1,-5.330348E-2,2.727281E-1,-5.4469388E-2,2.728093E-1,2.5763842E-1],"split_indices":[8,38,0,11,24,0,0,26,3,25,0,12,0,0,74,0,39,36,11,0,0,67,0,0,0,0,0,0,0,0,0,0,0,0,0],"split_type":[0,0,0,0,0,0,0,0,0,0,0,0,0,0,0,0,0,0,0,0,0,0,0,0,0,0,0,0,0,0,0,0,0,0,0],"sum_hessian":[2.6719818E6,2.2329512E6,4.390305E5,1.8767786E6,3.561726E5,5.754051E4,3.8148997E5,1.7464664E6,1.3031224E5,2.8192228E5,7.4250305E4,3.734885E5,8.001488E3,1.5986255E6,1.478409E5,1.2236826E5,7.9439883E3,2.746903E5,7.2319873E3,1.195893E4,6.2291375E4,3.734261E5,6.24091E1,2.2976501E3,1.4554325E5,7.2630923E3,6.8089606E2,2.5462911E5,2.0061195E4,5.2128687E3,2.0191188E3,6.081298E4,1.4783953E3,8.902781E3,3.645233E5],"tree_param":{"num_deleted":"0","num_feature":"78","num_nodes":"35","size_leaf_vector":"1"}},{"base_weights":[-1.7275106E-3,-4.755077E-1,1.5968823E0,1.3723428E0,-4.998102E-1,2.2426603E0,-5.3071827E-2,-5.25909E-1,2.5963035E0,2.5234253E0,-5.0308156E-1,2.5488565E0,-4.8641005E-1,-5.30077E-1,2.4035926E0,2.5836104E-1,3.6981994E-1,2.603774E0,-4.9223116E-1,-5.197568E-1,-1.0004464E-1,-5.2695787E-1,2.5768797E0,-5.3063314E-2,2.871586E0,-5.304576E-2,9.598088E-2,3.0798933E-1,-2.1789694E-2,2.5701424E-1,3.5293543E-1,-5.0635334E-2,-0E0,-5.295905E-2,-4.4928476E-2,-5.3053886E-2,2.576614E-1,-5.2905787E-2,2.2945452E-1,2.5770813E-1,-4.798788E-2,2.5940147E-1,7.2224295E-1],"categories":[],"categories_nodes":[],"categories_segments":[],"categories_sizes":[],"default_left":[0,0,0,0,0,0,0,0,0,0,0,0,0,0,0,0,0,0,0,0,0,0,0,0,0,0,0,0,0,0,0,0,0,0,0,0,0,0,0,0,0,0,0],"id":40,"left_children":[1,3,5,7,9,11,-1,13,15,17,19,21,23,25,27,-1,-1,29,31,33,35,37,39,-1,41,-1,-1,-1,-1,-1,-1,-1,-1,-1,-1,-1,-1,-1,-1,-1,-1,-1,-1],"loss_changes":[2.0246885E6,9.260444E4,8.396904E5,6.2197223E4,2.0131156E4,3.917815E5,0E0,1.2975781E2,2.0539062E2,5.367285E2,1.366375E4,3.6339E4,7.025667E3,6.7478027E0,2.954734E1,0E0,0E0,4.5535156E1,2.2111511E-1,1.352E3,9.308395E4,2.4104614E1,2.6075E2,0E0,7.002886E2,0E0,0E0,0E0,0E0,0E0,0E0,0E0,0E0,0E0,0E0,0E0,0E0,0E0,0E0,0E0,0E0,0E0,0E0],"parents":[2147483647,0,0,1,1,2,2,3,3,4,4,5,5,7,7,8,8,9,9,10,10,11,11,12,12,13,13,14,14,17,17,18,18,19,19,20,20,21,21,22,22,24,24],"right_children":[2,4,6,8,10,12,-1,14,16,18,20,22,24,26,28,-1,-1,30,32,34,36,38,40,-1,42,-1,-1,-1,-1,-1,-1,-1,-1,-1,-1,-1,-1,-1,-1,-1,-1,-1,-1],"split_conditions":[4.64E2,3.2E1,4E0,1E0,2.1E1,3.2E1,-5.3071827E-2,4.96824E5,1.2E2,2E0,1.5625E4,1E0,1.450486E6,6.3644228E7,2.3349855E6,2.5836104E-1,3.6981994E-1,9E1,5.6417555E4,3.8073868E2,3.3E1,2.099872E7,2E0,-5.3063314E-2,2.5714285E0,-5.304576E-2,9.598088E-2,3.0798933E-1,-2.1789694E-2,2.5701424E-1,3.5293543E-1,-5.0635334E-2,-0E0,-5.295905E-2,-4.4928476E-2,-5.3053886E-2,2.576614E-1,-5.2905787E-2,2.2945452E-1,2.5770813E-1,-4.798788E-2,2.5940147E-1,7.2224295E-1],"split_indices":[0,34,4,46,0,35,0,24,19,2,37,46,24,25,70,0,0,16,17,37,69,1,2,0,40,0,0,0,0,0,0,0,0,0,0,0,0,0,0,0,0,0,0],"split_type":[0,0,0,0,0,0,0,0,0,0,0,0,0,0,0,0,0,0,0,0,0,0,0,0,0,0,0,0,0,0,0,0,0,0,0,0,0,0,0,0,0,0,0],"sum_hessian":[2.6732422E6,2.0620994E6,6.1114294E5,2.6766467E4,2.0353329E6,4.688391E5,1.4230383E5,1.0493199E4,1.6273267E4,2.1981687E3,2.0331348E6,4.2154312E5,4.7295965E4,1.0480098E4,1.3101755E1,1.6095005E4,1.78262E2,2.1415486E3,5.6620125E1,1.9523562E6,8.077849E4,3.805472E3,4.1773766E5,4.6683008E4,6.1295825E2,1.0479044E4,1.0536034E0,1.0288497E1,2.8132586E0,2.0742725E3,6.727608E1,5.425831E1,2.3618197E0,1.7132652E6,2.3909092E5,6.958822E4,1.11902705E4,3.8044426E3,1.0293577E0,4.1771062E5,2.7036474E1,5.793074E2,3.3650826E1],"tree_param":{"num_deleted":"0","num_feature":"78","num_nodes":"43","size_leaf_vector":"1"}},{"base_weights":[-2.3831201E-3,1.764427E0,-5.3074867E-2,-5.3042676E-2,2.5672452E0,2.5711453E0,-5.284592E-2,2.573879E0,-5.322343E-2,2.574824E-1,-5.8989253E-2],"categories":[],"categories_nodes":[],"categories_segments":[],"categories_sizes":[],"default_left":[0,0,0,0,0,0,0,0,0,0,0],"id":41,"left_children":[1,3,-1,-1,5,7,-1,9,-1,-1,-1],"loss_changes":[2.4952955E6,1.1336785E6,0E0,0E0,5.50725E3,3.8665E3,0E0,1.36425E3,0E0,0E0,0E0],"parents":[2147483647,0,0,1,1,4,4,5,5,7,7],"right_children":[2,4,-1,-1,6,8,-1,10,-1,-1,-1],"split_conditions":[2.5E1,2.2E1,-5.3074867E-2,-5.3042676E-2,1E0,5.742E3,-5.284592E-2,2.85E2,-5.322343E-2,2.574824E-1,-5.8989253E-2],"split_indices":[0,0,0,0,11,65,0,67,0,0,0],"split_type":[0,0,0,0,0,0,