{"learner":{"attributes":{"best_iteration":"99","best_score":"0.03878104130167699","scikit_learn":"{\"_estimator_type\": \"classifier\"}"},"feature_names":[],"feature_types":[],"gradient_booster":{"model":{"cats":{"enc":[],"feature_segments":[],"sorted_idx":[]},"gbtree_model_param":{"num_parallel_tree":"1","num_trees":"1500"},"iteration_indptr":[0,15,30,45,60,75,90,105,120,135,150,165,180,195,210,225,240,255,270,285,300,315,330,345,360,375,390,405,420,435,450,465,480,495,510,525,540,555,570,585,600,615,630,645,660,675,690,705,720,735,750,765,780,795,810,825,840,855,870,885,900,915,930,945,960,975,990,1005,1020,1035,1050,1065,1080,1095,1110,1125,1140,1155,1170,1185,1200,1215,1230,1245,1260,1275,1290,1305,1320,1335,1350,1365,1380,1395,1410,1425,1440,1455,1470,1485,1500],"tree_info":[0,1,2,3,4,5,6,7,8,9,10,11,12,13,14,0,1,2,3,4,5,6,7,8,9,10,11,12,13,14,0,1,2,3,4,5,6,7,8,9,10,11,12,13,14,0,1,2,3,4,5,6,7,8,9,10,11,12,13,14,0,1,2,3,4,5,6,7,8,9,10,11,12,13,14,0,1,2,3,4,5,6,7,8,9,10,11,12,13,14,0,1,2,3,4,5,6,7,8,9,10,11,12,13,14,0,1,2,3,4,5,6,7,8,9,10,11,12,13,14,0,1,2,3,4,5,6,7,8,9,10,11,12,13,14,0,1,2,3,4,5,6,7,8,9,10,11,12,13,14,0,1,2,3,4,5,6,7,8,9,10,11,12,13,14,0,1,2,3,4,5,6,7,8,9,10,11,12,13,14,0,1,2,3,4,5,6,7,8,9,10,11,12,13,14,0,1,2,3,4,5,6,7,8,9,10,11,12,13,14,0,1,2,3,4,5,6,7,8,9,10,11,12,13,14,0,1,2,3,4,5,6,7,8,9,10,11,12,13,14,0,1,2,3,4,5,6,7,8,9,10,11,12,13,14,0,1,2,3,4,5,6,7,8,9,10,11,12,13,14,0,1,2,3,4,5,6,7,8,9,10,11,12,13,14,0,1,2,3,4,5,6,7,8,9,10,11,12,13,14,0,1,2,3,4,5,6,7,8,9,10,11,12,13,14,0,1,2,3,4,5,6,7,8,9,10,11,12,13,14,0,1,2,3,4,5,6,7,8,9,10,11,12,13,14,0,1,2,3,4,5,6,7,8,9,10,11,12,13,14,0,1,2,3,4,5,6,7,8,9,10,11,12,13,14,0,1,2,3,4,5,6,7,8,9,10,11,12,13,14,0,1,2,3,4,5,6,7,8,9,10,11,12,13,14,0,1,2,3,4,5,6,7,8,9,10,11,12,13,14,0,1,2,3,4,5,6,7,8,9,10,11,12,13,14,0,1,2,3,4,5,6,7,8,9,10,11,12,13,14,0,1,2,3,4,5,6,7,8,9,10,11,12,13,14,0,1,2,3,4,5,6,7,8,9,10,11,12,13,14,0,1,2,3,4,5,6,7,8,9,10,11,12,13,14,0,1,2,3,4,5,6,7,8,9,10,11,12,13,14,0,1,2,3,4,5,6,7,8,9,10,11,12,13,14,0,1,2,3,4,5,6,7,8,9,10,11,12,13,14,0,1,2,3,4,5,6,7,8,9,10,11,12,13,14,0,1,2,3,4,5,6,7,8,9,10,11,12,13,14,0,1,2,3,4,5,6,7,8,9,10,11,12,13,14,0,1,2,3,4,5,6,7,8,9,10,11,12,13,14,0,1,2,3,4,5,6,7,8,9,10,11,12,13,14,0,1,2,3,4,5,6,7,8,9,10,11,12,13,14,0,1,2,3,4,5,6,7,8,9,10,11,12,13,14,0,1,2,3,4,5,6,7,8,9,10,11,12,13,14,0,1,2,3,4,5,6,7,8,9,10,11,12,13,14,0,1,2,3,4,5,6,7,8,9,10,11,12,13,14,0,1,2,3,4,5,6,7,8,9,10,11,12,13,14,0,1,2,3,4,5,6,7,8,9,10,11,12,13,14,0,1,2,3,4,5,6,7,8,9,10,11,12,13,14,0,1,2,3,4,5,6,7,8,9,10,11,12,13,14,0,1,2,3,4,5,6,7,8,9,10,11,12,13,14,0,1,2,3,4,5,6,7,8,9,10,11,12,13,14,0,1,2,3,4,5,6,7,8,9,10,11,12,13,14,0,1,2,3,4,5,6,7,8,9,10,11,12,13,14,0,1,2,3,4,5,6,7,8,9,10,11,12,13,14,0,1,2,3,4,5,6,7,8,9,10,11,12,13,14,0,1,2,3,4,5,6,7,8,9,10,11,12,13,14,0,1,2,3,4,5,6,7,8,9,10,11,12,13,14,0,1,2,3,4,5,6,7,8,9,10,11,12,13,14,0,1,2,3,4,5,6,7,8,9,10,11,12,13,14,0,1,2,3,4,5,6,7,8,9,10,11,12,13,14,0,1,2,3,4,5,6,7,8,9,10,11,12,13,14,0,1,2,3,4,5,6,7,8,9,10,11,12,13,14,0,1,2,3,4,5,6,7,8,9,10,11,12,13,14,0,1,2,3,4,5,6,7,8,9,10,11,12,13,14,0,1,2,3,4,5,6,7,8,9,10,11,12,13,14,0,1,2,3,4,5,6,7,8,9,10,11,12,13,14,0,1,2,3,4,5,6,7,8,9,10,11,12,13,14,0,1,2,3,4,5,6,7,8,9,10,11,12,13,14,0,1,2,3,4,5,6,7,8,9,10,11,12,13,14,0,1,2,3,4,5,6,7,8,9,10,11,12,13,14,0,1,2,3,4,5,6,7,8,9,10,11,12,13,14,0,1,2,3,4,5,6,7,8,9,10,11,12,13,14,0,1,2,3,4,5,6,7,8,9,10,11,12,13,14,0,1,2,3,4,5,6,7,8,9,10,11,12,13,14,0,1,2,3,4,5,6,7,8,9,10,11,12,13,14,0,1,2,3,4,5,6,7,8,9,10,11,12,13,14,0,1,2,3,4,5,6,7,8,9,10,11,12,13,14,0,1,2,3,4,5,6,7,8,9,10,11,12,13,14,0,1,2,3,4,5,6,7,8,9,10,11,12,13,14,0,1,2,3,4,5,6,7,8,9,10,11,12,13,14,0,1,2,3,4,5,6,7,8,9,10,11,12,13,14,0,1,2,3,4,5,6,7,8,9,10,11,12,13,14,0,1,2,3,4,5,6,7,8,9,10,11,12,13,14,0,1,2,3,4,5,6,7,8,9,10,11,12,13,14,0,1,2,3,4,5,6,7,8,9,10,11,12,13,14,0,1,2,3,4,5,6,7,8,9,10,11,12,13,14,0,1,2,3,4,5,6,7,8,9,10,11,12,13,14,0,1,2,3,4,5,6,7,8,9,10,11,12,13,14,0,1,2,3,4,5,6,7,8,9,10,11,12,13,14,0,1,2,3,4,5,6,7,8,9,10,11,12,13,14,0,1,2,3,4,5,6,7,8,9,10,11,12,13,14,0,1,2,3,4,5,6,7,8,9,10,11,12,13,14,0,1,2,3,4,5,6,7,8,9,10,11,12,13,14,0,1,2,3,4,5,6,7,8,9,10,11,12,13,14,0,1,2,3,4,5,6,7,8,9,10,11,12,13,14,0,1,2,3,4,5,6,7,8,9,10,11,12,13,14,0,1,2,3,4,5,6,7,8,9,10,11,12,13,14,0,1,2,3,4,5,6,7,8,9,10,11,12,13,14,0,1,2,3,4,5,6,7,8,9,10,11,12,13,14],"trees":[{"base_weights":[2.8432703E0,3.1623814E0,-5.1757437E-1,1.9467596E0,3.5186536E0,3.0401597E0,-5.5716467E-1,2.8633718E0,-3.82405E-1,2.778232E0,3.6515698E0,3.6439955E-1,5.80396E-1,7.3625284E-1,-5.6813115E-1,1.5800849E0,3.2249894E0,-5.369802E-1,3.1974814E0,3.3982847E0,-1.3929302E-1,3.6543584E0,2.2535682E0,2.8224704E0,-3.9814213E-1,-3.793144E-1,2.7453992E0,2.5118759E0,-5.6912434E-1,3.6775523E-1,1.0718586E-1,3.2891834E-1,3.6219638E-2,-5.5015545E-2,3.5645202E-1,3.3377346E-1,-5.1064122E-2,1.664295E-1,3.5498405E-1,-5.1863264E-2,1.8505263E-1,3.6729342E-1,3.5743722E-1,3.358862E-1,5.439824E-2,1.45262955E-2,3.1515893E-1,-5.317464E-2,1.4125031E-1,2.5925133E-1,-5.3328145E-2,3.5572731E-1,-4.671253E-2,2.9284003E-1,-9.24431E-3,-5.6970216E-2,8.5106105E-2],"categories":[],"categories_nodes":[],"categories_segments":[],"categories_sizes":[],"default_left":[0,0,0,0,0,0,0,0,0,0,0,0,0,0,0,0,0,0,0,0,0,0,0,0,0,0,0,0,0,0,0,0,0,0,0,0,0,0,0,0,0,0,0,0,0,0,0,0,0,0,0,0,0,0,0,0,0],"id":0,"left_children":[1,3,5,7,9,11,13,15,17,19,21,-1,23,25,27,29,31,33,35,37,39,41,43,45,47,49,51,53,55,-1,-1,-1,-1,-1,-1,-1,-1,-1,-1,-1,-1,-1,-1,-1,-1,-1,-1,-1,-1,-1,-1,-1,-1,-1,-1,-1,-1],"loss_changes":[4.5587375E5,1.6811075E5,5.1940957E3,1.8785934E5,2.95215E4,5.964568E2,5.178672E2,2.9289375E4,1.3753383E4,8.267322E4,9.7275E2,0E0,1.8453595E2,6.9134937E2,1.1247949E2,1.4791598E4,9.0483125E3,1.2898042E3,5.3985254E2,9.890219E3,6.048659E3,3.475E2,9.6225635E2,1.9886292E1,1.5347762E1,9.278684E1,2.917798E2,1.4826118E1,3.0485352E1,0E0,0E0,0E0,0E0,0E0,0E0,0E0,0E0,0E0,0E0,0E0,0E0,0E0,0E0,0E0,0E0,0E0,0E0,0E0,0E0,0E0,0E0,0E0,0E0,0E0,0E0,0E0,0E0],"parents":[2147483647,0,0,1,1,2,2,3,3,4,4,5,5,6,6,7,7,8,8,9,9,10,10,12,12,13,13,14,14,15,15,16,16,17,17,18,18,19,19,20,20,21,21,22,22,23,23,24,24,25,25,26,26,27,27,28,28],"right_children":[2,4,6,8,10,12,14,16,18,20,22,-1,24,26,28,30,32,34,36,38,40,42,44,46,48,50,52,54,56,-1,-1,-1,-1,-1,-1,-1,-1,-1,-1,-1,-1,-1,-1,-1,-1,-1,-1,-1,-1,-1,-1,-1,-1,-1,-1,-1,-1],"split_conditions":[1.7525956E-1,1.0787671E-3,2.3027039E-1,1.0343936E-3,1.0343936E-3,5.938048E-2,2.498707E-1,1.7499998E-7,3.7166662E-6,3.0379747E-3,1.5853886E-1,3.6439955E-1,2.1447857E-1,1.5713134E-1,1.696511E-1,1E0,1.3083333E-1,1E0,1.2499961E-1,1.7979452E-3,5.640612E-4,5.938048E-2,2.498707E-1,5.830096E-2,1.5866448E-1,1.9383099E-2,1.9575411E-1,4.9143087E-2,9.916667E-1,3.6775523E-1,1.0718586E-1,3.2891834E-1,3.6219638E-2,-5.5015545E-2,3.5645202E-1,3.3377346E-1,-5.1064122E-2,1.664295E-1,3.5498405E-1,-5.1863264E-2,1.8505263E-1,3.6729342E-1,3.5743722E-1,3.358862E-1,5.439824E-2,1.45262955E-2,3.1515893E-1,-5.317464E-2,1.4125031E-1,2.5925133E-1,-5.3328145E-2,3.5572731E-1,-4.671253E-2,2.9284003E-1,-9.24431E-3,-5.6970216E-2,8.5106105E-2],"split_indices":[3,10,11,2,2,0,2,5,0,7,3,0,3,9,10,15,17,15,4,10,9,0,2,5,2,4,4,0,6,0,0,0,0,0,0,0,0,0,0,0,0,0,0,0,0,0,0,0,0,0,0,0,0,0,0,0,0],"split_type":[0,0,0,0,0,0,0,0,0,0,0,0,0,0,0,0,0,0,0,0,0,0,0,0,0,0,0,0,0,0,0,0,0,0,0,0,0,0,0,0,0,0,0,0,0,0,0,0,0,0,0,0,0,0,0,0,0],"sum_hessian":[4.2505778E5,3.8819872E5,3.6859066E4,8.798912E4,3.002096E5,4.038449E2,3.645522E4,6.314068E4,2.4848436E4,4.5697164E4,2.5451244E5,3.233107E2,8.053419E1,3.0499683E2,3.6150223E4,1.3883577E4,4.92571E4,2.3821684E4,1.0267522E3,3.7687418E4,8.009747E3,2.5400223E5,5.1020636E2,2.3479355E1,5.7054832E1,1.9699179E2,1.0800503E2,9.861329E0,3.6140363E4,2.7052913E3,1.1178286E4,4.8176348E4,1.0807546E3,2.3747254E4,7.442955E1,9.896548E2,3.709738E1,3.0314194E3,3.4655996E4,6.7287134E3,1.2810336E3,2.060527E5,4.794954E4,3.085187E2,2.0168765E2,3.0523162E0,2.0427038E1,5.4706894E1,2.3479354E0,7.9829807E0,1.890088E2,8.616923E1,2.18358E1,8.452568E0,1.4087613E0,3.6127215E4,1.3148438E1],"tree_param":{"num_deleted":"0","num_feature":"20","num_nodes":"57","size_leaf_vector":"1"}},{"base_weights":[-5.2640164E-1,-5.175283E-1,-5.324039E-2,-5.222592E-1,3.617145E-1,-5.3236812E-2,-5.045028E-1,-5.2744158E-2,2.4247646E0,-5.1444644E-1,-4.3525127E-1,7.857621E-1,-5.149737E-2,-5.1508076E-2,5.380212E-2,5.3312E-2,-5.313895E-2],"categories":[],"categories_nodes":[],"categories_segments":[],"categories_sizes":[],"default_left":[0,0,0,0,0,0,0,0,0,0,0,0,0,0,0,0,0],"id":1,"left_children":[1,3,-1,5,7,-1,9,-1,11,13,15,-1,-1,-1,-1,-1,-1],"loss_changes":[9.941406E0,3.4817188E2,0E0,1.3871094E1,8.2529376E2,0E0,1.9888184E1,0E0,2.1751392E3,1.8172852E1,3.5561688E2,0E0,0E0,0E0,0E0,0E0,0E0],"parents":[2147483647,0,0,1,1,3,3,4,4,6,6,8,8,9,9,10,10],"right_children":[2,4,-1,6,8,-1,10,-1,12,14,16,-1,-1,-1,-1,-1,-1],"split_conditions":[7.9303505E-3,7.585553E-3,-5.324039E-2,1.0343936E-3,8.549118E-3,-5.3236812E-2,1.5769583E-3,-5.2744158E-2,6.605223E-3,4.671636E-1,4.916575E-3,7.857621E-1,-5.149737E-2,-5.1508076E-2,5.380212E-2,5.3312E-2,-5.313895E-2],"split_indices":[2,2,0,2,3,0,8,0,1,9,8,0,0,0,0,0,0],"split_type":[0,0,0,0,0,0,0,0,0,0,0,0,0,0,0,0,0],"sum_hessian":[2.069111E5,8.359174E4,1.2331935E5,8.314575E4,4.459934E2,5.292741E4,3.0218342E4,3.1253845E2,1.3345496E2,2.6406584E4,3.811757E3,4.5742912E1,8.7712036E1,2.6392174E4,1.4409018E1,3.429575E2,3.4687996E3],"tree_param":{"num_deleted":"0","num_feature":"20","num_nodes":"17","size_leaf_vector":"1"}},{"base_weights":[-1.5488629E-1,-3.8119557E-1,5.254352E0,-5.165286E-1,1.0290057E-1,6.6366487E0,6.588894E-1,-5.2439314E-1,6.103161E-1,4.184882E0,-5.19837E-1,-5.234038E-1,6.9052067E0,7.634375E-1,3.227647E-1,-5.3104854E-1,-4.3184614E-1,6.9039814E-2,4.7545323E0,-5.333488E-2,7.3958335E0,-5.328216E-1,-4.756137E-1,-0E0,-5.274704E-2,7.442081E0,5.6464705E0,-5.329181E-2,3.0248053E0,-5.3318817E-2,-4.9786262E-2,1.753435E-1,-5.325835E-2,1.1780306E-1,-4.834966E-2,-5.003382E-2,7.533369E-1,7.7722037E-1,-5.244003E-2,5.5683036E-3,-5.33217E-2,2.731565E-2,-5.31042E-2,5.8135647E-2,7.507153E-1,1.4991766E-1,7.445234E-1,5.5509925E-1,-4.0938552E-2],"categories":[],"categories_nodes":[],"categories_segments":[],"categories_sizes":[],"default_left":[0,0,0,0,0,0,0,0,0,0,0,0,0,0,0,0,0,0,0,0,0,0,0,0,0,0,0,0,0,0,0,0,0,0,0,0,0,0,0,0,0,0,0,0,0,0,0,0,0],"id":2,"left_children":[1,3,5,7,9,11,13,15,17,19,21,23,25,-1,27,29,31,33,35,-1,37,39,41,-1,-1,43,45,-1,47,-1,-1,-1,-1,-1,-1,-1,-1,-1,-1,-1,-1,-1,-1,-1,-1,-1,-1,-1,-1],"loss_changes":[2.639943E5,1.3561359E4,5.4999E4,1.4342266E3,1.1496813E5,1.2811531E4,4.6917573E3,9.8015625E1,2.513079E3,9.070687E4,2.1521484E1,4.391098E-1,4.2457812E3,0E0,4.4317783E3,9.59375E0,2.3773813E3,6.107214E2,1.9012512E3,0E0,1.0631172E4,7.3515625E0,3.7119922E2,0E0,0E0,1.9924531E3,1.4349602E4,0E0,4.0063838E3,0E0,0E0,0E0,0E0,0E0,0E0,0E0,0E0,0E0,0E0,0E0,0E0,0E0,0E0,0E0,0E0,0E0,0E0,0E0,0E0],"parents":[2147483647,0,0,1,1,2,2,3,3,4,4,5,5,6,6,7,7,8,8,9,9,10,10,11,11,12,12,14,14,15,15,16,16,17,17,18,18,20,20,21,21,22,22,25,25,26,26,28,28],"right_children":[2,4,6,8,10,12,14,16,18,20,22,24,26,-1,28,30,32,34,36,-1,38,40,42,-1,-1,44,46,-1,48,-1,-1,-1,-1,-1,-1,-1,-1,-1,-1,-1,-1,-1,-1,-1,-1,-1,-1,-1,-1],"split_conditions":[3.3333334E-1,3.0379747E-3,6.85E-1,1.5853886E-1,4.630413E-4,1.7525956E-1,3.9979312E-1,2.5417545E-4,1.7835166E-3,7.1917806E-4,2.855665E-1,7.5E-5,4.2553333E-4,7.634375E-1,4E-1,3.358223E-5,4.630413E-4,3.2474706E-1,2.7900892E-1,-5.333488E-2,5.640612E-4,6.1876496E-4,2.1876873E-1,-0E0,-5.274704E-2,7.025E-5,5.865496E-1,-5.329181E-2,2.7464765E-1,-5.3318817E-2,-4.9786262E-2,1.753435E-1,-5.325835E-2,1.1780306E-1,-4.834966E-2,-5.003382E-2,7.533369E-1,7.7722037E-1,-5.244003E-2,5.5683036E-3,-5.33217E-2,2.731565E-2,-5.31042E-2,5.8135647E-2,7.507153E-1,1.4991766E-1,7.445234E-1,5.5509925E-1,-4.0938552E-2],"split_indices":[2,7,17,3,11,3,2,7,4,10,2,6,6,0,2,7,11,10,10,0,9,11,10,0,0,0,0,0,10,0,0,0,0,0,0,0,0,0,0,0,0,0,0,0,0,0,0,0,0],"split_type":[0,0,0,0,0,0,0,0,0,0,0,0,0,0,0,0,0,0,0,0,0,0,0,0,0,0,0,0,0,0,0,0,0,0,0,0,0,0,0,0,0,0,0,0,0,0,0,0,0],"sum_hessian":[2.1564998E5,2.0699189E5,8.658083E3,1.6176895E5,4.5222938E4,6.6552217E3,2.0028612E3,1.6064927E5,1.1196948E3,5.984502E3,3.9238438E4,2.4046257E2,6.4147593E3,9.000954E1,1.9128517E3,1.4985753E5,1.0791727E4,9.9225085E2,1.2744397E2,2.424058E3,3.5604436E3,3.0306629E4,8.931808E3,2.1459227E0,2.3831665E2,4.489628E3,1.9251312E3,1.4538627E3,4.5898904E2,1.4073844E5,9.119099E3,4.7389127E2,1.0317835E4,3.2951837E2,6.627325E2,4.4587505E1,8.285646E1,3.3990225E3,1.6142108E2,1.9313305E1,3.0287316E4,6.144492E2,8.317358E3,4.2441586E1,4.4471865E3,5.835718E2,1.3415594E3,2.6382928E2,1.9515976E2],"tree_param":{"num_deleted":"0","num_feature":"20","num_nodes":"49","size_leaf_vector":"1"}},{"base_weights":[-5.007834E-1,-5.2052397E-1,-2.4725375E-1,-5.289486E-1,-3.7152573E-1,7.6690207E0,-3.1275246E-1,-5.310478E-1,-4.2727873E-1,7.07509E0,-5.068025E-1,8.036216E-1,-3.173917E-2,-5.3235836E-2,1.07640915E-1,-5.22866E-1,-5.324296E-2,1.1892184E0,-5.11899E-1,7.993883E-1,-4.6085406E-2,-5.284039E-1,-1.0335449E-1,-5.291873E-1,6.9452143E0,-5.2654218E-2,-3.647872E-2,5.741545E-1,-4.844673E-2,1.8300923E-3,-5.127263E-2,-4.4825114E-2,-5.3212978E-2,-5.110797E-2,7.11332E-1,-5.32183E-2,1.0663273E-1,8.080176E-2,7.501133E-1],"categories":[],"categories_nodes":[],"categories_segments":[],"categories_sizes":[],"default_left":[0,0,0,0,0,0,0,0,0,0,0,0,0,0,0,0,0,0,0,0,0,0,0,0,0,0,0,0,0,0,0,0,0,0,0,0,0,0,0],"id":3,"left_children":[1,3,5,7,9,11,13,15,17,19,21,-1,-1,-1,23,25,-1,27,29,-1,-1,31,33,35,37,-1,-1,-1,-1,-1,-1,-1,-1,-1,-1,-1,-1,-1,-1],"loss_changes":[1.0381016E3,2.4085938E2,7.7779683E3,3.7964844E1,1.0394276E4,3.6994434E2,1.3738289E3,9.375E-1,5.0722736E2,1.2858408E3,8.7879395E1,0E0,0E0,0E0,2.2243316E4,1.4255859E1,0E0,1.4135051E3,1.8096924E0,0E0,0E0,1.904541E0,1.529913E3,2.3201172E1,1.4686504E3,0E0,0E0,0E0,0E0,0E0,0E0,0E0,0E0,0E0,0E0,0E0,0E0,0E0,0E0],"parents":[2147483647,0,0,1,1,2,2,3,3,4,4,5,5,6,6,7,7,8,8,9,9,10,10,14,14,15,15,17,17,18,18,21,21,22,22,23,23,24,24],"right_children":[2,4,6,8,10,12,14,16,18,20,22,-1,-1,-1,24,26,-1,28,30,-1,-1,32,34,36,38,-1,-1,-1,-1,-1,-1,-1,-1,-1,-1,-1,-1,-1,-1],"split_conditions":[2.1484688E-1,9.0833336E-2,1.5866448E-1,1.1929494E-1,1.6676996E-8,2.1538751E-1,1E0,8.0580176E-5,9.129734E-2,8.0580176E-5,6.639131E-1,8.036216E-1,-3.173917E-2,-5.3235836E-2,4.1108847E-2,4.23809E-2,-5.324296E-2,1.20921746E-1,1.638445E-2,7.993883E-1,-4.6085406E-2,5.4903608E-2,8.777143E-4,2.5980134E-2,2.855665E-1,-5.2654218E-2,-3.647872E-2,5.741545E-1,-4.844673E-2,1.8300923E-3,-5.127263E-2,-4.4825114E-2,-5.3212978E-2,-5.110797E-2,7.11332E-1,-5.32183E-2,1.0663273E-1,8.080176E-2,7.501133E-1],"split_indices":[3,19,16,3,4,3,14,9,9,9,4,0,0,0,5,19,0,3,12,0,0,4,12,8,16,0,0,0,0,0,0,0,0,0,0,0,0,0,0],"split_type":[0,0,0,0,0,0,0,0,0,0,0,0,0,0,0,0,0,0,0,0,0,0,0,0,0,0,0,0,0,0,0,0,0,0,0,0,0,0,0],"sum_hessian":[2.0754625E5,1.9254967E5,1.4996578E4,1.8223714E5,1.0312534E4,1.2109458E2,1.4875483E4,1.7853745E5,3.6996917E3,1.8210057E2,1.0130434E4,1.15819626E2,5.2749534E0,9.771622E3,5.1038613E3,2.5956783E4,1.5258066E5,1.8244458E2,3.517247E3,1.6226215E2,1.9838411E1,9.613832E3,5.1660144E2,4.670627E3,4.3323422E2,2.5359223E4,5.975605E2,4.78186E1,1.3462598E2,4.4722433E0,3.512775E3,4.4378412E2,9.170048E3,4.9080002E2,2.5801403E1,4.6635176E3,7.1097198E0,3.646598E1,3.9676822E2],"tree_param":{"num_deleted":"0","num_feature":"20","num_nodes":"39","size_leaf_vector":"1"}},{"base_weights":[1.2382897E-1,-2.4153496E-1,6.3154197E0,9.6058667E-1,-4.2971727E-1,-4.3483818E-1,7.338834E0,4.165329E0,7.925262E-2,-5.038809E-1,1.0913905E0,1.7943925E0,-5.2734345E-1,7.4900746E0,4.0489106E0,-5.3074967E-2,4.4413853E0,-5.3504344E-2,8.587149E-1,-5.336762E-1,1.0609047E0,5.305055E0,-9.9146254E-2,-5.010083E-2,6.487591E-1,-5.343293E-2,1.741472E0,7.564444E-1,7.075558E0,1.6272277E0,7.398283E-1,-5.2927997E-2,4.672478E-1,2.0981339E-1,-3.6505412E-2,-5.342799E-2,1.600149E-2,-4.4657018E-2,5.3768885E-1,5.0457336E-2,6.612966E-1,-1.4741296E-2,7.0633876E-1,2.7901933E-1,-9.9353595E-3,-5.1944733E-2,7.5659305E-1,-5.2274223E-2,3.3109888E-1],"categories":[],"categories_nodes":[],"categories_segments":[],"categories_sizes":[],"default_left":[0,0,0,0,0,0,0,0,0,0,0,0,0,0,0,0,0,0,0,0,0,0,0,0,0,0,0,0,0,0,0,0,0,0,0,0,0,0,0,0,0,0,0,0,0,0,0,0,0],"id":4,"left_children":[1,3,5,7,9,11,13,15,17,19,21,23,25,27,29,-1,31,-1,33,35,37,39,41,-1,-1,-1,43,-1,45,47,-1,-1,-1,-1,-1,-1,-1,-1,-1,-1,-1,-1,-1,-1,-1,-1,-1,-1,-1],"loss_changes":[5.0445375E5,4.7634793E4,8.584969E4,8.0497734E4,2.0540125E4,3.389718E2,5.3023125E3,7.9759688E3,1.0705581E4,8.0949414E3,4.246664E4,7.1498987E2,2.6207428E1,2.03625E2,3.854371E3,0E0,6.676711E3,0E0,1.4949299E4,7.169922E1,2.1115086E4,1.1698555E4,2.2809292E3,0E0,0E0,0E0,1.1710681E1,0E0,5.9733984E3,1.02023145E3,0E0,0E0,0E0,0E0,0E0,0E0,0E0,0E0,0E0,0E0,0E0,0E0,0E0,0E0,0E0,0E0,0E0,0E0,0E0],"parents":[2147483647,0,0,1,1,2,2,3,3,4,4,5,5,6,6,7,7,8,8,9,9,10,10,11,11,12,12,13,13,14,14,16,16,18,18,19,19,20,20,21,21,22,22,26,26,28,28,29,29],"right_children":[2,4,6,8,10,12,14,16,18,20,22,24,26,28,30,-1,32,-1,34,36,38,40,42,-1,-1,-1,44,-1,46,48,-1,-1,-1,-1,-1,-1,-1,-1,-1,-1,-1,-1,-1,-1,-1,-1,-1,-1,-1],"split_conditions":[6.85E-1,5.9931504E-4,1.4848079E-1,1.7499998E-7,1.8887149E-1,1.4383561E-3,4E-1,1E0,4.1666667E-8,1E0,3.3333334E-1,2.588563E-1,1.3206838E-1,3.3333334E-1,2.7464765E-1,-5.3074967E-2,8.333333E-9,-5.3504344E-2,3.769166E-5,1.7525956E-1,2.025E-6,2.1876873E-1,8.016667E-1,-5.010083E-2,6.487591E-1,-5.343293E-2,1E0,7.564444E-1,3.9979312E-1,4.997414E-1,7.398283E-1,-5.2927997E-2,4.672478E-1,2.0981339E-1,-3.6505412E-2,-5.342799E-2,1.600149E-2,-4.4657018E-2,5.3768885E-1,5.0457336E-2,6.612966E-1,-1.4741296E-2,7.0633876E-1,2.7901933E-1,-9.9353595E-3,-5.1944733E-2,7.5659305E-1,-5.2274223E-2,3.3109888E-1],"split_indices":[17,10,3,5,3,10,16,15,8,13,16,7,3,16,10,0,8,0,5,3,8,10,18,0,0,0,14,0,16,16,0,0,0,0,0,0,0,0,0,0,0,0,0,0,0,0,0,0,0],"split_type":[0,0,0,0,0,0,0,0,0,0,0,0,0,0,0,0,0,0,0,0,0,0,0,0,0,0,0,0,0,0,0,0,0,0,0,0,0,0,0,0,0,0,0,0,0,0,0,0,0],"sum_hessian":[2.2298942E5,2.1056584E5,1.2423587E4,2.849932E4,1.8206652E5,1.6356687E3,1.0787918E4,6.1453457E3,2.2353975E4,1.7360389E5,8.462625E3,6.34888E1,1.5721799E3,1.0311197E4,4.7672076E2,3.4099033E2,5.8043555E3,1.2501499E4,9.852476E3,1.7036166E5,3.2422434E3,1.8628723E3,6.599753E3,4.3764122E1,1.9724676E1,1.5690979E3,3.0819805E0,8.712389E3,1.5988082E3,2.7848776E2,1.9823299E2,2.5765356E2,5.546702E3,4.8944316E3,4.958044E3,1.702147E5,1.4694884E2,2.4041914E3,8.380521E2,3.9954794E2,1.4633243E3,6.557592E3,4.2161495E1,1.4793507E0,1.6026299E0,9.689747E1,1.5019108E3,1.227861E2,1.5570166E2],"tree_param":{"num_deleted":"0","num_feature":"20","num_nodes":"49","size_leaf_vector":"1"}},{"base_weights":[-5.1551235E-1,-5.1840603E-1,3.7447503E-1,-5.2812773E-1,-4.1529325E-1,-5.294407E-2,3.3809948E0,-5.3195268E-2,-5.077127E-1,6.1639924E0,-5.1686287E-1,7.615035E0,-5.1359277E-2,6.2241304E-1,-5.204461E-1,7.2573075E0,-4.933475E-2,9.861799E-1,-5.257181E-1,-2.2508575E-2,7.9661816E-1,-3.814737E-2,5.238815E-1,6.372318E-2,-5.279053E-2,7.3307794E-1,-1.5765816E-2,4.523533E-1,-5.113491E-2,-2.0527817E-2,-5.3236812E-2],"categories":[],"categories_nodes":[],"categories_segments":[],"categories_sizes":[],"default_left":[0,0,0,0,0,0,0,0,0,0,0,0,0,0,0,0,0,0,0,0,0,0,0,0,0,0,0,0,0,0,0],"id":5,"left_children":[1,3,5,7,9,-1,11,-1,13,15,17,19,-1,21,23,25,-1,27,29,-1,-1,-1,-1,-1,-1,-1,-1,-1,-1,-1,-1],"loss_changes":[5.3408203E2,2.061289E2,1.8315742E3,1.3671875E1,1.1904207E4,0E0,2.5798525E3,0E0,4.300713E2,1.9817598E3,2.3425732E2,2.1342822E2,0E0,1.5496313E3,2.5547607E2,1.3273242E2,0E0,5.527589E2,3.6573242E1,0E0,0E0,0E0,0E0,0E0,0E0,0E0,0E0,0E0,0E0,0E0,0E0],"parents":[2147483647,0,0,1,1,2,2,3,3,4,4,6,6,8,8,9,9,10,10,11,11,13,13,14,14,15,15,17,17,18,18],"right_children":[2,4,6,8,10,-1,12,-1,14,16,18,20,-1,22,24,26,-1,28,30,-1,-1,-1,-1,-1,-1,-1,-1,-1,-1,-1,-1],"split_conditions":[8.5E-1,1.4032975E-1,1E0,5.2544948E-2,2.4174053E-4,-5.294407E-2,4.0226418E-4,-5.3195268E-2,8.333333E-9,6.7190245E-2,1.9702922E-1,9.6696215E-3,-5.1359277E-2,5.8340047E-2,4.630413E-4,1.8042397E-1,-4.933475E-2,9.26672E-4,4.0226418E-4,-2.2508575E-2,7.9661816E-1,-3.814737E-2,5.238815E-1,6.372318E-2,-5.279053E-2,7.3307794E-1,-1.5765816E-2,4.523533E-1,-5.113491E-2,-2.0527817E-2,-5.3236812E-2],"split_indices":[18,4,14,10,9,0,2,0,6,19,0,9,0,9,11,4,0,9,2,0,0,0,0,0,0,0,0,0,0,0,0],"split_type":[0,0,0,0,0,0,0,0,0,0,0,0,0,0,0,0,0,0,0,0,0,0,0,0,0,0,0,0,0,0,0],"sum_hessian":[2.0720205E5,2.0653192E5,6.701155E2,1.8872538E5,1.7806547E4,5.163541E2,1.5376134E2,1.5888275E5,2.9842637E4,2.6882474E2,1.7537723E4,7.281624E1,8.09451E1,3.3099332E2,2.9511643E4,2.3081374E2,3.8010994E1,1.01095505E2,1.7436627E4,3.0912554E0,6.972498E1,2.732899E2,5.7703434E1,1.8742168E2,2.932422E4,2.2863841E2,2.1753278E0,2.8966208E1,7.2129295E1,3.5732623E2,1.70793E4],"tree_param":{"num_deleted":"0","num_feature":"20","num_nodes":"31","size_leaf_vector":"1"}},{"base_weights":[-5.144116E-1,-5.1771766E-1,7.7933335E-1,-4.7599605E-1,-5.3181272E-2,6.8954034E0,-5.288853E-2,-4.966059E-1,4.0355067E0,-4.1806247E-2,7.95732E-1,-5.226464E-1,-3.1770352E-1,-5.1780667E-2,7.637241E0,-5.24288E-2,6.773967E-2,-3.630444E-2,4.386909E-2,8.05925E-1,-3.4893036E-2],"categories":[],"categories_nodes":[],"categories_segments":[],"categories_sizes":[],"default_left":[0,0,0,0,0,0,0,0,0,0,0,0,0,0,0,0,0,0,0,0,0],"id":6,"left_children":[1,3,5,7,-1,9,-1,11,13,-1,-1,15,17,-1,19,-1,-1,-1,-1,-1,-1],"loss_changes":[8.871914E2,1.2056641E2,4.240798E3,4.8590977E3,0E0,7.355879E2,0E0,2.414961E2,3.9088394E3,0E0,0E0,9.0043945E1,2.271344E2,0E0,4.5730664E2,0E0,0E0,0E0,0E0,0E0,0E0],"parents":[2147483647,0,0,1,1,2,2,3,3,5,5,7,7,8,8,11,11,12,12,14,14],"right_children":[2,4,6,8,-1,10,-1,12,14,-1,-1,16,18,-1,20,-1,-1,-1,-1,-1,-1],"split_conditions":[6.639131E-1,4.0226418E-4,1.7979452E-3,4.2272668E-4,-5.3181272E-2,7.321326E-4,-5.288853E-2,1E0,1.5956894E-1,-4.1806247E-2,7.95732E-1,4.4929108E-1,1.5164603E-2,-5.1780667E-2,5.2544948E-2,-5.24288E-2,6.773967E-2,-3.630444E-2,4.386909E-2,8.05925E-1,-3.4893036E-2],"split_indices":[4,16,10,3,0,11,0,14,7,0,0,4,11,0,10,0,0,0,0,0,0],"split_type":[0,0,0,0,0,0,0,0,0,0,0,0,0,0,0,0,0,0,0,0,0],"sum_hessian":[2.0726445E5,2.0673773E5,5.267136E2,5.2232703E4,1.5450503E5,9.137337E1,4.3534027E2,5.1997055E4,2.3564711E2,1.1679302E1,7.969406E1,4.5384395E4,6.6126606E3,1.0477022E2,1.3087689E2,4.5323938E4,6.0457565E1,6.2402974E3,3.7236365E2,1.2435022E2,6.526669E0],"tree_param":{"num_deleted":"0","num_feature":"20","num_nodes":"21","size_leaf_vector":"1"}},{"base_weights":[-5.0778025E-1,-4.5928314E-1,-5.324784E-2,-4.9578616E-1,5.083913E0,-5.319704E-1,3.0620456E-1,8.137466E-1,-4.3212837E-1,-5.3233083E-2,-2.398678E-1,7.156996E0,-5.319053E-2,-5.227927E-2,2.2142584E0,7.178935E-2,-5.100429E-2,1.2429529E-1,7.827413E-1,3.6530373E-1,-1.3608478E-2],"categories":[],"categories_nodes":[],"categories_segments":[],"categories_sizes":[],"default_left":[0,0,0,0,0,0,0,0,0,0,0,0,0,0,0,0,0,0,0,0,0],"id":7,"left_children":[1,3,-1,5,7,9,11,-1,13,-1,15,17,-1,-1,19,-1,-1,-1,-1,-1,-1],"loss_changes":[2.4742578E2,1.4167063E4,0E0,2.0186016E3,7.7259775E3,6.3652344E0,1.7253066E4,0E0,4.1071175E1,0E0,2.3235292E1,1.2746367E3,0E0,0E0,2.1915342E1,0E0,0E0,0E0,0E0,0E0,0E0],"parents":[2147483647,0,0,1,1,3,3,4,4,5,5,6,6,8,8,10,10,11,11,14,14],"right_children":[2,4,-1,6,8,10,12,-1,14,-1,16,18,-1,-1,20,-1,-1,-1,-1,-1,-1],"split_conditions":[4.120291E-3,1.7409114E-3,-5.324784E-2,1.6500399E-3,1.4907332E-3,5.640612E-4,9.26672E-4,8.137466E-1,1.5415427E-2,-5.3233083E-2,1.5999634E-6,1.6666666E-8,-5.319053E-2,-5.227927E-2,1.3691207E-2,7.178935E-2,-5.100429E-2,1.2429529E-1,7.827413E-1,3.6530373E-1,-1.3608478E-2],"split_indices":[10,1,0,11,9,9,9,0,7,0,4,8,0,0,4,0,0,0,0,0,0],"split_type":[0,0,0,0,0,0,0,0,0,0,0,0,0,0,0,0,0,0,0,0,0],"sum_hessian":[2.0738989E5,6.999935E4,1.3739053E5,6.9543305E4,4.5604498E2,6.654234E4,3.0009592E3,2.929917E2,1.6305327E2,6.6456984E4,8.5365204E1,3.255336E2,2.6754255E3,1.5938657E2,3.6666932E0,1.7645962E1,6.771924E1,3.3802326E1,2.917313E2,1.7187624E0,1.9479308E0],"tree_param":{"num_deleted":"0","num_feature":"20","num_nodes":"21","size_leaf_vector":"1"}},{"base_weights":[-5.323513E-1],"categories":[],"categories_nodes":[],"categories_segments":[],"categories_sizes":[],"default_left":[0],"id":8,"left_children":[-1],"loss_changes":[0E0],"parents":[2147483647],"right_children":[-1],"split_conditions":[-5.3235132E-2],"split_indices":[0],"split_type":[0],"sum_hessian":[2.0678942E5],"tree_param":{"num_deleted":"0","num_feature":"20","num_nodes":"1","size_leaf_vector":"1"}},{"base_weights":[-5.322647E-1],"categories":[],"categories_nodes":[],"categories_segments":[],"categories_sizes":[],"default_left":[0],"id":9,"left_children":[-1],"loss_changes":[0E0],"parents":[2147483647],"right_children":[-1],"split_conditions":[-5.322647E-2],"split_indices":[0],"split_type":[0],"sum_hessian":[2.0692464E5],"tree_param":{"num_deleted":"0","num_feature":"20","num_nodes":"1","size_leaf_vector":"1"}},{"base_weights":[-6.754193E-2,1.716532E0,-5.3385753E-2,-5.1316506E-1,7.366059E0,-5.226609E-1,2.8832182E-1,7.687869E0,-1.6614617E-1,-5.3418517E-2,-4.6356368E-1,7.245257E-1,-5.298027E-2,-4.9776267E-2,7.715344E0,-4.661429E-1,7.010555E-1,1.0918581E-1,-5.0917465E-2,7.7161574E-1,-4.4812243E-3,2.562135E-1,-5.2123655E-2],"categories":[],"categories_nodes":[],"categories_segments":[],"categories_sizes":[],"default_left":[0,0,0,0,0,0,0,0,0,0,0,0,0,0,0,0,0,0,0,0,0,0,0],"id":10,"left_children":[1,3,-1,5,7,9,11,13,15,-1,17,-1,-1,-1,19,21,-1,-1,-1,-1,-1,-1,-1],"loss_changes":[1.8135202E5,5.690069E5,0E0,2.4692969E2,3.0990688E4,2.080664E1,2.1734226E3,2.7683125E3,1.1349797E3,0E0,3.729917E2,0E0,0E0,0E0,8.1625E1,8.6154366E1,0E0,0E0,0E0,0E0,0E0,0E0,0E0],"parents":[2147483647,0,0,1,1,3,3,4,4,5,5,6,6,7,7,8,8,10,10,14,14,15,15],"right_children":[2,4,-1,6,8,10,12,14,16,-1,18,-1,-1,-1,20,22,-1,-1,-1,-1,-1,-1,-1],"split_conditions":[1.0787671E-3,1.0343936E-3,-5.3385753E-2,8.390411E-4,4.0499995E-6,2.1730662E-6,2.1428572E-7,1E0,1.2499961E-1,-5.3418517E-2,7.4999994E-6,7.245257E-1,-5.298027E-2,-4.9776267E-2,1.6676996E-8,6.559999E-5,7.010555E-1,1.0918581E-1,-5.0917465E-2,7.7161574E-1,-4.4812243E-3,2.562135E-1,-5.2123655E-2],"split_indices":[10,2,0,10,5,7,12,14,4,0,5,0,0,0,4,5,0,0,0,0,0,0,0],"split_type":[0,0,0,0,0,0,0,0,0,0,0,0,0,0,0,0,0,0,0,0,0,0,0],"sum_hessian":[2.17983E5,4.5168125E4,1.7281488E5,3.2387492E4,1.2780632E4,3.2009568E4,3.7792352E2,1.2256982E4,5.236493E2,2.676561E4,5.24396E3,3.8177742E1,3.397458E2,4.0827305E1,1.2216155E4,5.045002E2,1.914909E1,1.4777316E2,5.096187E3,1.2214951E4,1.2043452E0,7.2260714E0,4.9727414E2],"tree_param":{"num_deleted":"0","num_feature":"20","num_nodes":"23","size_leaf_vector":"1"}},{"base_weights":[-5.1422095E-1,-4.6226782E-1,-5.2184576E-1,-3.703508E-1,-5.30263E-2,-5.3223217E-1,-4.7963765E-1,-3.074712E-1,-5.2552676E-1,-5.3224593E-2,-0E0,6.7973866E0,-5.3225034E-1,-4.2474082E-1,2.820333E-2,-4.0814977E-2,-5.2848976E-2,-1.8616958E-2,2.2773141E-2,-2.8045002E-1,7.9564333E0,-3.3009273E-1,-5.324195E-2,-4.3988664E-2,-2.7608586E-2,2.7587494E-2,-1.35746915E-2,-4.881571E-2,1.315986E-1,8.0635786E-1,-2.0287184E-2,8.758627E-3,-4.7811415E-2],"categories":[],"categories_nodes":[],"categories_segments":[],"categories_sizes":[],"default_left":[0,0,0,0,0,0,0,0,0,0,0,0,0,0,0,0,0,0,0,0,0,0,0,0,0,0,0,0,0,0,0,0,0],"id":11,"left_children":[1,3,5,7,-1,9,11,13,15,-1,17,19,21,23,25,-1,-1,-1,-1,27,29,31,-1,-1,-1,-1,-1,-1,-1,-1,-1,-1,-1],"loss_changes":[8.111719E1,1.6508008E2,7.819531E1,1.09500244E2,0E0,1.0234375E0,1.3677236E4,3.169967E2,2.3156738E-1,0E0,3.3160996E-1,2.1119043E3,4.3066406E-1,1.2829224E1,8.477725E1,0E0,0E0,0E0,0E0,1.3456108E1,1.9994531E2,2.5901432E0,0E0,0E0,0E0,0E0,0E0,0E0,0E0,0E0,0E0,0E0,0E0],"parents":[2147483647,0,0,1,1,2,2,3,3,5,5,6,6,7,7,8,8,10,10,11,11,12,12,13,13,14,14,19,19,20,20,21,21],"right_children":[2,4,6,8,-1,10,12,14,16,-1,18,20,22,24,26,-1,-1,-1,-1,28,30,32,-1,-1,-1,-1,-1,-1,-1,-1,-1,-1,-1],"split_conditions":[5.9931504E-4,8.333333E-9,6.78154E-2,1.1083332E-6,-5.30263E-2,8.416667E-1,2.5671247E-2,6.9166657E-7,1.1999998E-6,-5.3224593E-2,7.318083E-4,8.62859E-3,3.7137464E-2,6.416666E-7,7.916666E-7,-4.0814977E-2,-5.2848976E-2,-1.8616958E-2,2.2773141E-2,7.8076595E-3,4.1952055E-2,3.302226E-2,-5.324195E-2,-4.3988664E-2,-2.7608586E-2,2.7587494E-2,-1.35746915E-2,-4.881571E-2,1.315986E-1,8.0635786E-1,-2.0287184E-2,8.758627E-3,-4.7811415E-2],"split_indices":[10,6,6,5,0,5,5,5,5,0,8,7,5,5,0,0,0,0,0,7,10,10,0,0,0,0,0,0,0,0,0,0,0],"split_type":[0,0,0,0,0,0,0,0,0,0,0,0,0,0,0,0,0,0,0,0,0,0,0,0,0,0,0,0,0,0,0,0,0],"sum_hessian":[2.0723486E5,2.6546076E4,1.8068878E5,1.1296083E4,1.5249993E4,1.4497798E5,3.5710797E4,8.045223E3,3.25086E3,1.449741E5,3.8931084E0,2.5442609E2,3.545637E4,5.9629824E3,2.0822405E3,9.103004E1,3.15983E3,2.5190701E0,1.3740382E0,3.5954002E1,2.1847209E2,3.5381485E1,3.542099E4,5.405009E3,5.5797406E2,8.300336E2,1.2522069E3,3.3320427E1,2.6335733E0,2.1572401E2,2.7480764E0,8.587739E0,2.6793747E1],"tree_param":{"num_deleted":"0","num_feature":"20","num_nodes":"33","size_leaf_vector":"1"}},{"base_weights":[-5.275436E-1,-4.9758485E-1,-5.318553E-2,-5.275885E-1,-6.6964417E-3,-5.283892E-2,-2.6278436E-1,1.8980435E-1,-5.2862275E-2,2.9145715E-1,-4.4766527E-2,1.7303735E-1,1.5239634E-1,2.6198372E-3,4.5366507E-2],"categories":[],"categories_nodes":[],"categories_segments":[],"categories_sizes":[],"default_left":[0,0,0,0,0,0,0,0,0,0,0,0,0,0,0],"id":12,"left_children":[1,3,-1,5,7,-1,9,11,-1,-1,-1,-1,13,-1,-1],"loss_changes":[2.5695312E1,3.8396777E2,0E0,4.539551E0,1.547923E2,0E0,4.835904E1,6.16148E1,0E0,0E0,0E0,0E0,4.0462738E1,0E0,0E0],"parents":[2147483647,0,0,1,1,3,3,4,4,6,6,7,7,12,12],"right_children":[2,4,-1,6,8,-1,10,12,-1,-1,-1,-1,14,-1,-1],"split_conditions":[8.0580176E-5,4.195664E-2,-5.318553E-2,4.153837E-2,5.00906E-2,-5.283892E-2,4.1790776E-2,4.2424265E-2,-5.2862275E-2,2.9145715E-1,-4.4766527E-2,1.7303735E-1,4.7431227E-2,2.6198372E-3,4.5366507E-2],"split_indices":[9,7,0,7,6,0,6,6,0,0,0,0,7,0,0],"split_type":[0,0,0,0,0,0,0,0,0,0,0,0,0,0,0],"sum_hessian":[2.0699266E5,2.6086455E4,1.809062E5,2.4582764E4,1.5036926E3,2.4504783E4,7.798026E1,1.0926384E3,4.1105432E2,2.5154922E0,7.546477E1,2.3439814E1,1.0691986E3,7.562485E2,3.129501E2],"tree_param":{"num_deleted":"0","num_feature":"20","num_nodes":"15","size_leaf_vector":"1"}},{"base_weights":[-5.323224E-1],"categories":[],"categories_nodes":[],"categories_segments":[],"categories_sizes":[],"default_left":[0],"id":13,"left_children":[-1],"loss_changes":[0E0],"parents":[2147483647],"right_children":[-1],"split_conditions":[-5.323224E-2],"split_indices":[0],"split_type":[0],"sum_hessian":[2.067629E5],"tree_param":{"num_deleted":"0","num_feature":"20","num_nodes":"1","size_leaf_vector":"1"}},{"base_weights":[-5.303476E-1,-5.3222436E-2,-5.205718E-1,-3.3245966E-1,-5.31088E-1,-1.2075729E-1,-5.306935E-2,-4.6552786E-1,-5.323503E-2,-4.6127912E-1,-8.5983634E-2,-4.819831E-1,1.3541752E-1,3.568946E-3,-4.853274E-2,1.4763413E-1,-1.0390067E-2,-4.9318276E-2,-2.4135165E-2,4.1760337E-2,-3.1335946E-2],"categories":[],"categories_nodes":[],"categories_segments":[],"categories_sizes":[],"default_left":[0,0,0,0,0,0,0,0,0,0,0,0,0,0,0,0,0,0,0,0,0],"id":14,"left_children":[1,-1,3,5,7,9,-1,11,-1,13,15,17,19,-1,-1,-1,-1,-1,-1,-1,-1],"loss_changes":[2.7109375E0,0E0,6.5368164E1,7.417728E1,1.6259766E0,9.875096E0,0E0,6.4501343E0,0E0,1.1945686E0,2.1665157E1,1.0284576E0,2.5068772E0,0E0,0E0,0E0,0E0,0E0,0E0,0E0,0E0],"parents":[2147483647,0,0,2,2,3,3,4,4,5,5,7,7,9,9,10,10,11,11,12,12],"right_children":[2,-1,4,6,8,10,-1,12,-1,14,16,18,20,-1,-1,-1,-1,-1,-1,-1,-1],"split_conditions":[4.153837E-2,-5.3222436E-2,4.8003633E-2,4.630413E-4,5.0045285E-2,4.195664E-2,-5.306935E-2,4.060535E-2,-5.323503E-2,4.1790776E-2,4.222533E-2,4.9567543E-2,4.630413E-4,3.568946E-3,-4.853274E-2,1.4763413E-1,-1.0390067E-2,-4.9318276E-2,-2.4135165E-2,4.1760337E-2,-3.1335946E-2],"split_indices":[7,0,6,11,0,7,0,4,0,6,0,7,11,0,0,0,0,0,0,0,0],"split_type":[0,0,0,0,0,0,0,0,0,0,0,0,0,0,0,0,0,0,0,0,0],"sum_hessian":[2.0679164E5,1.7335297E5,3.343867E4,1.7763484E3,3.1662324E4,8.6176904E2,9.145794E2,6.195501E2,3.1042773E4,7.624352E1,7.855255E2,6.042328E2,1.531729E1,2.5147789E0,7.3728745E1,6.7441797E0,7.787813E2,5.733696E2,3.0863195E1,1.0173424E1,5.143866E0],"tree_param":{"num_deleted":"0","num_feature":"20","num_nodes":"21","size_leaf_vector":"1"}},{"base_weights":[2.1252716E0,2.3071659E0,-5.28054E-1,1.5629736E0,2.5008364E0,1.3621434E0,-5.630897E-1,2.140155E0,-3.697605E-1,2.0865464E0,2.5704534E0,2.4519994E0,-1.24322176E-1,9.279614E-1,-5.640584E-1,1.3100663E0,2.3462045E0,-5.285224E-1,2.3216166E0,2.438885E0,-1.2836367E-1,2.5739257E0,1.468377E0,-4.0854695E-1,2.5740545E0,2.1550004E0,-3.751878E-1,2.198547E-1,-4.37005E-2,-5.645903E-1,7.8230095E-1,2.5880265E-1,9.279901E-2,2.58915E-1,1.9578643E-1,-5.4249253E-2,2.5457957E-1,2.3974238E-1,-4.21104E-2,1.375444E-1,2.519965E-1,-5.0923865E-2,1.5160148E-1,2.4992727E-1,2.5816864E-1,2.4504344E-1,9.534727E-3,-0E0,-4.613204E-2,2.591939E-1,9.862796E-2,2.3777752E-1,-0E0,-5.3504106E-2,6.705647E-2,-1.6482873E-2,-5.6511965E-2,1.9918177E-1,-3.863075E-2],"categories":[],"categories_nodes":[],"categories_segments":[],"categories_sizes":[],"default_left":[0,0,0,0,0,0,0,0,0,0,0,0,0,0,0,0,0,0,0,0,0,0,0,0,0,0,0,0,0,0,0,0,0,0,0,0,0,0,0,0,0,0,0,0,0,0,0,0,0,0,0,0,0,0,0,0,0,0,0],"id":15,"left_children":[1,3,5,7,9,11,13,15,17,19,21,23,25,27,29,31,33,35,37,39,41,43,45,47,49,51,53,-1,-1,55,57,-1,-1,-1,-1,-1,-1,-1,-1,-1,-1,-1,-1,-1,-1,-1,-1,-1,-1,-1,-1,-1,-1,-1,-1,-1,-1,-1,-1],"loss_changes":[2.56375E5,7.163975E4,2.258124E3,1.1452681E5,1.136375E4,1.00706213E3,4.919629E1,1.35135E4,1.0089789E4,4.4297812E4,1.28275E3,1.2829224E2,1.5180531E2,4.120994E1,2.4723633E1,7.672158E3,5.9625938E3,9.593677E2,2.7649072E2,4.2135938E3,4.8810435E3,1.7975E2,1.4353633E3,4.6597457E-1,2.8691406E0,1.3433243E1,4.0756123E1,0E0,0E0,6.5234375E0,2.1668463E1,0E0,0E0,0E0,0E0,0E0,0E0,0E0,0E0,0E0,0E0,0E0,0E0,0E0,0E0,0E0,0E0,0E0,0E0,0E0,0E0,0E0,0E0,0E0,0E0,0E0,0E0,0E0,0E0],"parents":[2147483647,0,0,1,1,2,2,3,3,4,4,5,5,6,6,7,7,8,8,9,9,10,10,11,11,12,12,13,13,14,14,15,15,16,16,17,17,18,18,19,19,20,20,21,21,22,22,23,23,24,24,25,25,26,26,29,29,30,30],"right_children":[2,4,6,8,10,12,14,16,18,20,22,24,26,28,30,32,34,36,38,40,42,44,46,48,50,52,54,-1,-1,56,58,-1,-1,-1,-1,-1,-1,-1,-1,-1,-1,-1,-1,-1,-1,-1,-1,-1,-1,-1,-1,-1,-1,-1,-1,-1,-1,-1,-1],"split_conditions":[1.8887149E-1,1.0787671E-3,1.8878424E-1,1.0343936E-3,1.0343936E-3,5.938048E-2,2.498707E-1,1.7499998E-7,3.7166662E-6,3.0379747E-3,1.5853886E-1,1.16966665E-4,2.1414328E-1,5.454314E-1,9.916667E-1,1E0,1.5166667E-6,1E0,8.583333E-2,1.7979452E-3,5.640612E-4,4.120291E-3,2.498707E-1,1.2475E-5,5.167406E-2,2.3704486E-1,1.5713134E-1,2.198547E-1,-4.37005E-2,2.2242704E-1,4.9916673E-1,2.5880265E-1,9.279901E-2,2.58915E-1,1.9578643E-1,-5.4249253E-2,2.5457957E-1,2.3974238E-1,-4.21104E-2,1.375444E-1,2.519965E-1,-5.0923865E-2,1.5160148E-1,2.4992727E-1,2.5816864E-1,2.4504344E-1,9.534727E-3,-0E0,-4.613204E-2,2.591939E-1,9.862796E-2,2.3777752E-1,-0E0,-5.3504106E-2,6.705647E-2,-1.6482873E-2,-5.6511965E-2,1.9918177E-1,-3.863075E-2],"split_indices":[3,10,10,2,2,0,2,5,0,7,3,6,3,5,6,15,6,15,8,10,9,10,2,8,0,2,9,0,0,1,5,0,0,0,0,0,0,0,0,0,0,0,0,0,0,0,0,0,0,0,0,0,0,0,0,0,0,0,0],"split_type":[0,0,0,0,0,0,0,0,0,0,0,0,0,0,0,0,0,0,0,0,0,0,0,0,0,0,0,0,0,0,0,0,0,0,0,0,0,0,0,0,0,0,0,0,0,0,0,0,0,0,0,0,0,0,0,0,0,0,0],"sum_hessian":[5.312005E5,4.9712162E5,3.407889E4,1.0266087E5,3.9446078E5,6.185356E2,3.3460355E4,7.905295E4,2.3607908E4,5.6758805E4,3.3770197E5,3.5632233E2,2.622133E2,2.014581E1,3.344021E4,1.5724115E4,6.332884E4,2.2294566E4,1.3133428E3,4.896904E4,7.7897656E3,3.366382E5,1.063789E3,1.42218075E1,3.421005E2,2.4295439E1,2.3791786E2,9.99077E0,1.015504E1,3.3428535E4,1.1673481E1,3.616125E3,1.210799E4,3.8949457E4,2.4379383E4,2.2195516E4,9.904986E1,1.2784415E3,3.4901333E1,3.4720374E3,4.5497E4,6.326168E3,1.463598E3,3.1766408E4,3.0487175E5,6.19068E2,4.44721E2,1.309587E0,1.291222E1,3.3672787E2,5.3726206E0,2.1974957E1,2.3204823E0,2.076339E2,3.0283958E1,4.6278187E1,3.3382258E4,5.2542696E0,6.4192114E0],"tree_param":{"num_deleted":"0","num_feature":"20","num_nodes":"59","size_leaf_vector":"1"}},{"base_weights":[-5.2358854E-1,-5.1397663E-1,-5.3009268E-2,-5.191239E-1,3.4662586E-1,-5.3012885E-2,-4.9967963E-1,-5.2484304E-2,1.809725E0,-5.107378E-1,-4.331769E-1,3.9889458E-1,-5.1214803E-2,-4.7390845E-2,-5.2980702E-2,9.695982E-2,-5.089379E-2],"categories":[],"categories_nodes":[],"categories_segments":[],"categories_sizes":[],"default_left":[0,0,0,0,0,0,0,0,0,0,0,0,0,0,0,0,0],"id":16,"left_children":[1,3,-1,5,7,-1,9,-1,11,13,15,-1,-1,-1,-1,-1,-1],"loss_changes":[1.10546875E1,3.4758594E2,0E0,1.5625E1,5.973968E2,0E0,1.9827637E1,0E0,8.903745E2,1.596875E1,4.302162E2,0E0,0E0,0E0,0E0,0E0,0E0],"parents":[2147483647,0,0,1,1,3,3,4,4,6,6,8,8,9,9,10,10],"right_children":[2,4,-1,6,8,-1,10,-1,12,14,16,-1,-1,-1,-1,-1,-1],"split_conditions":[7.9303505E-3,7.585553E-3,-5.3009268E-2,1.0343936E-3,8.549118E-3,-5.3012885E-2,6.47075E-4,-5.2484304E-2,8.8472245E-3,4.630413E-4,8.390411E-4,3.9889458E-1,-5.1214803E-2,-4.7390845E-2,-5.2980702E-2,9.695982E-2,-5.089379E-2],"split_indices":[2,2,0,2,3,0,6,0,3,11,10,0,0,0,0,0,0],"split_type":[0,0,0,0,0,0,0,0,0,0,0,0,0,0,0,0,0],"sum_hessian":[1.9393112E5,7.836242E4,1.155687E5,7.789788E4,4.645361E2,4.9694258E4,2.8203629E4,2.9171945E2,1.7281665E2,2.416463E4,4.0389985E3,8.85172E1,8.429945E1,8.270115E3,1.5894515E4,2.0541316E2,3.8335852E3],"tree_param":{"num_deleted":"0","num_feature":"20","num_nodes":"17","size_leaf_vector":"1"}},{"base_weights":[-1.491243E-1,-3.7307796E-1,2.9730787E0,-5.1310205E-1,9.003666E-2,3.3979492E0,5.9106433E-1,-5.212543E-1,5.4055035E-1,2.540939E0,-5.165342E-1,-5.2050763E-1,3.4733331E0,2.0003726E0,-1.4114313E-1,-5.280415E-1,-4.2248118E-1,-1.3934274E-2,2.7404227E0,-5.3095628E-2,3.5733008E0,-5.30325E-1,-4.6949527E-1,-0E0,-5.2481957E-2,3.5032218E0,-5.516373E-2,1.0098584E0,3.8691592E0,-5.2142316E-1,4.32461E0,-5.306661E-2,-4.9004238E-2,1.5023622E-1,-5.298972E-2,8.964535E-2,-4.9027603E-2,-3.057004E-2,4.1509596E-1,3.6671743E-1,-5.218018E-2,-1.18384916E-4,-5.307089E-2,2.6325708E-2,-5.284009E-2,3.2016605E-1,3.664672E-1,3.6972338E-1,-5.2621227E-2,4.4530722E-1,1.6323389E-1,2.7478192E-2,-5.2290875E-2,4.4876537E-1,-9.091517E-3],"categories":[],"categories_nodes":[],"categories_segments":[],"categories_sizes":[],"default_left":[0,0,0,0,0,0,0,0,0,0,0,0,0,0,0,0,0,0,0,0,0,0,0,0,0,0,0,0,0,0,0,0,0,0,0,0,0,0,0,0,0,0,0,0,0,0,0,0,0,0,0,0,0,0,0],"id":17,"left_children":[1,3,5,7,9,11,13,15,17,19,21,23,25,27,29,31,33,35,37,-1,39,41,43,-1,-1,45,-1,47,49,51,53,-1,-1,-1,-1,-1,-1,-1,-1,-1,-1,-1,-1,-1,-1,-1,-1,-1,-1,-1,-1,-1,-1,-1,-1],"loss_changes":[1.4828428E5,1.2831979E4,1.4358414E4,1.3056406E3,6.829937E4,3.562875E3,2.2211443E3,1.0015625E2,1.4249998E3,2.8909914E4,2.2891602E1,5.350838E-1,1.427E3,1.3517969E3,2.409345E3,1.3035156E1,2.0085259E3,4.0567395E2,1.01474634E3,0E0,2.6279922E3,5.5131836E0,3.6189307E2,0E0,0E0,5.442344E2,0E0,2.0026067E3,3.1419873E2,1.9584656E0,8.315796E1,0E0,0E0,0E0,0E0,0E0,0E0,0E0,0E0,0E0,0E0,0E0,0E0,0E0,0E0,0E0,0E0,0E0,0E0,0E0,0E0,0E0,0E0,0E0,0E0],"parents":[2147483647,0,0,1,1,2,2,3,3,4,4,5,5,6,6,7,7,8,8,9,9,10,10,11,11,12,12,13,13,14,14,15,15,16,16,17,17,18,18,20,20,21,21,22,22,25,25,27,27,28,28,29,29,30,30],"right_children":[2,4,6,8,10,12,14,16,18,20,22,24,26,28,30,32,34,36,38,-1,40,42,44,-1,-1,46,-1,48,50,52,54,-1,-1,-1,-1,-1,-1,-1,-1,-1,-1,-1,-1,-1,-1,-1,-1,-1,-1,-1,-1,-1,-1,-1,-1],"split_conditions":[3.3333334E-1,3.0379747E-3,6.85E-1,1.5853886E-1,4.630413E-4,1.7525956E-1,2.547945E-1,2.724671E-4,1.9286498E-3,7.1917806E-4,2.855665E-1,7.5E-5,8.788438E-1,4E-1,5E-1,3.358223E-5,4.630413E-4,3.2474706E-1,3.024144E-1,-5.3095628E-2,5.640612E-4,6.1876496E-4,2.1876873E-1,-0E0,-5.2481957E-2,4E-1,-5.516373E-2,3.9979312E-1,4.997414E-1,2.1484688E-1,2.9770976E-1,-5.306661E-2,-4.9004238E-2,1.5023622E-1,-5.298972E-2,8.964535E-2,-4.9027603E-2,-3.057004E-2,4.1509596E-1,3.6671743E-1,-5.218018E-2,-1.18384916E-4,-5.307089E-2,2.6325708E-2,-5.284009E-2,3.2016605E-1,3.664672E-1,3.6972338E-1,-5.2621227E-2,4.4530722E-1,1.6323389E-1,2.7478192E-2,-5.2290875E-2,4.4876537E-1,-9.091517E-3],"split_indices":[16,7,19,3,11,3,10,7,5,10,16,6,0,16,16,7,11,10,10,0,9,11,10,0,0,16,0,16,16,3,10,0,0,0,0,0,0,0,0,0,0,0,0,0,0,0,0,0,0,0,0,0,0,0,0],"split_type":[0,0,0,0,0,0,0,0,0,0,0,0,0,0,0,0,0,0,0,0,0,0,0,0,0,0,0,0,0,0,0,0,0,0,0,0,0,0,0,0,0,0,0,0,0,0,0,0,0,0,0,0,0,0,0],"sum_hessian":[2.12065E5,1.9787358E5,1.4191426E4,1.5193611E5,4.593747E4,1.2042407E4,2.1490193E3,1.5077105E5,1.1650482E3,9.112414E3,3.6825055E4,2.2695273E2,1.1815454E4,7.338221E2,1.4151973E3,1.4106408E5,9.70698E3,9.31916E2,2.3313226E2,2.2922075E3,6.820206E3,2.8452291E4,8.372766E3,1.8040006E0,2.2514873E2,1.1728742E4,8.6712135E1,4.8180106E2,2.5202106E2,1.3058743E3,1.0932293E2,1.3191352E5,9.150552E3,5.1144833E2,9.195532E3,3.191468E2,6.127692E2,7.41702E1,1.5896207E2,6.667692E3,1.5251431E2,2.1578396E1,2.843071E4,6.2185266E2,7.750913E3,4.105366E3,7.6233755E3,1.7432639E2,3.0747467E2,1.9810213E2,5.391893E1,1.1199917E0,1.3047543E3,1.0550763E2,3.815303E0],"tree_param":{"num_deleted":"0","num_feature":"20","num_nodes":"55","size_leaf_vector":"1"}},{"base_weights":[-4.965427E-1,-5.1765525E-1,-2.3328452E-1,-5.2654636E-1,-3.6391616E-1,3.658046E0,-2.9994565E-1,-5.2868015E-1,-4.2408478E-1,3.5074573E0,-5.038299E-1,3.7476677E-1,-3.1121645E-2,-5.298078E-2,1.0638953E-1,-5.201104E-1,-5.301338E-2,1.4400905E0,-5.063181E-1,3.7670538E-1,-4.6322662E-2,-5.260763E-1,-1.0768685E-1,-5.269092E-1,3.5474696E0,-5.2206572E-2,-1.7192489E-2,-5.16691E-2,4.328901E-1,-5.287078E-2,-4.664359E-2,-4.4275057E-2,-5.2991983E-2,-5.075096E-2,3.8486418E-1,-5.2965578E-2,7.590369E-2,3.7939423E-1,-5.1289238E-2],"categories":[],"categories_nodes":[],"categories_segments":[],"categories_sizes":[],"default_left":[0,0,0,0,0,0,0,0,0,0,0,0,0,0,0,0,0,0,0,0,0,0,0,0,0,0,0,0,0,0,0,0,0,0,0,0,0,0,0],"id":18,"left_children":[1,3,5,7,9,11,13,15,17,19,21,-1,-1,-1,23,25,-1,27,29,-1,-1,31,33,35,37,-1,-1,-1,-1,-1,-1,-1,-1,-1,-1,-1,-1,-1,-1],"loss_changes":[1.0842617E3,2.4616406E2,3.76101E3,3.641797E1,5.3580806E3,9.091504E1,1.3317272E3,1.0078125E0,5.3745044E2,3.6078857E2,8.36897E1,0E0,0E0,0E0,1.1230879E4,1.6098145E1,0E0,8.4362006E2,2.003662E0,0E0,0E0,1.9384766E0,8.109368E2,1.6060791E1,8.071992E2,0E0,0E0,0E0,0E0,0E0,0E0,0E0,0E0,0E0,0E0,0E0,0E0,0E0,0E0],"parents":[2147483647,0,0,1,1,2,2,3,3,4,4,5,5,6,6,7,7,8,8,9,9,10,10,14,14,15,15,17,17,18,18,21,21,22,22,23,23,24,24],"right_children":[2,4,6,8,10,12,14,16,18,20,22,-1,-1,-1,24,26,-1,28,30,-1,-1,32,34,36,38,-1,-1,-1,-1,-1,-1,-1,-1,-1,-1,-1,-1,-1,-1],"split_conditions":[2.1484688E-1,9.0833336E-2,1.5866448E-1,1.1929494E-1,1.6676996E-8,2.1538751E-1,1E0,8.0580176E-5,1.0844854E-1,8.0580176E-5,6.639131E-1,3.7476677E-1,-3.1121645E-2,-5.298078E-2,4.1108847E-2,6.7190245E-2,-5.301338E-2,8.344077E-2,1.4848079E-1,3.7670538E-1,-4.6322662E-2,5.4903608E-2,2.9634643E-2,2.5980134E-2,1.3083333E-1,-5.2206572E-2,-1.7192489E-2,-5.16691E-2,4.328901E-1,-5.287078E-2,-4.664359E-2,-4.4275057E-2,-5.2991983E-2,-5.075096E-2,3.8486418E-1,-5.2965578E-2,7.590369E-2,3.7939423E-1,-5.1289238E-2],"split_indices":[3,19,16,3,4,3,14,9,1,9,4,0,0,0,5,19,0,9,3,0,0,4,11,8,17,0,0,0,0,0,0,0,0,0,0,0,0,0,0],"split_type":[0,0,0,0,0,0,0,0,0,0,0,0,0,0,0,0,0,0,0,0,0,0,0,0,0,0,0,0,0,0,0,0,0,0,0,0,0,0,0],"sum_hessian":[1.9518745E5,1.8069258E5,1.4494866E4,1.7080634E5,9.886242E3,2.4218379E2,1.4252683E4,1.6730888E5,3.4974697E3,3.430285E2,9.543213E3,2.3706866E2,5.115124E0,9.103495E3,5.1491875E3,2.4417568E4,1.428913E5,1.4611151E2,3.3513582E3,3.221926E2,2.0835915E1,9.03397E3,5.092439E2,4.3501343E3,7.990532E2,2.4278795E4,1.387742E2,8.798362E1,5.81279E1,2.1226558E3,1.2287023E3,4.1430902E2,8.61966E3,4.6420193E2,4.504197E1,4.342425E3,7.7096114E0,7.5356464E2,4.5488605E1],"tree_param":{"num_deleted":"0","num_feature":"20","num_nodes":"39","size_leaf_vector":"1"}},{"base_weights":[1.1115701E-1,-2.4759902E-1,3.2151203E0,7.9977554E-1,-4.3545085E-1,-2.598956E-1,3.4646063E0,2.6574798E0,3.3704903E-2,-4.937537E-1,7.640966E-1,4.477488E0,-5.3179752E-2,-5.3116836E-2,3.5593553E0,-5.280081E-2,2.7754583E0,-4.3368727E-1,8.393564E-1,-5.2425283E-1,8.57881E-1,2.8048608E0,-1.2311528E-1,-3.8696844E-2,5.022577E0,3.5952108E0,-2.6778975E-1,-5.290365E-2,2.894784E-1,-5.329121E-2,1.192266E-2,2.4995069E-1,-3.2959037E-2,-5.247987E-2,9.376335E-3,-4.9755346E-2,3.1063783E-1,1.1849888E-1,3.9515594E-1,5.757385E-1,-1.712511E-2,5.81873E-1,3.7795803E-1,3.630981E-1,2.5681326E-1,-4.064795E-2,2.5517634E-1],"categories":[],"categories_nodes":[],"categories_segments":[],"categories_sizes":[],"default_left":[0,0,0,0,0,0,0,0,0,0,0,0,0,0,0,0,0,0,0,0,0,0,0,0,0,0,0,0,0,0,0,0,0,0,0,0,0,0,0,0,0,0,0,0,0,0,0],"id":19,"left_children":[1,3,5,7,9,11,13,15,17,19,21,23,-1,-1,25,-1,27,29,31,33,35,37,39,-1,41,43,45,-1,-1,-1,-1,-1,-1,-1,-1,-1,-1,-1,-1,-1,-1,-1,-1,-1,-1,-1,-1],"loss_changes":[2.5171383E5,3.9866855E4,2.0307156E4,4.385229E4,1.2016506E4,2.0257137E3,8.277906E3,3.3852852E3,8.217392E3,6.7551484E3,1.4421548E4,2.3253345E2,0E0,0E0,2.932625E3,0E0,3.4253203E3,7.579812E2,1.5551453E4,5.4375E1,1.1024786E4,4.471039E3,1.5708982E3,0E0,2.7407837E1,7.551875E2,7.9152466E1,0E0,0E0,0E0,0E0,0E0,0E0,0E0,0E0,0E0,0E0,0E0,0E0,0E0,0E0,0E0,0E0,0E0,0E0,0E0,0E0],"parents":[2147483647,0,0,1,1,2,2,3,3,4,4,5,5,6,6,7,7,8,8,9,9,10,10,11,11,14,14,16,16,17,17,18,18,19,19,20,20,21,21,22,22,24,24,25,25,26,26],"right_children":[2,4,6,8,10,12,14,16,18,20,22,24,-1,-1,26,-1,28,30,32,34,36,38,40,-1,42,44,46,-1,-1,-1,-1,-1,-1,-1,-1,-1,-1,-1,-1,-1,-1,-1,-1,-1,-1,-1,-1],"split_conditions":[3.1913787E-1,8.0580176E-5,2.2161308E-1,1.9999999E-7,1.8887149E-1,5.640612E-4,4.3416667E-1,1E0,1.5166667E-6,1E0,3.3333334E-1,8.409417E-1,-5.3179752E-2,-5.3116836E-2,5E-1,-5.280081E-2,8.333333E-9,4.1666667E-8,1.9433333E-5,1.7525956E-1,1.8119239E-5,3.3316094E-1,7.025E-5,-3.8696844E-2,4.9416667E-1,4E-1,3.6674416E-1,-5.290365E-2,2.894784E-1,-5.329121E-2,1.192266E-2,2.4995069E-1,-3.2959037E-2,-5.247987E-2,9.376335E-3,-4.9755346E-2,3.1063783E-1,1.1849888E-1,3.9515594E-1,5.757385E-1,-1.712511E-2,5.81873E-1,3.7795803E-1,3.630981E-1,2.5681326E-1,-4.064795E-2,2.5517634E-1],"split_indices":[7,9,2,0,3,9,17,15,6,13,2,0,0,0,2,0,6,6,8,3,4,2,0,0,17,2,4,0,0,0,0,0,0,0,0,0,0,0,0,0,0,0,0,0,0,0,0],"split_type":[0,0,0,0,0,0,0,0,0,0,0,0,0,0,0,0,0,0,0,0,0,0,0,0,0,0,0,0,0,0,0,0,0,0,0,0,0,0,0,0,0,0,0,0,0,0,0],"sum_hessian":[2.2603833E5,2.0262106E5,2.341726E4,3.0812986E4,1.7180808E5,1.5684667E3,2.1848793E4,8.994919E3,2.1818068E4,1.638461E5,7.961988E3,8.335678E1,1.4851099E3,5.0574826E2,2.1343045E4,3.208412E2,8.674077E3,1.3807856E4,8.0102124E3,1.6023211E5,3.6139805E3,2.411439E3,5.550549E3,8.365412E0,7.499137E1,2.1145193E4,1.9785168E2,3.019201E2,8.372157E3,1.1707778E4,2.1000776E3,3.3089531E3,4.7012593E3,1.6009181E5,1.4029878E2,2.2555996E3,1.3583809E3,1.0013686E3,1.4100703E3,4.305572E1,5.507493E3,4.097912E1,3.4012257E1,2.042818E4,7.1701447E2,1.9037636E2,7.475335E0],"tree_param":{"num_deleted":"0","num_feature":"20","num_nodes":"47","size_leaf_vector":"1"}},{"base_weights":[-5.1240164E-1,-5.145988E-1,7.651637E-1,-5.256463E-1,-4.008119E-1,-5.2303355E-2,3.2031732E0,-5.2965146E-2,-5.043149E-1,3.2015867E0,-5.0502443E-1,-4.4503238E-2,3.812607E0,5.8536154E-1,-5.180872E-1,3.6107683E0,-5.0035864E-2,3.6961567E-1,-5.2991387E-2,-1.3782091E-3,3.857377E-1,-2.8511075E-2,3.764859E-1,5.2875288E-2,-5.2571382E-2,3.6246338E-1,-7.9199085E-3,-1.4732596E-2,4.7569638E-1],"categories":[],"categories_nodes":[],"categories_segments":[],"categories_sizes":[],"default_left":[0,0,0,0,0,0,0,0,0,0,0,0,0,0,0,0,0,0,0,0,0,0,0,0,0,0,0,0,0],"id":20,"left_children":[1,3,5,7,9,-1,11,-1,13,15,17,-1,19,21,23,25,-1,27,-1,-1,-1,-1,-1,-1,-1,-1,-1,-1,-1],"loss_changes":[5.4710547E2,2.4340625E2,1.055647E3,1.4082031E1,6.4629775E3,0E0,2.6320972E2,0E0,4.216997E2,7.383423E2,3.6463867E2,0E0,1.9126099E1,9.745706E2,2.2180664E2,2.466504E1,0E0,1.0549008E3,0E0,0E0,0E0,0E0,0E0,0E0,0E0,0E0,0E0,0E0,0E0],"parents":[2147483647,0,0,1,1,2,2,3,3,4,4,6,6,8,8,9,9,10,10,12,12,13,13,14,14,15,15,17,17],"right_children":[2,4,6,8,10,-1,12,-1,14,16,18,-1,20,22,24,26,-1,28,-1,-1,-1,-1,-1,-1,-1,-1,-1,-1,-1],"split_conditions":[6.335478E-1,1.4032975E-1,1E0,5.2544948E-2,2.4174053E-4,-5.2303355E-2,8.125E-1,-5.2965146E-2,8.333333E-9,6.7190245E-2,4.0226418E-4,-4.4503238E-2,9.6696215E-3,1.4993168E-1,4.630413E-4,1.8042397E-1,-5.0035864E-2,3.1432446E-2,-5.2991387E-2,-1.3782091E-3,3.857377E-1,-2.8511075E-2,3.764859E-1,5.2875288E-2,-5.2571382E-2,3.6246338E-1,-7.9199085E-3,-1.4732596E-2,4.7569638E-1],"split_indices":[7,4,14,10,9,0,17,0,8,19,2,0,9,11,11,4,0,11,0,0,0,0,0,0,0,0,0,0,0],"split_type":[0,0,0,0,0,0,0,0,0,0,0,0,0,0,0,0,0,0,0,0,0,0,0,0,0,0,0,0,0],"sum_hessian":[1.9466542E5,1.9433278E5,3.326315E2,1.7712427E5,1.7208525E4,2.185302E2,1.141013E2,1.49065E5,2.8059258E4,4.8201703E2,1.672651E4,1.6292126E1,9.780918E1,3.4872314E2,2.7710535E4,4.342077E2,4.78093E1,4.6148895E2,1.62650205E4,1.0180056E0,9.6791176E1,2.750769E2,7.364625E1,1.9895877E2,2.7511576E4,4.327525E2,1.4551995E0,4.144724E2,4.701656E1],"tree_param":{"num_deleted":"0","num_feature":"20","num_nodes":"29","size_leaf_vector":"1"}},{"base_weights":[-5.111842E-1,-5.146271E-1,6.4548874E-1,-4.7111052E-1,-5.294404E-2,3.5456896E0,-5.2636992E-2,-4.9530765E-1,1.9397502E0,-4.1387465E-2,3.8446558E-1,-4.9696013E-1,5.989396E-1,3.767992E0,-2.5735326E-2,-5.2168388E-2,-3.304799E-2,-3.455322E-2,3.8794267E-1,-5.2245487E-2,8.160686E-2],"categories":[],"categories_nodes":[],"categories_segments":[],"categories_sizes":[],"default_left":[0,0,0,0,0,0,0,0,0,0,0,0,0,0,0,0,0,0,0,0,0],"id":21,"left_children":[1,3,5,7,-1,9,-1,11,13,-1,-1,15,-1,17,19,-1,-1,-1,-1,-1,-1],"loss_changes":[7.7496094E2,1.2398047E2,1.9680581E3,2.8750322E3,0E0,2.0209546E2,0E0,5.258779E2,1.7618604E3,0E0,0E0,1.9994727E2,0E0,1.2081958E2,1.00165794E2,0E0,0E0,0E0,0E0,0E0,0E0],"parents":[2147483647,0,0,1,1,2,2,3,3,5,5,7,7,8,8,11,11,13,13,14,14],"right_children":[2,4,6,8,-1,10,-1,12,14,-1,-1,16,-1,18,20,-1,-1,-1,-1,-1,-1],"split_conditions":[6.639131E-1,4.0226418E-4,1.7979452E-3,1.5956894E-1,-5.294404E-2,7.321326E-4,-5.2636992E-2,3.6674416E-1,5.438214E-2,-4.1387465E-2,3.8446558E-1,1E0,5.989396E-1,4.558229E-2,8.334743E-3,-5.2168388E-2,-3.304799E-2,-3.455322E-2,3.8794267E-1,-5.2245487E-2,8.160686E-2],"split_indices":[4,16,10,7,0,11,0,4,19,0,0,14,0,19,11,0,0,0,0,0,0],"split_type":[0,0,0,0,0,0,0,0,0,0,0,0,0,0,0,0,0,0,0,0,0],"sum_hessian":[1.944517E5,1.9387617E5,5.755322E2,4.9261555E4,1.4461461E5,1.6458374E2,4.109485E2,4.877382E4,4.8773227E2,1.1383069E1,1.5320067E2,4.876332E4,1.0502334E1,2.518699E2,2.3586237E2,4.245162E4,6.3116997E3,6.4139986E0,2.454559E2,1.491857E2,8.667667E1],"tree_param":{"num_deleted":"0","num_feature":"20","num_nodes":"21","size_leaf_vector":"1"}},{"base_weights":[-5.0432813E-1,-4.5718884E-1,-5.300464E-2,-4.9274555E-1,3.3544292E0,-5.2958935E-2,-1.0251311E-2,-5.12315E-2,3.9556953E-1,3.7175562E0,-5.296976E-2,3.837684E-1,-4.785197E-2],"categories":[],"categories_nodes":[],"categories_segments":[],"categories_sizes":[],"default_left":[0,0,0,0,0,0,0,0,0,0,0,0,0],"id":22,"left_children":[1,3,-1,5,7,-1,9,-1,-1,11,-1,-1,-1],"loss_changes":[2.3533594E2,9.329986E3,0E0,1.2119863E3,1.485022E3,0E0,9.376241E3,0E0,0E0,3.038506E2,0E0,0E0,0E0],"parents":[2147483647,0,0,1,1,3,3,4,4,6,6,9,9],"right_children":[2,4,-1,6,8,-1,10,-1,-1,12,-1,-1,-1],"split_conditions":[1.4907332E-3,1.775516E-3,-5.300464E-2,1.6500399E-3,1E0,-5.2958935E-2,9.26672E-4,-5.12315E-2,3.9556953E-1,8.066666E-6,-5.296976E-2,3.837684E-1,-4.785197E-2],"split_indices":[9,3,0,11,14,0,9,0,0,0,0,0,0],"split_type":[0,0,0,0,0,0,0,0,0,0,0,0,0],"sum_hessian":[1.9492003E5,6.882565E4,1.2609438E5,6.81914E4,6.342513E2,6.3352504E4,4.8388984E3,8.5279945E1,5.489713E2,5.9018176E2,4.248717E3,5.7403784E2,1.614393E1],"tree_param":{"num_deleted":"0","num_feature":"20","num_nodes":"13","size_leaf_vector":"1"}},{"base_weights":[-5.300365E-1],"categories":[],"categories_nodes":[],"categories_segments":[],"categories_sizes":[],"default_left":[0],"id":23,"left_children":[-1],"loss_changes":[0E0],"parents":[2147483647],"right_children":[-1],"split_conditions":[-5.300365E-2],"split_indices":[0],"split_type":[0],"sum_hessian":[1.9385072E5],"tree_param":{"num_deleted":"0","num_feature":"20","num_nodes":"1","size_leaf_vector":"1"}},{"base_weights":[-5.2994406E-1],"categories":[],"categories_nodes":[],"categories_segments":[],"categories_sizes":[],"default_left":[0],"id":24,"left_children":[-1],"loss_changes":[0E0],"parents":[2147483647],"right_children":[-1],"split_conditions":[-5.2994408E-2],"split_indices":[0],"split_type":[0],"sum_hessian":[1.9383233E5],"tree_param":{"num_deleted":"0","num_feature":"20","num_nodes":"1","size_leaf_vector":"1"}},{"base_weights":[-6.754331E-2,1.3021014E0,-5.3135354E-2,-5.0956297E-1,3.5698538E0,-5.195765E-1,2.5608283E-1,3.6508393E0,-2.2630426E-1,-5.3186864E-2,-4.5693362E-1,3.8892365E-1,-5.2762713E-2,-4.997165E-2,3.658723E-1,-5.183858E-1,3.659714E-1,1.0339804E-1,-5.0718468E-2,-5.288552E-2,7.35736E-2],"categories":[],"categories_nodes":[],"categories_segments":[],"categories_sizes":[],"default_left":[0,0,0,0,0,0,0,0,0,0,0,0,0,0,0,0,0,0,0,0,0],"id":25,"left_children":[1,3,-1,5,7,9,11,13,15,-1,17,-1,-1,-1,-1,19,-1,-1,-1,-1,-1],"loss_changes":[1.377591E5,2.2538488E5,0E0,2.3421631E2,7.4933438E3,2.2200195E1,1.1287968E3,7.8578125E2,5.8182153E2,0E0,3.723285E2,0E0,0E0,0E0,0E0,6.935272E0,0E0,0E0,0E0,0E0,0E0],"parents":[2147483647,0,0,1,1,3,3,4,4,5,5,6,6,7,7,8,8,10,10,15,15],"right_children":[2,4,-1,6,8,10,12,14,16,-1,18,-1,-1,-1,-1,20,-1,-1,-1,-1,-1],"split_conditions":[1.0787671E-3,1.0343936E-3,-5.3135354E-2,8.390411E-4,6.559999E-5,2.1730662E-6,2.1428572E-7,1E0,1.2499961E-1,-5.3186864E-2,7.4999994E-6,3.8892365E-1,-5.2762713E-2,-4.997165E-2,3.658723E-1,1.1876371E-3,3.659714E-1,1.0339804E-1,-5.0718468E-2,-5.288552E-2,7.35736E-2],"split_indices":[10,16,0,10,5,7,12,14,4,0,5,0,0,0,0,16,0,0,0,0,0],"split_type":[0,0,0,0,0,0,0,0,0,0,0,0,0,0,0,0,0,0,0,0,0],"sum_hessian":[2.1685272E5,5.4856176E4,1.6199655E5,3.049535E4,2.4360826E4,3.0102943E4,3.924076E2,2.3852184E4,5.0864346E2,2.5145742E4,4.957201E3,6.833416E1,3.2407343E2,4.486204E1,2.380732E4,4.7481705E2,3.3826412E1,1.6003287E2,4.7971685E3,4.7242853E2,2.3885174E0],"tree_param":{"num_deleted":"0","num_feature":"20","num_nodes":"21","size_leaf_vector":"1"}},{"base_weights":[-5.110661E-1,-4.572537E-1,-5.190298E-1,-3.6368415E-1,-5.2792E-2,-5.299351E-1,-4.7505438E-1,-3.013402E-1,-5.242775E-2,-5.2994978E-2,-0E0,3.594516E0,-5.298314E-1,-4.1863337E-1,1.1226596E-2,-2.2282392E-2,2.2634776E-2,-4.8410814E-2,3.9094129E0,-2.7286348E-1,-5.3007107E-2,-4.3417677E-2,-2.708075E-2,2.5052024E-2,-1.4377134E-2,3.960297E-1,-2.9937064E-2,1.6525438E-2,-4.7211304E-2],"categories":[],"categories_nodes":[],"categories_segments":[],"categories_sizes":[],"default_left":[0,0,0,0,0,0,0,0,0,0,0,0,0,0,0,0,0,0,0,0,0,0,0,0,0,0,0,0,0],"id":26,"left_children":[1,3,5,7,-1,9,11,13,-1,-1,15,17,19,21,23,-1,-1,-1,25,27,-1,-1,-1,-1,-1,-1,-1,-1,-1],"loss_changes":[8.2375E1,1.650835E2,8.021484E1,1.0745984E2,0E0,8.59375E-1,7.5105757E3,2.8584576E2,0E0,0E0,4.2428592E-1,5.802119E2,1.3574219E0,1.2431946E1,7.900328E1,0E0,0E0,0E0,9.323633E1,3.5430906E0,0E0,0E0,0E0,0E0,0E0,0E0,0E0,0E0,0E0],"parents":[2147483647,0,0,1,1,2,2,3,3,5,5,6,6,7,7,10,10,11,11,12,12,13,13,14,14,18,18,19,19],"right_children":[2,4,6,8,-1,10,12,14,-1,-1,16,18,20,22,24,-1,-1,-1,26,28,-1,-1,-1,-1,-1,-1,-1,-1,-1],"split_conditions":[5.9931504E-4,8.333333E-9,6.78154E-2,1.1666666E-6,-5.2792E-2,8.416667E-1,2.5671247E-2,6.9166657E-7,-5.242775E-2,-5.2994978E-2,7.318083E-4,7.8076595E-3,3.7137464E-2,6.416666E-7,7.916666E-7,-2.2282392E-2,2.2634776E-2,-4.8410814E-2,3.907534E-2,3.5359588E-2,-5.3007107E-2,-4.3417677E-2,-2.708075E-2,2.5052024E-2,-1.4377134E-2,3.960297E-1,-2.9937064E-2,1.6525438E-2,-4.7211304E-2],"split_indices":[10,6,6,0,0,5,5,5,0,0,8,7,5,5,0,0,0,0,10,10,0,0,0,0,0,0,0,0,0],"split_type":[0,0,0,0,0,0,0,0,0,0,0,0,0,0,0,0,0,0,0,0,0,0,0,0,0,0,0,0,0],"sum_hessian":[1.9444744E5,2.5089963E4,1.6935747E5,1.0803873E4,1.428609E4,1.3567772E5,3.3679758E4,7.78898E3,3.0148933E3,1.3567328E5,4.437703E0,4.454757E2,3.323428E4,5.66432E3,2.1246602E3,3.0577996E0,1.3799036E0,3.1737755E1,4.1373795E2,3.5042576E1,3.319924E4,5.118835E3,5.454848E2,8.3599786E2,1.2886624E3,4.0902966E2,4.708287E0,1.0276973E1,2.4765604E1],"tree_param":{"num_deleted":"0","num_feature":"20","num_nodes":"29","size_leaf_vector":"1"}},{"base_weights":[-5.2515703E-1,-4.947108E-1,-5.2957386E-2,-5.26098E-2,-1.6668802E-1,1.005524E-1,-5.2840978E-2,1.5889956E-2,2.9538852E-1,5.2398196E-3,-5.041006E-2,7.4857675E-2,1.9664971E-2],"categories":[],"categories_nodes":[],"categories_segments":[],"categories_sizes":[],"default_left":[0,0,0,0,0,0,0,0,0,0,0,0,0],"id":27,"left_children":[1,3,-1,-1,5,7,-1,9,11,-1,-1,-1,-1],"loss_changes":[2.5046875E1,2.5292285E2,0E0,0E0,2.0854716E2,2.0284382E1,0E0,1.6306837E1,1.5951279E1,0E0,0E0,0E0,0E0],"parents":[2147483647,0,0,1,1,4,4,5,5,7,7,8,8],"right_children":[2,4,-1,-1,6,8,-1,10,12,-1,-1,-1,-1],"split_conditions":[8.0580176E-5,4.156856E-2,-5.2957386E-2,-5.26098E-2,5.0045285E-2,4.7266375E-2,-5.2840978E-2,4.7281068E-2,4.8003633E-2,5.2398196E-3,-5.041006E-2,7.4857675E-2,1.9664971E-2],"split_indices":[9,8,0,0,0,8,0,6,6,0,0,0,0],"split_type":[0,0,0,0,0,0,0,0,0,0,0,0,0],"sum_hessian":[1.9394872E5,2.461446E4,1.6933425E5,2.2462389E4,2.1520718E3,1.237711E3,9.143606E2,8.6609485E2,3.7161624E2,8.11855E2,5.4239864E1,6.32208E1,3.0839545E2],"tree_param":{"num_deleted":"0","num_feature":"20","num_nodes":"13","size_leaf_vector":"1"}},{"base_weights":[-5.299954E-1],"categories":[],"categories_nodes":[],"categories_segments":[],"categories_sizes":[],"default_left":[0],"id":28,"left_children":[-1],"loss_changes":[0E0],"parents":[2147483647],"right_children":[-1],"split_conditions":[-5.2999537E-2],"split_indices":[0],"split_type":[0],"sum_hessian":[1.9386195E5],"tree_param":{"num_deleted":"0","num_feature":"20","num_nodes":"1","size_leaf_vector":"1"}},{"base_weights":[-5.279159E-1,-5.1359093E-1,-5.2998256E-2,-5.2930366E-2,-2.6095098E-1,-4.4291772E-2,-4.42824E-1,1.6309412E-1,-5.9681457E-2,-3.568897E-1,-5.2612375E-2,-7.917218E-3,5.4314326E-2,-3.8606133E-2,5.8513995E-2],"categories":[],"categories_nodes":[],"categories_segments":[],"categories_sizes":[],"default_left":[0,0,0,0,0,0,0,0,0,0,0,0,0,0,0],"id":29,"left_children":[1,3,-1,-1,5,7,9,-1,11,13,-1,-1,-1,-1,-1],"loss_changes":[4.6757812E0,9.676416E1,0E0,0E0,5.6576866E1,1.6475975E1,4.7878113E0,0E0,7.58739E0,1.1195286E1,0E0,0E0,0E0,0E0,0E0],"parents":[2147483647,0,0,1,1,4,4,5,5,6,6,8,8,9,9],"right_children":[2,4,-1,-1,6,8,10,-1,12,14,-1,-1,-1,-1,-1],"split_conditions":[8.0580176E-5,4.195664E-2,-5.2998256E-2,-5.2930366E-2,4.7281068E-2,4.2023733E-2,5.0045285E-2,1.6309412E-1,4.6850514E-2,4.060535E-2,-5.2612375E-2,-7.917218E-3,5.4314326E-2,-3.8606133E-2,5.8513995E-2],"split_indices":[9,7,0,0,6,8,0,0,7,4,0,0,0,0,0],"split_type":[0,0,0,0,0,0,0,0,0,0,0,0,0,0,0],"sum_hessian":[1.9392055E5,2.4542871E4,1.6937767E5,2.3101896E4,1.4409747E3,6.599887E2,7.809861E2,3.8009155E0,6.561878E2,3.925706E2,3.884155E2,6.3812256E2,1.806523E1,3.824388E2,1.0131779E1],"tree_param":{"num_deleted":"0","num_feature":"20","num_nodes":"15","size_leaf_vector":"1"}},{"base_weights":[1.7174556E0,1.8414406E0,-5.202083E-1,1.470621E0,2.0152016E0,1.1960928E0,-5.554528E-1,1.7391468E0,2.8752643E-1,2.0175588E0,1.2222061E0,2.0703585E-1,6.362299E-2,1.5014735E0,-5.566122E-1,1.8424913E0,7.781869E-1,-2.8546053E-1,2.041394E0,2.0326533E0,1.9799138E0,-5.4106706E-1,1.7760478E0,-3.2675162E-1,1.6480209E0,1.834867E-1,-2.0909125E-2,-5.571668E-1,5.5077374E-1,1.4695278E-1,1.9353287E-1,1.5909368E-1,-1.8450683E-2,7.642216E-2,-5.317817E-2,2.1290664E-1,-5.1628567E-2,2.0330124E-1,-4.057111E-3,-5.71418E-2,1.9997446E-1,9.023917E-2,-5.581689E-2,-5.014599E-2,2.1742669E-1,1.7094328E-1,-4.6405792E-2,2.099462E-1,-4.2709317E-2,2.1414431E-4,-5.5805754E-2,-4.3808836E-2,2.0682852E-1],"categories":[],"categories_nodes":[],"categories_segments":[],"categories_sizes":[],"default_left":[0,0,0,0,0,0,0,0,0,0,0,0,0,0,0,0,0,0,0,0,0,0,0,0,0,0,0,0,0,0,0,0,0,0,0,0,0,0,0,0,0,0,0,0,0,0,0,0,0,0,0,0,0],"id":30,"left_children":[1,3,5,7,9,11,13,15,17,19,21,-1,23,25,27,29,31,33,35,37,39,41,43,45,47,-1,-1,49,51,-1,-1,-1,-1,-1,-1,-1,-1,-1,-1,-1,-1,-1,-1,-1,-1,-1,-1,-1,-1,-1,-1,-1,-1],"loss_changes":[1.704555E5,3.7501375E4,1.9521895E3,5.9009375E4,7.345E2,6.416327E2,7.65791E1,1.5030281E4,3.4535484E4,2.145E2,1.155432E3,0E0,1.7815868E2,1.1904903E1,2.0020508E1,4.725375E3,1.1506038E4,6.698172E3,1.9006094E3,2.11125E2,5.7302188E3,7.8335495E0,8.184114E2,6.534195E1,5.5998413E1,0E0,0E0,1.6012695E1,2.7190987E1,0E0,0E0,0E0,0E0,0E0,0E0,0E0,0E0,0E0,0E0,0E0,0E0,0E0,0E0,0E0,0E0,0E0,0E0,0E0,0E0,0E0,0E0,0E0,0E0],"parents":[2147483647,0,0,1,1,2,2,3,3,4,4,5,5,6,6,7,7,8,8,9,9,10,10,12,12,13,13,14,14,15,15,16,16,17,17,18,18,19,19,20,20,21,21,22,22,23,23,24,24,27,27,28,28],"right_children":[2,4,6,8,10,12,14,16,18,20,22,-1,24,26,28,30,32,34,36,38,40,42,44,46,48,-1,-1,50,52,-1,-1,-1,-1,-1,-1,-1,-1,-1,-1,-1,-1,-1,-1,-1,-1,-1,-1,-1,-1,-1,-1,-1,-1],"split_conditions":[1.8887149E-1,9.26672E-4,2.498707E-1,4.8808838E-4,1.5853886E-1,2.0124493E-2,2.4079625E-1,8.41255E-3,1.7889998E-4,1E0,1E0,2.0703585E-1,1.5713134E-1,4.9446058E-2,9.916667E-1,1.7499998E-7,2.4174053E-4,1E0,3.6674416E-1,1.3206838E-1,1.7727639E-3,7.4659437E-7,3.1858333E-4,2.1414328E-1,1E0,1.834867E-1,-2.0909125E-2,2.2242704E-1,1E0,1.4695278E-1,1.9353287E-1,1.5909368E-1,-1.8450683E-2,7.642216E-2,-5.317817E-2,2.1290664E-1,-5.1628567E-2,2.0330124E-1,-4.057111E-3,-5.71418E-2,1.9997446E-1,9.023917E-2,-5.581689E-2,-5.014599E-2,2.1742669E-1,1.7094328E-1,-4.6405792E-2,2.099462E-1,-4.2709317E-2,2.1414431E-4,-5.5805754E-2,-4.3808836E-2,2.0682852E-1],"split_indices":[3,9,2,11,3,4,11,8,5,14,14,0,9,6,6,5,9,14,4,3,9,4,6,3,13,0,0,1,14,0,0,0,0,0,0,0,0,0,0,0,0,0,0,0,0,0,0,0,0,0,0,0,0],"split_type":[0,0,0,0,0,0,0,0,0,0,0,0,0,0,0,0,0,0,0,0,0,0,0,0,0,0,0,0,0,0,0,0,0,0,0,0,0,0,0,0,0,0,0,0,0,0,0,0,0,0,0,0,0],"sum_hessian":[6.143834E5,5.8212925E5,3.2254137E4,1.857487E5,3.9638053E5,6.474054E2,3.160673E4,1.5138714E5,3.436157E4,3.95202E5,1.1785482E3,3.6416922E2,2.8323618E2,1.6104267E1,3.1590627E4,1.3668525E5,1.4701879E4,2.5901094E4,8.460475E3,2.8200622E5,1.1319579E5,2.8149432E2,8.9705396E2,2.2826634E2,5.4969837E1,1.3600467E1,2.5037997E0,3.1576258E4,1.4369151E1,2.7250111E4,1.0943515E5,7.9713315E3,6.730547E3,4.9216323E3,2.0979463E4,8.1805903E3,2.798848E2,2.8195766E5,4.855212E1,8.724264E2,1.1232337E5,1.7414526E0,2.7975287E2,1.3324136E2,7.6381256E2,1.27436285E1,2.1552272E2,4.532653E1,9.643306E0,4.9308884E1,3.152695E4,9.361812E0,5.0073395E0],"tree_param":{"num_deleted":"0","num_feature":"20","num_nodes":"53","size_leaf_vector":"1"}},{"base_weights":[-5.2102923E-1,-5.1076996E-1,-5.2800227E-2,-5.161588E-1,3.1997114E-1,-5.2810382E-2,-4.950955E-1,-5.2253913E-2,1.5222356E0,-5.06373E-1,-4.1769534E-1,2.8977126E-1,-5.089972E-2,-4.6764802E-2,-5.261174E-2,1.0070882E-1,-5.1094692E-2],"categories":[],"categories_nodes":[],"categories_segments":[],"categories_sizes":[],"default_left":[0,0,0,0,0,0,0,0,0,0,0,0,0,0,0,0,0],"id":31,"left_children":[1,3,-1,5,7,-1,9,-1,11,13,15,-1,-1,-1,-1,-1,-1],"loss_changes":[1.19765625E1,3.3087695E2,0E0,1.7417969E1,4.8461554E2,0E0,2.2322266E1,0E0,5.546424E2,1.6742676E1,4.5228394E2,0E0,0E0,0E0,0E0,0E0,0E0],"parents":[2147483647,0,0,1,1,3,3,4,4,6,6,8,8,9,9,10,10],"right_children":[2,4,-1,6,8,-1,10,-1,12,14,16,-1,-1,-1,-1,-1,-1],"split_conditions":[7.9303505E-3,7.585553E-3,-5.2800227E-2,1.0343936E-3,8.549118E-3,-5.2810382E-2,1.5769583E-3,-5.2253913E-2,6.605223E-3,2.1428572E-7,8.390411E-4,2.8977126E-1,-5.089972E-2,-4.6764802E-2,-5.261174E-2,1.0070882E-1,-5.1094692E-2],"split_indices":[2,2,0,2,3,0,8,0,1,12,10,0,0,0,0,0,0],"split_type":[0,0,0,0,0,0,0,0,0,0,0,0,0,0,0,0,0],"sum_hessian":[1.8219081E5,7.381207E4,1.0837874E5,7.3337695E4,4.7437006E2,4.675257E4,2.6585129E4,2.793353E2,1.9503477E2,2.3188879E4,3.39625E3,1.1592655E2,7.910822E1,7.855825E3,1.5333053E4,2.0709544E2,3.1891545E3],"tree_param":{"num_deleted":"0","num_feature":"20","num_nodes":"17","size_leaf_vector":"1"}},{"base_weights":[-1.4225203E-1,-3.6501208E-1,2.1919694E0,-5.095115E-1,8.5926905E-2,2.4282172E0,5.335086E-1,-5.1840526E-1,5.1040685E-1,1.9405826E0,-5.130401E-1,-5.2236583E-2,2.4689424E0,-3.3435196E-2,1.6700529E0,-5.258235E-1,-4.114689E-1,1.3287455E0,-5.2802753E-2,-5.2893E-2,2.5279243E0,-5.280954E-1,-4.6182045E-1,2.4849257E0,-5.4612935E-2,2.6693065E0,-5.2788407E-2,2.986314E-1,8.676831E-1,-5.2847248E-2,-4.8738938E-2,1.3436021E-1,-5.29274E-2,2.2399619E-1,-5.1537093E-2,2.5768772E-1,-5.338649E-2,1.9750898E-3,-5.285404E-2,1.5821233E-2,-5.005166E-2,2.6499426E-1,2.331792E-1,2.8966254E-2,2.6753432E-1,-5.3793937E-2,3.0063114E-1],"categories":[],"categories_nodes":[],"categories_segments":[],"categories_sizes":[],"default_left":[0,0,0,0,0,0,0,0,0,0,0,0,0,0,0,0,0,0,0,0,0,0,0,0,0,0,0,0,0,0,0,0,0,0,0,0,0,0,0,0,0,0,0,0,0,0,0],"id":32,"left_children":[1,3,5,7,9,11,13,15,17,19,21,-1,23,25,27,29,31,33,-1,-1,35,37,39,41,-1,43,-1,-1,45,-1,-1,-1,-1,-1,-1,-1,-1,-1,-1,-1,-1,-1,-1,-1,-1,-1,-1],"loss_changes":[1.0745897E5,1.2293447E4,7.050086E3,1.2965742E3,5.0863484E4,1.8971328E3,1.4492703E3,1.1146484E2,1.0518555E3,1.6215734E4,2.5704102E1,0E0,7.5278125E2,2.0080663E3,7.833052E2,1.24609375E1,1.9035876E3,1.1658373E3,0E0,0E0,1.3572422E3,6.7905273E0,1.8952307E2,3.7589844E2,0E0,3.0529785E-1,0E0,0E0,1.4114009E3,0E0,0E0,0E0,0E0,0E0,0E0,0E0,0E0,0E0,0E0,0E0,0E0,0E0,0E0,0E0,0E0,0E0,0E0],"parents":[2147483647,0,0,1,1,2,2,3,3,4,4,5,5,6,6,7,7,8,8,9,9,10,10,12,12,13,13,14,14,15,15,16,16,17,17,20,20,21,21,22,22,23,23,25,25,28,28],"right_children":[2,4,6,8,10,12,14,16,18,20,22,-1,24,26,28,30,32,34,-1,-1,36,38,40,42,-1,44,-1,-1,46,-1,-1,-1,-1,-1,-1,-1,-1,-1,-1,-1,-1,-1,-1,-1,-1,-1,-1],"split_conditions":[3.3333334E-1,3.0379747E-3,6.85E-1,1.5853886E-1,4.630413E-4,1.7525956E-1,4E-1,2.724671E-4,2.8745988E-1,2.4174053E-4,2.855665E-1,-5.2236583E-2,9.166667E-1,3.9979312E-1,4.997414E-1,3.358223E-5,9.26672E-4,4.2553333E-4,-5.2802753E-2,-5.2893E-2,3.0721966E-4,6.1876496E-4,1.1833333E-1,7.5E-5,-5.4612935E-2,2.7771524E-1,-5.2788407E-2,2.986314E-1,5E-1,-5.2847248E-2,-4.8738938E-2,1.3436021E-1,-5.29274E-2,2.2399619E-1,-5.1537093E-2,2.5768772E-1,-5.338649E-2,1.9750898E-3,-5.285404E-2,1.5821233E-2,-5.005166E-2,2.6499426E-1,2.331792E-1,2.8966254E-2,2.6753432E-1,-5.3793937E-2,3.0063114E-1],"split_indices":[2,7,17,3,11,3,2,7,2,9,2,0,6,2,2,7,9,6,0,0,1,11,19,6,0,11,0,0,2,0,0,0,0,0,0,0,0,0,0,0,0,0,0,0,0,0,0],"split_type":[0,0,0,0,0,0,0,0,0,0,0,0,0,0,0,0,0,0,0,0,0,0,0,0,0,0,0,0,0,0,0,0,0,0,0,0,0,0,0,0,0,0,0,0,0,0,0],"sum_hessian":[2.0665992E5,1.8865778E5,1.8002139E4,1.4287547E5,4.578232E4,1.5756409E4,2.2457302E3,1.416418E5,1.233659E3,1.1175279E4,3.4607043E4,2.1402663E2,1.5542383E4,1.4993225E3,7.464077E2,1.324418E5,9.200005E3,6.89903E2,5.43756E2,2.1470845E3,9.028194E3,2.6723645E4,7.8833984E3,1.5460939E4,8.144274E1,2.3035492E2,1.2689675E3,2.8038254E2,4.660252E2,1.2386604E5,8.575758E3,5.771102E2,8.622895E3,4.6163925E2,2.2826378E2,8.886594E3,1.4160103E2,2.0704844E1,2.670294E4,4.6197766E2,7.4214204E3,7.4244634E3,8.0364766E3,1.0403327E0,2.2931459E2,2.819654E2,1.8405983E2],"tree_param":{"num_deleted":"0","num_feature":"20","num_nodes":"47","size_leaf_vector":"1"}},{"base_weights":[-4.928475E-1,-5.148068E-1,-2.2579053E-1,-5.2431995E-1,-3.7300578E-1,2.6026177E0,-2.9191482E-1,-5.265238E-1,-4.1793612E-1,2.574921E0,-5.014173E-1,2.6532587E-1,-3.0881306E-2,-5.2775122E-2,1.0240571E-1,-5.173378E-1,-5.2807238E-2,1.2426659E0,-5.042055E-1,2.7255175E-1,-4.6128616E-2,-5.2234954E-1,-8.8380225E-2,-5.274294E-1,2.5639493E0,-5.2153777E-2,-1.3224673E-2,-5.1249005E-2,2.958385E-1,-5.274954E-2,-4.6054065E-2,-4.5898367E-2,-5.2651864E-2,-4.9934678E-2,2.8252912E-1,-5.276407E-2,-6.402064E-4,2.6891598E-1,-4.1382357E-2],"categories":[],"categories_nodes":[],"categories_segments":[],"categories_sizes":[],"default_left":[0,0,0,0,0,0,0,0,0,0,0,0,0,0,0,0,0,0,0,0,0,0,0,0,0,0,0,0,0,0,0,0,0,0,0,0,0,0,0],"id":33,"left_children":[1,3,5,7,9,11,13,15,17,19,21,-1,-1,-1,23,25,-1,27,29,-1,-1,31,33,35,37,-1,-1,-1,-1,-1,-1,-1,-1,-1,-1,-1,-1,-1,-1],"loss_changes":[1.0764883E3,2.2808984E2,2.6112812E3,3.6371094E1,4.0443452E3,4.983496E1,1.2690725E3,1.1484375E0,4.6532263E2,2.0755566E2,8.809912E1,0E0,0E0,0E0,7.921221E3,3.611914E1,0E0,4.872614E2,2.1559448E0,0E0,0E0,1.597168E0,5.971096E2,1.7407227E-1,3.9148584E2,0E0,0E0,0E0,0E0,0E0,0E0,0E0,0E0,0E0,0E0,0E0,0E0,0E0,0E0],"parents":[2147483647,0,0,1,1,2,2,3,3,4,4,5,5,6,6,7,7,8,8,9,9,10,10,14,14,15,15,17,17,18,18,21,21,22,22,23,23,24,24],"right_children":[2,4,6,8,10,12,14,16,18,20,22,-1,-1,-1,24,26,-1,28,30,-1,-1,32,34,36,38,-1,-1,-1,-1,-1,-1,-1,-1,-1,-1,-1,-1,-1,-1],"split_conditions":[2.1484688E-1,8.916666E-2,1.5866448E-1,1.1929494E-1,1.6676996E-8,2.1538751E-1,1E0,8.0580176E-5,1.0844854E-1,8.0580176E-5,6.639131E-1,2.6532587E-1,-3.0881306E-2,-5.2775122E-2,1.1291845E-2,4.18297E-2,-5.2807238E-2,8.344077E-2,1.4848079E-1,2.7255175E-1,-4.6128616E-2,5.4903608E-2,2.9634643E-2,2.5980134E-2,6.923334E-2,-5.2153777E-2,-1.3224673E-2,-5.1249005E-2,2.958385E-1,-5.274954E-2,-4.6054065E-2,-4.5898367E-2,-5.2651864E-2,-4.9934678E-2,2.8252912E-1,-5.276407E-2,-6.402064E-4,2.6891598E-1,-4.1382357E-2],"split_indices":[3,18,2,3,4,3,14,9,1,9,4,0,0,0,4,18,0,9,3,0,0,4,11,8,7,0,0,0,0,0,0,0,0,0,0,0,0,0,0],"split_type":[0,0,0,0,0,0,0,0,0,0,0,0,0,0,0,0,0,0,0,0,0,0,0,0,0,0,0,0,0,0,0,0,0,0,0,0,0,0,0],"sum_hessian":[1.8366405E5,1.6970589E5,1.3958148E4,1.5902814E5,1.0677764E4,3.169422E2,1.3641206E4,1.5578819E5,3.2399473E3,4.4395462E2,1.0233809E4,3.1186673E2,5.075472E0,8.536351E3,5.1048555E3,2.261707E4,1.3317111E5,1.5839497E2,3.0815522E3,4.2332687E2,2.0627745E1,9.738531E3,4.9527765E2,4.0658857E3,1.0389698E3,2.2371074E4,2.4599655E2,7.884691E1,7.954807E1,1.987731E3,1.0938212E3,6.223109E2,9.11622E3,4.3565796E2,5.9619694E1,4.0632532E3,2.6326907E0,9.9739294E2,4.1576904E1],"tree_param":{"num_deleted":"0","num_feature":"20","num_nodes":"39","size_leaf_vector":"1"}},{"base_weights":[1.05728135E-1,-2.3748778E-1,2.3365955E0,7.060118E-1,-4.2883778E-1,-2.4025948E-1,2.4721742E0,2.0045109E0,3.787443E-2,-4.897854E-1,6.6586083E-1,2.977531E0,-5.2941114E-2,-5.288575E-2,2.5233254E0,-5.2539088E-2,2.0746305E0,-5.3052407E-2,6.2468797E-1,-5.2219665E-1,7.624539E-1,2.0397916E0,-1.1237311E-1,-3.8527373E-2,3.2293131E0,2.5422623E0,-2.4643946E-1,-5.2732866E-2,2.1358342E-1,1.2910093E-1,-4.310113E-2,-4.7672547E-2,-5.3021222E-2,-4.7001522E-2,2.4121599E-1,-4.1587275E-2,2.431113E-1,4.31333E-2,-4.203118E-2,2.5971243E-1,3.6118272E-1,1.6139476E-1,2.564483E-1,-3.9195064E-2,2.1278034E-1],"categories":[],"categories_nodes":[],"categories_segments":[],"categories_sizes":[],"default_left":[0,0,0,0,0,0,0,0,0,0,0,0,0,0,0,0,0,0,0,0,0,0,0,0,0,0,0,0,0,0,0,0,0,0,0,0,0,0,0,0,0,0,0,0,0],"id":34,"left_children":[1,3,5,7,9,11,13,15,17,19,21,23,-1,-1,25,-1,27,-1,29,31,33,35,37,-1,39,41,43,-1,-1,-1,-1,-1,-1,-1,-1,-1,-1,-1,-1,-1,-1,-1,-1,-1,-1],"loss_changes":[1.728582E5,3.5324336E4,1.0518891E4,2.862082E4,1.0853754E4,1.4033933E3,4.3935938E3,1.9911875E3,7.266934E3,6.254758E3,9.1749E3,1.0919849E2,0E0,0E0,1.4772656E3,0E0,1.7398594E3,0E0,7.5424863E3,5.3742188E1,7.908585E3,2.9845908E3,9.176514E2,0E0,6.196045E0,5.6571875E2,6.7335304E1,0E0,0E0,0E0,0E0,0E0,0E0,0E0,0E0,0E0,0E0,0E0,0E0,0E0,0E0,0E0,0E0,0E0,0E0],"parents":[2147483647,0,0,1,1,2,2,3,3,4,4,5,5,6,6,7,7,8,8,9,9,10,10,11,11,14,14,16,16,18,18,19,19,20,20,21,21,22,22,24,24,25,25,26,26],"right_children":[2,4,6,8,10,12,14,16,18,20,22,24,-1,-1,26,-1,28,-1,30,32,34,36,38,-1,40,42,44,-1,-1,-1,-1,-1,-1,-1,-1,-1,-1,-1,-1,-1,-1,-1,-1,-1,-1],"split_conditions":[3.1913787E-1,8.0580176E-5,2.2161308E-1,1.7499998E-7,1.7525956E-1,5.640612E-4,4.3416667E-1,1E0,4.1666667E-8,1E0,3.3333334E-1,6.9083333E-1,-5.2941114E-2,-5.288575E-2,5E-1,-5.2539088E-2,8.333333E-9,-5.3052407E-2,6.559999E-5,4.0226418E-4,1.8666667E-6,2.855665E-1,4E-1,-3.8527373E-2,1E0,6.741667E-1,3.6674416E-1,-5.2732866E-2,2.1358342E-1,1.2910093E-1,-4.310113E-2,-4.7672547E-2,-5.3021222E-2,-4.7001522E-2,2.4121599E-1,-4.1587275E-2,2.431113E-1,4.31333E-2,-4.203118E-2,2.5971243E-1,3.6118272E-1,1.6139476E-1,2.564483E-1,-3.9195064E-2,2.1278034E-1],"split_indices":[7,9,2,5,3,9,17,15,8,13,2,18,0,0,2,0,6,0,5,2,8,2,2,0,15,18,4,0,0,0,0,0,0,0,0,0,0,0,0,0,0,0,0,0,0],"split_type":[0,0,0,0,0,0,0,0,0,0,0,0,0,0,0,0,0,0,0,0,0,0,0,0,0,0,0,0,0,0,0,0,0,0,0,0,0,0,0,0,0,0,0,0,0],"sum_hessian":[2.2575614E5,1.9565625E5,3.0099885E4,3.298877E4,1.6266748E5,1.5042555E3,2.8595629E4,1.1205862E4,2.1782908E4,1.5409003E5,8.577442E3,1.2235196E2,1.3819034E3,4.7875342E2,2.8116875E4,3.0166666E2,1.0904195E4,1.1064738E4,1.0718171E4,1.5020392E5,3.8861082E3,3.100708E3,5.4767344E3,8.310509E0,1.1404145E2,2.7926287E4,1.9058846E2,2.5005798E2,1.0654138E4,6.570882E3,4.1472886E3,2.2537154E4,1.2766677E5,2.2249846E3,1.6611237E3,4.2600308E2,2.6747048E3,1.9794069E3,3.4973276E3,4.9356052E1,6.46854E1,6.5679675E2,2.726949E4,1.8135414E2,9.234301E0],"tree_param":{"num_deleted":"0","num_feature":"20","num_nodes":"45","size_leaf_vector":"1"}},{"base_weights":[-5.0897235E-1,-5.1145595E-1,7.5817955E-1,-5.231882E-1,-3.9195156E-1,2.2984347E0,-5.201441E-2,-5.275185E-2,-5.001911E-1,2.3930075E0,-5.008207E-1,-4.685406E-2,2.7834898E-1,5.402679E-1,-5.14843E-1,2.6256468E0,-4.9679093E-2,3.7586E-1,-5.2783895E-2,-3.683461E-2,2.480121E-1,3.0880645E-2,-5.259027E-2,2.6348493E-1,-1.0364303E-2,-1.1932388E-2,3.165066E-1],"categories":[],"categories_nodes":[],"categories_segments":[],"categories_sizes":[],"default_left":[0,0,0,0,0,0,0,0,0,0,0,0,0,0,0,0,0,0,0,0,0,0,0,0,0,0,0],"id":35,"left_children":[1,3,5,7,9,11,-1,-1,13,15,17,-1,-1,19,21,23,-1,25,-1,-1,-1,-1,-1,-1,-1,-1,-1],"loss_changes":[5.7621484E2,2.5504688E2,7.0848975E2,1.55078125E1,4.952514E3,2.2251697E2,0E0,0E0,4.029038E2,4.1679736E2,3.7275317E2,0E0,0E0,6.4977893E2,2.375332E2,1.6108154E1,0E0,6.5213837E2,0E0,0E0,0E0,0E0,0E0,0E0,0E0,0E0,0E0],"parents":[2147483647,0,0,1,1,2,2,3,3,4,4,5,5,8,8,9,9,10,10,13,13,14,14,15,15,17,17],"right_children":[2,4,6,8,10,12,-1,-1,14,16,18,-1,-1,20,22,24,-1,26,-1,-1,-1,-1,-1,-1,-1,-1,-1],"split_conditions":[6.335478E-1,1.4032975E-1,3.0721966E-4,5.2544948E-2,2.4174053E-4,9.6696215E-3,-5.201441E-2,-5.275185E-2,8.333333E-9,6.7190245E-2,4.0226418E-4,-4.685406E-2,2.7834898E-1,5.7695407E-2,1.5471394E-2,1.8042397E-1,-4.9679093E-2,3.1432446E-2,-5.2783895E-2,-3.683461E-2,2.480121E-1,3.0880645E-2,-5.259027E-2,2.6348493E-1,-1.0364303E-2,-1.1932388E-2,3.165066E-1],"split_indices":[7,4,1,10,9,9,0,0,6,19,2,0,0,9,9,4,0,11,0,0,0,0,0,0,0,0,0],"split_type":[0,0,0,0,0,0,0,0,0,0,0,0,0,0,0,0,0,0,0,0,0,0,0,0,0,0,0],"sum_hessian":[1.8288453E5,1.8252836E5,3.5616635E2,1.6620078E5,1.6327579E4,1.609874E2,1.9517896E2,1.3980936E5,2.6391418E4,6.1251074E2,1.5715068E4,2.3868399E1,1.3711899E2,3.6501697E2,2.60264E4,5.672045E2,4.5306213E1,4.6851434E2,1.5246555E4,2.4951045E2,1.15506516E2,3.4353058E2,2.5682871E4,5.6555E2,1.654495E0,3.993505E2,6.916383E1],"tree_param":{"num_deleted":"0","num_feature":"20","num_nodes":"27","size_leaf_vector":"1"}},{"base_weights":[-5.079459E-1,-5.1158506E-1,5.9223723E-1,-4.658063E-1,-5.272847E-2,2.5921237E0,-5.2402195E-2,-4.9129057E-1,1.5941073E0,-4.0316053E-2,2.7500668E0,-4.9289632E-1,3.7551984E-1,2.7017329E0,-1.988569E-2,2.76282E-1,-0E0,-5.1920712E-2,-3.1938396E-2,2.7720028E-1,-3.6606483E-2,-5.1986422E-2,7.500685E-2],"categories":[],"categories_nodes":[],"categories_segments":[],"categories_sizes":[],"default_left":[0,0,0,0,0,0,0,0,0,0,0,0,0,0,0,0,0,0,0,0,0,0,0],"id":36,"left_children":[1,3,5,7,-1,9,-1,11,13,-1,15,17,-1,19,21,-1,-1,-1,-1,-1,-1,-1,-1],"loss_changes":[7.328203E2,1.3002344E2,1.3508826E3,2.4460654E3,0E0,1.05890625E2,0E0,3.1579785E2,1.0193855E3,0E0,6.2493896E0,2.0922168E2,0E0,7.6069336E1,9.0567276E1,0E0,0E0,0E0,0E0,0E0,0E0,0E0,0E0],"parents":[2147483647,0,0,1,1,2,2,3,3,5,5,7,7,8,8,10,10,11,11,13,13,14,14],"right_children":[2,4,6,8,-1,10,-1,12,14,-1,16,18,-1,20,22,-1,-1,-1,-1,-1,-1,-1,-1],"split_conditions":[6.639131E-1,4.0226418E-4,1.7979452E-3,1.5956894E-1,-5.272847E-2,7.321326E-4,-5.2402195E-2,4.4929108E-1,5.438214E-2,-4.0316053E-2,1.6715894E-8,1E0,3.7551984E-1,9.6696215E-3,1.2965156E-2,2.76282E-1,-0E0,-5.1920712E-2,-3.1938396E-2,2.7720028E-1,-3.6606483E-2,-5.1986422E-2,7.500685E-2],"split_indices":[4,2,10,7,0,11,0,4,19,0,7,14,0,9,11,0,0,0,0,0,0,0,0],"split_type":[0,0,0,0,0,0,0,0,0,0,0,0,0,0,0,0,0,0,0,0,0,0,0],"sum_hessian":[1.8289E5,1.8228856E5,6.014478E2,4.657453E4,1.3571403E5,2.146626E2,3.8678522E2,4.6007117E4,5.6741174E2,1.0438206E1,2.0422438E2,4.5991613E4,1.5505529E1,3.358748E2,2.3153694E2,2.0314363E2,1.0807598E0,3.992991E4,6.061701E3,3.2870148E2,7.173302E0,1.4116733E2,9.03696E1],"tree_param":{"num_deleted":"0","num_feature":"20","num_nodes":"23","size_leaf_vector":"1"}},{"base_weights":[-5.0061464E-1,-4.476128E-1,-5.280718E-2,-4.87457E-1,2.1404674E0,-5.275247E-1,2.7526486E-1,-5.2015122E-2,2.8249733E0,-5.2789737E-2,-2.4638852E-1,2.7368026E0,-5.273174E-2,2.8782472E-1,-4.1571204E-2,5.540759E-2,-5.0499983E-2,7.942424E-2,2.8681538E-1],"categories":[],"categories_nodes":[],"categories_segments":[],"categories_sizes":[],"default_left":[0,0,0,0,0,0,0,0,0,0,0,0,0,0,0,0,0,0,0],"id":37,"left_children":[1,3,-1,5,7,9,11,-1,13,-1,15,17,-1,-1,-1,-1,-1,-1,-1],"loss_changes":[2.6582812E2,6.454587E3,0E0,1.8839766E3,1.7324565E3,5.4873047E0,6.0826104E3,0E0,1.3402002E2,0E0,1.7725372E1,1.8677148E2,0E0,0E0,0E0,0E0,0E0,0E0,0E0],"parents":[2147483647,0,0,1,1,3,3,4,4,5,5,6,6,8,8,10,10,11,11],"right_children":[2,4,-1,6,8,10,12,-1,14,-1,16,18,-1,-1,-1,-1,-1,-1,-1],"split_conditions":[4.120291E-3,1.775516E-3,-5.280718E-2,1.6500399E-3,5.5691567E-3,5.640612E-4,9.26672E-4,-5.2015122E-2,1.4672697E-2,-5.2789737E-2,3.7166662E-6,1.2499999E-7,-5.273174E-2,2.8782472E-1,-4.1571204E-2,5.540759E-2,-5.0499983E-2,7.942424E-2,2.8681538E-1],"split_indices":[10,3,0,11,7,9,9,0,4,0,0,0,0,0,0,0,0,0,0],"split_type":[0,0,0,0,0,0,0,0,0,0,0,0,0,0,0,0,0,0,0],"sum_hessian":[1.8332473E5,6.2578742E4,1.20745984E5,6.163172E4,9.4702057E2,5.855685E4,3.0748682E3,1.9373564E2,7.532849E2,5.8475812E4,8.104123E1,7.55017E2,2.319851E3,7.4147375E2,1.1811207E1,1.8759045E1,6.2282185E1,4.895271E1,7.0606433E2],"tree_param":{"num_deleted":"0","num_feature":"20","num_nodes":"19","size_leaf_vector":"1"}},{"base_weights":[-5.279809E-1],"categories":[],"categories_nodes":[],"categories_segments":[],"categories_sizes":[],"default_left":[0],"id":38,"left_children":[-1],"loss_changes":[0E0],"parents":[2147483647],"right_children":[-1],"split_conditions":[-5.2798092E-2],"split_indices":[0],"split_type":[0],"sum_hessian":[1.8185825E5],"tree_param":{"num_deleted":"0","num_feature":"20","num_nodes":"1","size_leaf_vector":"1"}},{"base_weights":[-5.2785486E-1],"categories":[],"categories_nodes":[],"categories_segments":[],"categories_sizes":[],"default_left":[0],"id":39,"left_children":[-1],"loss_changes":[0E0],"parents":[2147483647],"right_children":[-1],"split_conditions":[-5.2785486E-2],"split_indices":[0],"split_type":[0],"sum_hessian":[1.8183277E5],"tree_param":{"num_deleted":"0","num_feature":"20","num_nodes":"1","size_leaf_vector":"1"}},{"base_weights":[-6.483006E-2,1.0006655E0,-5.172986E-1,-5.2978553E-2,2.1231396E0,-1.6717906E-1,-5.2129E-1,2.5628695E0,-5.2953344E-2,-5.285717E-2,1.0553042E0,-4.8085886E-1,-5.2892413E-2,2.5734925E0,-5.163994E-2,2.296379E0,-5.2066267E-2,-3.3016154E-1,-5.2741587E-2,2.574801E-1,-4.276385E-2,2.512171E-1,-4.4014525E-2,1.21295504E-1,-4.9100798E-2],"categories":[],"categories_nodes":[],"categories_segments":[],"categories_sizes":[],"default_left":[0,0,0,0,0,0,0,0,0,0,0,0,0,0,0,0,0,0,0,0,0,0,0,0,0],"id":40,"left_children":[1,3,5,-1,7,9,11,13,-1,-1,15,17,-1,19,-1,21,-1,23,-1,-1,-1,-1,-1,-1,-1],"loss_changes":[1.0258541E5,1.0896308E5,2.0820703E2,0E0,4.2685516E4,7.465608E2,4.4570312E1,1.0304375E3,0E0,0E0,7.572362E2,1.6401074E2,0E0,1.26140625E2,0E0,1.3091785E2,0E0,1.3787368E3,0E0,0E0,0E0,0E0,0E0,0E0,0E0],"parents":[2147483647,0,0,1,1,2,2,4,4,5,5,6,6,7,7,10,10,11,11,13,13,15,15,17,17],"right_children":[2,4,6,-1,8,10,12,14,-1,-1,16,18,-1,20,-1,22,-1,24,-1,-1,-1,-1,-1,-1,-1],"split_conditions":[9.833333E-7,4.8808838E-4,1.1666666E-6,-5.2978553E-2,1E0,4.8808838E-4,9.26672E-4,8.333333E-9,-5.2953344E-2,-5.285717E-2,5.640612E-4,1E0,-5.2892413E-2,1E0,-5.163994E-2,1E0,-5.2066267E-2,1.17499985E-5,-5.2741587E-2,2.574801E-1,-4.276385E-2,2.512171E-1,-4.4014525E-2,1.21295504E-1,-4.9100798E-2],"split_indices":[0,11,0,0,15,11,9,6,0,0,9,15,0,13,0,15,0,0,0,0,0,0,0,0,0],"split_type":[0,0,0,0,0,0,0,0,0,0,0,0,0,0,0,0,0,0,0,0,0,0,0,0,0],"sum_hessian":[2.1278358E5,6.3424605E4,1.4935897E5,2.683572E4,3.6588883E4,1.6859008E3,1.4767308E5,3.1386281E4,5.2026035E3,1.302421E3,3.834797E2,2.348535E4,1.2418772E5,3.1278863E4,1.0741657E2,2.1420006E2,1.6927965E2,5.549491E3,1.7935857E4,3.1265682E4,1.3183224E1,1.98865E2,1.5335055E1,5.223186E2,5.0271724E3],"tree_param":{"num_deleted":"0","num_feature":"20","num_nodes":"25","size_leaf_vector":"1"}},{"base_weights":[-5.0801957E-1,-4.503004E-1,-5.164754E-1,-3.5451174E-1,-5.25926E-2,-5.278505E-2,-4.706706E-1,-2.9081383E-1,-5.2288342E-2,2.6545088E0,-5.2774346E-1,-4.0876496E-1,1.3525926E-2,-4.796049E-2,2.8305829E0,-2.5191808E-1,-5.2799817E-2,-5.0683666E-2,-3.838098E-2,2.4441658E-2,-1.4402348E-2,-3.811995E-2,2.869701E-1,1.9014806E-2,-4.651103E-2],"categories":[],"categories_nodes":[],"categories_segments":[],"categories_sizes":[],"default_left":[0,0,0,0,0,0,0,0,0,0,0,0,0,0,0,0,0,0,0,0,0,0,0,0,0],"id":41,"left_children":[1,3,5,7,-1,-1,9,11,-1,13,15,17,19,-1,21,23,-1,-1,-1,-1,-1,-1,-1,-1,-1],"loss_changes":[8.830469E1,1.6862646E2,8.210156E1,1.1006091E2,0E0,0E0,5.665436E3,2.6944464E2,0E0,3.1825586E2,1.5341797E0,1.2397583E1,7.635336E1,0E0,7.125342E1,3.557285E0,0E0,0E0,0E0,0E0,0E0,0E0,0E0,0E0,0E0],"parents":[2147483647,0,0,1,1,2,2,3,3,6,6,7,7,9,9,10,10,11,11,12,12,14,14,15,15],"right_children":[2,4,6,8,-1,-1,10,12,-1,14,16,18,20,-1,22,24,-1,-1,-1,-1,-1,-1,-1,-1,-1],"split_conditions":[8.0580176E-5,8.333333E-9,6.78154E-2,1.1666666E-6,-5.25926E-2,-5.278505E-2,2.5671247E-2,6.9166657E-7,-5.2288342E-2,7.8076595E-3,3.7137464E-2,3.333333E-7,7.916666E-7,-4.796049E-2,4.3983616E-2,3.5359588E-2,-5.2799817E-2,-5.0683666E-2,-3.838098E-2,2.4441658E-2,-1.4402348E-2,-3.811995E-2,2.869701E-1,1.9014806E-2,-4.651103E-2],"split_indices":[9,6,6,0,0,0,5,5,0,7,5,0,0,0,1,10,0,0,0,0,0,0,0,0,0],"split_type":[0,0,0,0,0,0,0,0,0,0,0,0,0,0,0,0,0,0,0,0,0,0,0,0,0],"sum_hessian":[1.828675E5,2.3388145E4,1.5947936E5,1.032646E4,1.3061685E4,1.2772756E5,3.1751795E4,7.4981904E3,2.82827E3,5.676703E2,3.1184125E4,5.4045415E3,2.093649E3,2.9860842E1,5.3780945E2,3.2409485E1,3.1151717E4,1.0843763E3,4.320165E3,8.500138E2,1.2436351E3,6.107186E0,5.317023E2,9.851897E0,2.2557587E1],"tree_param":{"num_deleted":"0","num_feature":"20","num_nodes":"25","size_leaf_vector":"1"}},{"base_weights":[-5.228008E-1,-4.9099955E-1,-5.2742746E-2,-5.2377522E-2,-3.039953E-2,1.2468174E-1,-5.236509E-2,9.2554845E-2,1.3434926E-1,1.33443475E-2,-5.1211637E-2],"categories":[],"categories_nodes":[],"categories_segments":[],"categories_sizes":[],"default_left":[0,0,0,0,0,0,0,0,0,0,0],"id":42,"left_children":[1,3,-1,-1,5,7,-1,9,-1,-1,-1],"loss_changes":[2.5753906E1,3.4936572E2,0E0,0E0,1.18273735E2,4.499909E1,0E0,2.8288563E1,0E0,0E0,0E0],"parents":[2147483647,0,0,1,1,4,4,5,5,7,7],"right_children":[2,4,-1,-1,6,8,-1,10,-1,-1,-1],"split_conditions":[8.0580176E-5,4.153837E-2,-5.2742746E-2,-5.2377522E-2,5.0045285E-2,4.9567543E-2,-5.236509E-2,4.9446058E-2,1.3434926E-1,1.33443475E-2,-5.1211637E-2],"split_indices":[9,7,0,0,0,7,0,6,0,0,0],"split_type":[0,0,0,0,0,0,0,0,0,0,0],"sum_hessian":[1.8203336E5,2.3160701E4,1.5887266E5,2.1620834E4,1.5398673E3,1.1718966E3,3.6797073E2,1.1442959E3,2.760063E1,1.0740526E3,7.024326E1],"tree_param":{"num_deleted":"0","num_feature":"20","num_nodes":"11","size_leaf_vector":"1"}},{"base_weights":[-5.2793145E-1],"categories":[],"categories_nodes":[],"categories_segments":[],"categories_sizes":[],"default_left":[0],"id":43,"left_children":[-1],"loss_changes":[0E0],"parents":[2147483647],"right_children":[-1],"split_conditions":[-5.2793145E-2],"split_indices":[0],"split_type":[0],"sum_hessian":[1.8188348E5],"tree_param":{"num_deleted":"0","num_feature":"20","num_nodes":"1","size_leaf_vector":"1"}},{"base_weights":[-5.2569693E-1,-5.1055646E-1,-5.2788835E-2,-5.272133E-2,-2.4933545E-1,-2.8062936E-2,-4.4491518E-1,8.4584944E-2,-6.3410945E-2,-3.6737844E-1,-5.233849E-2,-4.9247064E-2,-1.2059215E-3,-3.940759E-2,2.8926224E-2],"categories":[],"categories_nodes":[],"categories_segments":[],"categories_sizes":[],"default_left":[0,0,0,0,0,0,0,0,0,0,0,0,0,0,0],"id":44,"left_children":[1,3,-1,-1,5,7,9,-1,11,13,-1,-1,-1,-1,-1],"loss_changes":[4.9765625E0,9.9768555E1,0E0,0E0,5.985051E1,1.9950916E1,3.647995E0,0E0,1.3660353E1,6.943905E0,0E0,0E0,0E0,0E0,0E0],"parents":[2147483647,0,0,1,1,4,4,5,5,6,6,8,8,9,9],"right_children":[2,4,-1,-1,6,8,10,-1,12,14,-1,-1,-1,-1,-1],"split_conditions":[8.0580176E-5,4.195664E-2,-5.2788835E-2,-5.272133E-2,4.7281068E-2,4.2424265E-2,5.00906E-2,8.4584944E-2,4.255926E-2,4.060535E-2,-5.233849E-2,-4.9247064E-2,-1.2059215E-3,-3.940759E-2,2.8926224E-2],"split_indices":[9,7,0,0,6,6,6,0,7,4,0,0,0,0,0],"split_type":[0,0,0,0,0,0,0,0,0,0,0,0,0,0,0],"sum_hessian":[1.818216E5,2.30771E4,1.5874448E5,2.1690076E4,1.3870234E3,6.530394E2,7.33984E2,2.3054605E1,6.299848E2,3.7810736E2,3.5587665E2,6.446261E1,5.655222E2,3.6483524E2,1.3272143E1],"tree_param":{"num_deleted":"0","num_feature":"20","num_nodes":"15","size_leaf_vector":"1"}},{"base_weights":[1.451341E0,1.5433944E0,-5.136185E-1,1.1256024E0,1.6427146E0,1.05947E0,-5.515927E-1,1.4352217E0,-3.468259E-1,1.4317906E0,1.676402E0,1.5526261E0,-8.047822E-2,8.5856843E-1,-5.527722E-1,9.37056E-1,1.5477805E0,-5.116693E-1,1.5272198E0,1.6180481E0,-1.2979929E-1,1.6780888E0,1.0757147E0,-3.867721E-2,1.6073546E0,-4.56232E-1,1.0195445E0,1.5924898E-1,-4.0953875E-2,-4.4511935E-1,-5.553398E-1,1.7553578E-1,6.6587254E-2,1.5716134E-1,1.1866455E-2,1.898733E-1,-5.286474E-2,1.5737244E-1,-4.8942577E-2,9.964239E-2,1.6610721E-1,-4.9970143E-2,1.01776205E-1,1.6857809E-1,1.6604449E-1,-5.4400653E-2,1.4999764E-1,1.1613907E-1,1.7356355E-1,-5.2591216E-2,7.446792E-2,1.7612281E-1,-3.9928753E-2,-5.2082986E-2,3.3326408E-1,-5.6112465E-2,-5.431518E-2],"categories":[],"categories_nodes":[],"categories_segments":[],"categories_sizes":[],"default_left":[0,0,0,0,0,0,0,0,0,0,0,0,0,0,0,0,0,0,0,0,0,0,0,0,0,0,0,0,0,0,0,0,0,0,0,0,0,0,0,0,0,0,0,0,0,0,0,0,0,0,0,0,0,0,0,0,0],"id":45,"left_children":[1,3,5,7,9,11,13,15,17,19,21,23,25,27,29,31,33,35,37,39,41,43,45,-1,47,49,51,-1,-1,53,55,-1,-1,-1,-1,-1,-1,-1,-1,-1,-1,-1,-1,-1,-1,-1,-1,-1,-1,-1,-1,-1,-1,-1,-1,-1,-1],"loss_changes":[1.226725E5,2.687675E4,1.8139585E3,5.673025E4,3.71275E3,4.0336884E2,5.009082E1,5.7610156E3,6.6803057E3,2.097125E4,4.5225E2,5.4926636E1,9.064792E1,2.5346893E1,7.1904297E0,4.202793E3,2.8551406E3,8.1468164E2,1.6604419E2,1.7181094E3,3.2627349E3,5.3875E1,8.74947E2,0E0,2.2377197E1,1.4398964E1,6.0721542E1,0E0,0E0,2.035524E2,8.7597656E-1,0E0,0E0,0E0,0E0,0E0,0E0,0E0,0E0,0E0,0E0,0E0,0E0,0E0,0E0,0E0,0E0,0E0,0E0,0E0,0E0,0E0,0E0,0E0,0E0,0E0,0E0],"parents":[2147483647,0,0,1,1,2,2,3,3,4,4,5,5,6,6,7,7,8,8,9,9,10,10,11,11,12,12,13,13,14,14,15,15,16,16,17,17,18,18,19,19,20,20,21,21,22,22,24,24,25,25,26,26,29,29,30,30],"right_children":[2,4,6,8,10,12,14,16,18,20,22,24,26,28,30,32,34,36,38,40,42,44,46,-1,48,50,52,-1,-1,54,56,-1,-1,-1,-1,-1,-1,-1,-1,-1,-1,-1,-1,-1,-1,-1,-1,-1,-1,-1,-1,-1,-1,-1,-1,-1,-1],"split_conditions":[1.8887149E-1,1.0787671E-3,1.8878424E-1,1.0343936E-3,1.0343936E-3,2.6512373E-2,2.498707E-1,1.7499998E-7,3.4833329E-6,3.0379747E-3,1.5853886E-1,9.156667E-5,1.5713134E-1,5.454314E-1,2.1103744E-1,1E0,1.3083333E-1,1E0,8.583333E-2,1.7979452E-3,5.640612E-4,1.775516E-3,1E0,-3.867721E-2,1.5866448E-1,1.5866448E-1,2.2161308E-1,1.5924898E-1,-4.0953875E-2,1.841257E-1,1E0,1.7553578E-1,6.6587254E-2,1.5716134E-1,1.1866455E-2,1.898733E-1,-5.286474E-2,1.5737244E-1,-4.8942577E-2,9.964239E-2,1.6610721E-1,-4.9970143E-2,1.01776205E-1,1.6857809E-1,1.6604449E-1,-5.4400653E-2,1.4999764E-1,1.1613907E-1,1.7356355E-1,-5.2591216E-2,7.446792E-2,1.7612281E-1,-3.9928753E-2,-5.2082986E-2,3.3326408E-1,-5.6112465E-2,-5.431518E-2],"split_indices":[3,10,10,2,2,7,2,5,5,7,3,8,9,5,3,15,17,14,8,10,9,3,14,0,2,2,2,0,0,9,14,0,0,0,0,0,0,0,0,0,0,0,0,0,0,0,0,0,0,0,0,0,0,0,0,0,0],"split_type":[0,0,0,0,0,0,0,0,0,0,0,0,0,0,0,0,0,0,0,0,0,0,0,0,0,0,0,0,0,0,0,0,0,0,0,0,0,0,0,0,0,0,0,0,0,0,0,0,0,0,0,0,0,0,0,0,0],"sum_hessian":[6.781792E5,6.478306E5,3.0348557E4,1.2443246E5,5.233982E5,7.137641E2,2.9634793E4,1.02813445E5,2.1619018E4,7.209539E4,4.513028E5,4.9802625E2,2.1573785E2,2.3197464E1,2.9611596E4,1.8953164E4,8.386028E4,1.9872709E4,1.7463073E3,6.4412844E4,7.682545E3,4.5003466E5,1.2681617E3,1.30844965E1,4.8494174E2,1.620192E2,5.3718662E1,1.46192255E1,8.5782385E0,7.0245984E2,2.8909137E4,4.714444E3,1.4238721E4,8.2484164E4,1.3761138E3,1.3724231E2,1.9735467E4,1.7076162E3,3.8691105E1,4.173457E3,6.0239387E4,5.811005E3,1.8715402E3,3.1325056E5,1.3678406E5,2.628657E2,1.0052961E3,1.1369382E2,3.7124792E2,1.5458997E2,7.4292374E0,3.5192047E1,1.8526617E1,6.904785E2,1.1981335E1,1.9515375E4,9.393762E3],"tree_param":{"num_deleted":"0","num_feature":"20","num_nodes":"57","size_leaf_vector":"1"}},{"base_weights":[-5.18888E-1,-5.08377E-1,-5.2604407E-2,-5.1402724E-1,3.1883842E-1,-5.261904E-2,-4.9268815E-1,-5.201558E-2,1.3511691E0,-5.0450224E-1,-4.1190246E-1,2.3333044E-1,-5.0551888E-2,-5.051763E-2,5.8675345E-2,8.7330826E-2,-5.0690856E-2],"categories":[],"categories_nodes":[],"categories_segments":[],"categories_sizes":[],"default_left":[0,0,0,0,0,0,0,0,0,0,0,0,0,0,0,0,0],"id":46,"left_children":[1,3,-1,5,7,-1,9,-1,11,13,15,-1,-1,-1,-1,-1,-1],"loss_changes":[1.18046875E1,3.2434766E2,0E0,1.683789E1,4.0958734E2,0E0,2.3021484E1,0E0,3.8967883E2,1.6609375E1,3.927256E2,0E0,0E0,0E0,0E0,0E0,0E0],"parents":[2147483647,0,0,1,1,3,3,4,4,6,6,8,8,9,9,10,10],"right_children":[2,4,-1,6,8,-1,10,-1,12,14,16,-1,-1,-1,-1,-1,-1],"split_conditions":[7.9303505E-3,7.585553E-3,-5.2604407E-2,1.0343936E-3,8.549118E-3,-5.261904E-2,1.5769583E-3,-5.201558E-2,6.605223E-3,4.671636E-1,8.390411E-4,2.3333044E-1,-5.0551888E-2,-5.051763E-2,5.8675345E-2,8.7330826E-2,-5.0690856E-2],"split_indices":[16,16,0,16,3,0,8,0,1,9,10,0,0,0,0,0,0],"split_type":[0,0,0,0,0,0,0,0,0,0,0,0,0,0,0,0,0],"sum_hessian":[1.7088019E5,6.930181E4,1.01578375E5,6.8833016E4,4.6879672E2,4.37978E4,2.5035215E4,2.5889548E2,2.0990121E2,2.1826615E4,3.2085999E3,1.3712296E2,7.2778275E1,2.1814672E4,1.1943189E1,2.1937128E2,2.9892285E3],"tree_param":{"num_deleted":"0","num_feature":"20","num_nodes":"17","size_leaf_vector":"1"}},{"base_weights":[-1.3719763E-1,-3.5866323E-1,1.7557772E0,-5.0645953E-1,8.078672E-2,1.860166E0,-2.1861973E-1,-5.1398355E-1,6.662289E-1,1.5945901E0,-5.09898E-1,-5.198388E-2,1.8843421E0,1.9892232E-1,-3.0830005E-1,-5.260298E-1,-4.323055E-1,1.7165359E0,-5.245778E-2,-5.273028E-2,2.0028727E0,-5.2717727E-2,-4.573209E-1,1.9512229E0,1.0437975E0,-3.941061E-1,1.7572492E0,-5.266074E-2,2.4999682E-2,8.801771E-2,-5.141596E-2,2.2440962E-1,-4.912523E-2,-5.1606644E-2,2.0331414E-1,-3.7819747E-2,-5.227908E-2,2.201457E-1,1.879362E-1,3.5507716E-3,2.2085431E-1,-5.274215E-2,2.4097355E-3,2.1338283E-1,-1.2610386E-2],"categories":[],"categories_nodes":[],"categories_segments":[],"categories_sizes":[],"default_left":[0,0,0,0,0,0,0,0,0,0,0,0,0,0,0,0,0,0,0,0,0,0,0,0,0,0,0,0,0,0,0,0,0,0,0,0,0,0,0,0,0,0,0,0,0],"id":47,"left_children":[1,3,5,7,9,11,13,15,17,19,21,-1,23,-1,25,27,29,31,-1,-1,33,-1,35,37,39,41,43,-1,-1,-1,-1,-1,-1,-1,-1,-1,-1,-1,-1,-1,-1,-1,-1,-1,-1],"loss_changes":[8.396159E4,1.1645672E4,4.3250625E3,1.1844805E3,4.035347E4,1.1490391E3,2.0926141E2,1.3024219E2,1.0727947E3,1.0976494E4,2.8517578E1,0E0,1.10325E3,0E0,1.8072229E2,5.247461E1,1.8434263E3,5.3354333E2,0E0,0E0,8.1283984E2,0E0,4.0864136E1,3.1817188E2,1.7117054E3,5.475067E1,3.03685E1,0E0,0E0,0E0,0E0,0E0,0E0,0E0,0E0,0E0,0E0,0E0,0E0,0E0,0E0,0E0,0E0,0E0,0E0],"parents":[2147483647,0,0,1,1,2,2,3,3,4,4,5,5,6,6,7,7,8,8,9,9,10,10,12,12,14,14,15,15,16,16,17,17,20,20,22,22,23,23,24,24,25,25,26,26],"right_children":[2,4,6,8,10,12,14,16,18,20,22,-1,24,-1,26,28,30,32,-1,-1,34,-1,36,38,40,42,44,-1,-1,-1,-1,-1,-1,-1,-1,-1,-1,-1,-1,-1,-1,-1,-1,-1,-1],"split_conditions":[3.3333334E-1,3.0379747E-3,8.1166667E-1,2.2427036E-1,4.630413E-4,1.7525956E-1,3.9979312E-1,3.358223E-5,2.8745988E-1,1E0,1E0,-5.198388E-2,6.7E-1,1.9892232E-1,5E-1,2.3704486E-1,4.630413E-4,5.5266666E-4,-5.245778E-2,-5.273028E-2,5.9931504E-4,-5.2717727E-2,2.1876873E-1,1E0,7.3461413E-1,4E-1,2.7464765E-1,-5.266074E-2,2.4999682E-2,8.801771E-2,-5.141596E-2,2.2440962E-1,-4.912523E-2,-5.1606644E-2,2.0331414E-1,-3.7819747E-2,-5.227908E-2,2.201457E-1,1.879362E-1,3.5507716E-3,2.2085431E-1,-5.274215E-2,2.4097355E-3,2.1338283E-1,-1.2610386E-2],"split_indices":[2,7,18,1,11,3,2,7,2,15,15,0,17,0,2,2,11,6,0,0,10,0,10,14,0,2,10,0,0,0,0,0,0,0,0,0,0,0,0,0,0,0,0,0,0],"split_type":[0,0,0,0,0,0,0,0,0,0,0,0,0,0,0,0,0,0,0,0,0,0,0,0,0,0,0,0,0,0,0,0,0,0,0,0,0,0,0,0,0,0,0,0,0],"sum_hessian":[2.0027295E5,1.7929814E5,2.0974816E4,1.3417356E5,4.5124574E4,1.992189E4,1.0529258E3,1.3331973E5,8.5383026E2,1.2664786E4,3.245979E4,1.9971077E2,1.972218E4,3.922816E1,1.0136976E3,1.1616945E5,1.7150273E4,4.5343317E2,4.003971E2,2.0433662E3,1.062142E4,2.4409975E4,8.049815E3,1.8265578E4,1.4566022E3,9.7505286E2,3.8644703E1,1.1608434E5,8.511198E1,1.0052975E3,1.6144976E4,3.6613678E2,8.729636E1,1.2553913E2,1.0495881E4,3.654441E3,4.395374E3,4.0603582E3,1.420522E4,7.8207263E2,6.7452954E2,7.398696E2,2.3518324E2,3.2204807E1,6.4398956E0],"tree_param":{"num_deleted":"0","num_feature":"20","num_nodes":"45","size_leaf_vector":"1"}},{"base_weights":[-4.894181E-1,-5.1230407E-1,-2.1815164E-1,-5.2177286E-1,-3.462191E-1,2.0412016E0,-2.841689E-1,-5.2422E-1,-4.0644434E-1,2.0751014E0,-4.9569425E-1,2.0729303E-1,-2.9424835E-2,-5.258723E-2,9.912348E-2,-5.133162E-1,-5.2610487E-2,1.142186E0,-4.994423E-1,2.178543E-1,-4.5527626E-2,-5.2183586E-1,-7.258372E-2,-5.2578945E-2,2.0466363E0,-5.1463123E-2,1.6917978E-1,2.2666919E-1,-4.4392597E-2,-5.2493997E-2,-4.552101E-2,-3.979221E-2,-5.2574493E-2,-5.0002526E-2,2.2684823E-1,-9.579083E-3,2.1558423E-1],"categories":[],"categories_nodes":[],"categories_segments":[],"categories_sizes":[],"default_left":[0,0,0,0,0,0,0,0,0,0,0,0,0,0,0,0,0,0,0,0,0,0,0,0,0,0,0,0,0,0,0,0,0,0,0,0,0],"id":48,"left_children":[1,3,5,7,9,11,13,15,17,19,21,-1,-1,-1,23,25,-1,27,29,-1,-1,31,33,-1,35,-1,-1,-1,-1,-1,-1,-1,-1,-1,-1,-1,-1],"loss_changes":[1.0732266E3,2.5004688E2,2.0083098E3,4.1695312E1,3.1182085E3,3.0432861E1,1.2123059E3,1.9726562E0,4.5426166E2,1.3396143E2,8.9365234E1,0E0,0E0,0E0,6.1612974E3,6.465234E1,0E0,3.2158868E2,2.383728E0,0E0,0E0,2.8203125E0,4.77236E2,0E0,2.8918896E2,0E0,0E0,0E0,0E0,0E0,0E0,0E0,0E0,0E0,0E0,0E0,0E0],"parents":[2147483647,0,0,1,1,2,2,3,3,4,4,5,5,6,6,7,7,8,8,9,9,10,10,14,14,15,15,17,17,18,18,21,21,22,22,24,24],"right_children":[2,4,6,8,10,12,14,16,18,20,22,-1,-1,-1,24,26,-1,28,30,-1,-1,32,34,-1,36,-1,-1,-1,-1,-1,-1,-1,-1,-1,-1,-1,-1],"split_conditions":[2.1484688E-1,1E-1,1.5866448E-1,1.1929494E-1,1.6676996E-8,2.1538751E-1,1E0,5.9931504E-4,1.0844854E-1,5.9931504E-4,6.639131E-1,2.0729303E-1,-2.9424835E-2,-5.258723E-2,1.0024026E-2,8.833333E-2,-5.2610487E-2,1.20921746E-1,1.4848079E-1,2.178543E-1,-4.5527626E-2,1.1833333E-1,8.777143E-4,-5.2578945E-2,2.498707E-1,-5.1463123E-2,1.6917978E-1,2.2666919E-1,-4.4392597E-2,-5.2493997E-2,-4.552101E-2,-3.979221E-2,-5.2574493E-2,-5.0002526E-2,2.2684823E-1,-9.579083E-3,2.1558423E-1],"split_indices":[3,19,2,3,4,3,14,10,1,10,4,0,0,0,4,19,0,3,3,0,0,19,12,0,2,0,0,0,0,0,0,0,0,0,0,0,0],"split_type":[0,0,0,0,0,0,0,0,0,0,0,0,0,0,0,0,0,0,0,0,0,0,0,0,0,0,0,0,0,0,0,0,0,0,0,0,0],"sum_hessian":[1.729652E5,1.5950462E5,1.3460576E4,1.5089456E5,8.610065E3,3.8023187E2,1.3080344E4,1.4774808E5,3.1464778E3,4.9892706E2,8.111138E3,3.7556842E2,4.663449E0,8.0221523E3,5.058192E3,2.1895646E4,1.2585244E5,1.766646E2,2.9698132E3,4.79789E2,1.9138079E1,7.6376045E3,4.7353357E2,3.8303289E3,1.2278628E3,2.1884355E4,1.1291117E1,1.030572E2,7.360741E1,1.8629031E3,1.10691E3,2.437684E2,7.393836E3,4.0193332E2,7.160026E1,5.934215E1,1.1685208E3],"tree_param":{"num_deleted":"0","num_feature":"20","num_nodes":"37","size_leaf_vector":"1"}},{"base_weights":[1.020372E-1,-2.6764375E-1,1.6679013E0,6.649427E-1,-4.9093664E-1,4.457278E-1,1.9856899E0,-5.2860737E-2,1.1512766E0,-2.6874626E-1,-5.2517366E-1,1.380748E0,-3.1401193E-1,2.0000212E0,-2.9649088E-1,1.4761807E0,-3.7086222E-1,8.6754334E-1,-5.2826572E-2,-5.2749287E-2,4.3926397E-1,1.9289683E0,-2.5864354E-1,3.5227484E-1,-4.6802792E-1,2.6788707E0,1.983288E0,-4.983087E-1,1.5170871E0,1.264182E-1,2.990843E-1,-4.4855323E-2,2.7724048E-1,1.8091193E-1,-4.467998E-2,-3.747044E-2,1.7828985E-1,1.5799141E-1,6.931689E-1,3.2002056E-1,-3.657643E-2,-3.0246783E-2,2.0675655E-1,-5.3137608E-2,-3.3488445E-2,2.3761998E-1,5.6959456E-1,-2.83548E-2,2.013134E-1,-5.073444E-2,-1.36950435E-2,-1.8613534E-2,1.7859115E-1],"categories":[],"categories_nodes":[],"categories_segments":[],"categories_sizes":[],"default_left":[0,0,0,0,0,0,0,0,0,0,0,0,0,0,0,0,0,0,0,0,0,0,0,0,0,0,0,0,0,0,0,0,0,0,0,0,0,0,0,0,0,0,0,0,0,0,0,0,0,0,0,0,0],"id":49,"left_children":[1,3,5,7,9,11,13,-1,15,17,19,21,23,25,27,29,31,33,-1,-1,35,37,39,41,43,45,47,49,51,-1,-1,-1,-1,-1,-1,-1,-1,-1,-1,-1,-1,-1,-1,-1,-1,-1,-1,-1,-1,-1,-1,-1,-1],"loss_changes":[1.296726E5,3.7738668E4,1.661436E4,2.0323176E4,1.1116055E3,6.27545E3,1.1126094E3,0E0,1.23035E4,5.7594194E3,2.838789E2,3.5608462E3,5.0056137E2,3.7034375E2,7.9116806E1,6.5729766E3,1.0701904E3,4.4961543E3,0E0,0E0,3.3506418E2,5.1567246E3,3.6918262E2,1.0304954E3,3.2614746E1,7.042998E2,2.230586E3,1.7167664E-1,1.1362846E1,0E0,0E0,0E0,0E0,0E0,0E0,0E0,0E0,0E0,0E0,0E0,0E0,0E0,0E0,0E0,0E0,0E0,0E0,0E0,0E0,0E0,0E0,0E0,0E0],"parents":[2147483647,0,0,1,1,2,2,3,3,4,4,5,5,6,6,8,8,9,9,10,10,11,11,12,12,13,13,14,14,15,15,16,16,17,17,20,20,21,21,22,22,23,23,24,24,25,25,26,26,27,27,28,28],"right_children":[2,4,6,8,10,12,14,-1,16,18,20,22,24,26,28,30,32,34,-1,-1,36,38,40,42,44,46,48,50,52,-1,-1,-1,-1,-1,-1,-1,-1,-1,-1,-1,-1,-1,-1,-1,-1,-1,-1,-1,-1,-1,-1,-1,-1],"split_conditions":[1.7525956E-1,5.9931504E-4,1.2777123E-1,8.333333E-9,1.7979452E-3,1.9286498E-3,5E-1,-5.2860737E-2,6.559999E-5,1E0,1.5853886E-1,4E-1,3.3333334E-1,5.865496E-1,2.7464765E-1,7.5333332E-6,1.8042397E-1,1E0,-5.2826572E-2,-5.2749287E-2,1.3333334E-1,3.9979312E-1,7.025E-5,3.3316094E-1,6.5403664E-3,3.9979312E-1,6.741667E-1,8.1916666E-1,6.983334E-1,1.264182E-1,2.990843E-1,-4.4855323E-2,2.7724048E-1,1.8091193E-1,-4.467998E-2,-3.747044E-2,1.7828985E-1,1.5799141E-1,6.931689E-1,3.2002056E-1,-3.657643E-2,-3.0246783E-2,2.0675655E-1,-5.3137608E-2,-3.3488445E-2,2.3761998E-1,5.6959456E-1,-2.83548E-2,2.013134E-1,-5.073444E-2,-1.36950435E-2,-1.8613534E-2,1.7859115E-1],"split_indices":[3,10,19,6,10,5,2,0,5,14,3,2,2,0,10,6,4,15,0,0,19,2,0,2,6,2,18,8,5,0,0,0,0,0,0,0,0,0,0,0,0,0,0,0,0,0,0,0,0,0,0,0,0],"split_type":[0,0,0,0,0,0,0,0,0,0,0,0,0,0,0,0,0,0,0,0,0,0,0,0,0,0,0,0,0,0,0,0,0,0,0,0,0,0,0,0,0,0,0,0,0,0,0,0,0,0,0,0,0],"sum_hessian":[2.240051E5,1.8122216E5,4.278295E4,3.5007316E4,1.4621483E5,8.830062E3,3.3952887E4,1.0134429E4,2.487289E4,1.9526256E4,1.2668858E5,3.9579685E3,4.8720933E3,3.3741465E4,2.114197E2,2.0497945E4,4.3749453E3,3.6292407E3,1.5897015E4,1.2638608E5,3.024997E2,2.966057E3,9.919116E2,9.136673E2,3.958426E3,8.0332275E2,3.2938145E4,1.9180185E2,1.9617846E1,1.7984723E4,2.5132214E3,4.271248E3,1.03697205E2,2.1142505E3,1.5149901E3,1.8904631E2,1.1345338E2,2.7751577E3,1.9089919E2,2.792177E1,9.6398987E2,6.622399E2,2.5142741E2,2.6756472E3,1.2827788E3,7.3348126E2,6.984147E1,4.2759906E2,3.2510545E4,1.8498468E2,6.817166E0,2.504572E0,1.7113274E1],"tree_param":{"num_deleted":"0","num_feature":"20","num_nodes":"53","size_leaf_vector":"1"}},{"base_weights":[-5.0645363E-1,-5.0890815E-1,6.5621006E-1,-5.2195835E-1,-3.999855E-1,-5.1814783E-2,1.9985043E0,-5.2486295E-1,-4.9301648E-1,1.190502E0,-4.9258527E-1,-4.314133E-2,2.2311346E-1,-5.256709E-2,-5.133015E-1,6.0776275E-1,-5.1947314E-1,-5.1415414E-2,1.9128454E0,1.266341E-1,-5.2590955E-2,-1.1128204E-2,-5.258447E-2,1.9354194E-1,-5.1926475E-2,3.8555846E-1,-5.256761E-2,-4.82334E-2,2.0292483E-1,-1.4099239E-2,4.2203304E-1],"categories":[],"categories_nodes":[],"categories_segments":[],"categories_sizes":[],"default_left":[0,0,0,0,0,0,0,0,0,0,0,0,0,0,0,0,0,0,0,0,0,0,0,0,0,0,0,0,0,0,0],"id":50,"left_children":[1,3,5,7,9,-1,11,13,15,17,19,-1,-1,-1,21,23,25,-1,27,29,-1,-1,-1,-1,-1,-1,-1,-1,-1,-1,-1],"loss_changes":[4.9067578E2,2.4271875E2,5.737987E2,1.18359375E1,