{"learner":{"attributes":{"best_iteration":"99","best_score":"0.00467999067537154","scikit_learn":"{\"_estimator_type\": \"classifier\"}"},"feature_names":[],"feature_types":[],"gradient_booster":{"model":{"cats":{"enc":[],"feature_segments":[],"sorted_idx":[]},"gbtree_model_param":{"num_parallel_tree":"1","num_trees":"1500"},"iteration_indptr":[0,15,30,45,60,75,90,105,120,135,150,165,180,195,210,225,240,255,270,285,300,315,330,345,360,375,390,405,420,435,450,465,480,495,510,525,540,555,570,585,600,615,630,645,660,675,690,705,720,735,750,765,780,795,810,825,840,855,870,885,900,915,930,945,960,975,990,1005,1020,1035,1050,1065,1080,1095,1110,1125,1140,1155,1170,1185,1200,1215,1230,1245,1260,1275,1290,1305,1320,1335,1350,1365,1380,1395,1410,1425,1440,1455,1470,1485,1500],"tree_info":[0,1,2,3,4,5,6,7,8,9,10,11,12,13,14,0,1,2,3,4,5,6,7,8,9,10,11,12,13,14,0,1,2,3,4,5,6,7,8,9,10,11,12,13,14,0,1,2,3,4,5,6,7,8,9,10,11,12,13,14,0,1,2,3,4,5,6,7,8,9,10,11,12,13,14,0,1,2,3,4,5,6,7,8,9,10,11,12,13,14,0,1,2,3,4,5,6,7,8,9,10,11,12,13,14,0,1,2,3,4,5,6,7,8,9,10,11,12,13,14,0,1,2,3,4,5,6,7,8,9,10,11,12,13,14,0,1,2,3,4,5,6,7,8,9,10,11,12,13,14,0,1,2,3,4,5,6,7,8,9,10,11,12,13,14,0,1,2,3,4,5,6,7,8,9,10,11,12,13,14,0,1,2,3,4,5,6,7,8,9,10,11,12,13,14,0,1,2,3,4,5,6,7,8,9,10,11,12,13,14,0,1,2,3,4,5,6,7,8,9,10,11,12,13,14,0,1,2,3,4,5,6,7,8,9,10,11,12,13,14,0,1,2,3,4,5,6,7,8,9,10,11,12,13,14,0,1,2,3,4,5,6,7,8,9,10,11,12,13,14,0,1,2,3,4,5,6,7,8,9,10,11,12,13,14,0,1,2,3,4,5,6,7,8,9,10,11,12,13,14,0,1,2,3,4,5,6,7,8,9,10,11,12,13,14,0,1,2,3,4,5,6,7,8,9,10,11,12,13,14,0,1,2,3,4,5,6,7,8,9,10,11,12,13,14,0,1,2,3,4,5,6,7,8,9,10,11,12,13,14,0,1,2,3,4,5,6,7,8,9,10,11,12,13,14,0,1,2,3,4,5,6,7,8,9,10,11,12,13,14,0,1,2,3,4,5,6,7,8,9,10,11,12,13,14,0,1,2,3,4,5,6,7,8,9,10,11,12,13,14,0,1,2,3,4,5,6,7,8,9,10,11,12,13,14,0,1,2,3,4,5,6,7,8,9,10,11,12,13,14,0,1,2,3,4,5,6,7,8,9,10,11,12,13,14,0,1,2,3,4,5,6,7,8,9,10,11,12,13,14,0,1,2,3,4,5,6,7,8,9,10,11,12,13,14,0,1,2,3,4,5,6,7,8,9,10,11,12,13,14,0,1,2,3,4,5,6,7,8,9,10,11,12,13,14,0,1,2,3,4,5,6,7,8,9,10,11,12,13,14,0,1,2,3,4,5,6,7,8,9,10,11,12,13,14,0,1,2,3,4,5,6,7,8,9,10,11,12,13,14,0,1,2,3,4,5,6,7,8,9,10,11,12,13,14,0,1,2,3,4,5,6,7,8,9,10,11,12,13,14,0,1,2,3,4,5,6,7,8,9,10,11,12,13,14,0,1,2,3,4,5,6,7,8,9,10,11,12,13,14,0,1,2,3,4,5,6,7,8,9,10,11,12,13,14,0,1,2,3,4,5,6,7,8,9,10,11,12,13,14,0,1,2,3,4,5,6,7,8,9,10,11,12,13,14,0,1,2,3,4,5,6,7,8,9,10,11,12,13,14,0,1,2,3,4,5,6,7,8,9,10,11,12,13,14,0,1,2,3,4,5,6,7,8,9,10,11,12,13,14,0,1,2,3,4,5,6,7,8,9,10,11,12,13,14,0,1,2,3,4,5,6,7,8,9,10,11,12,13,14,0,1,2,3,4,5,6,7,8,9,10,11,12,13,14,0,1,2,3,4,5,6,7,8,9,10,11,12,13,14,0,1,2,3,4,5,6,7,8,9,10,11,12,13,14,0,1,2,3,4,5,6,7,8,9,10,11,12,13,14,0,1,2,3,4,5,6,7,8,9,10,11,12,13,14,0,1,2,3,4,5,6,7,8,9,10,11,12,13,14,0,1,2,3,4,5,6,7,8,9,10,11,12,13,14,0,1,2,3,4,5,6,7,8,9,10,11,12,13,14,0,1,2,3,4,5,6,7,8,9,10,11,12,13,14,0,1,2,3,4,5,6,7,8,9,10,11,12,13,14,0,1,2,3,4,5,6,7,8,9,10,11,12,13,14,0,1,2,3,4,5,6,7,8,9,10,11,12,13,14,0,1,2,3,4,5,6,7,8,9,10,11,12,13,14,0,1,2,3,4,5,6,7,8,9,10,11,12,13,14,0,1,2,3,4,5,6,7,8,9,10,11,12,13,14,0,1,2,3,4,5,6,7,8,9,10,11,12,13,14,0,1,2,3,4,5,6,7,8,9,10,11,12,13,14,0,1,2,3,4,5,6,7,8,9,10,11,12,13,14,0,1,2,3,4,5,6,7,8,9,10,11,12,13,14,0,1,2,3,4,5,6,7,8,9,10,11,12,13,14,0,1,2,3,4,5,6,7,8,9,10,11,12,13,14,0,1,2,3,4,5,6,7,8,9,10,11,12,13,14,0,1,2,3,4,5,6,7,8,9,10,11,12,13,14,0,1,2,3,4,5,6,7,8,9,10,11,12,13,14,0,1,2,3,4,5,6,7,8,9,10,11,12,13,14,0,1,2,3,4,5,6,7,8,9,10,11,12,13,14,0,1,2,3,4,5,6,7,8,9,10,11,12,13,14,0,1,2,3,4,5,6,7,8,9,10,11,12,13,14,0,1,2,3,4,5,6,7,8,9,10,11,12,13,14,0,1,2,3,4,5,6,7,8,9,10,11,12,13,14,0,1,2,3,4,5,6,7,8,9,10,11,12,13,14,0,1,2,3,4,5,6,7,8,9,10,11,12,13,14,0,1,2,3,4,5,6,7,8,9,10,11,12,13,14,0,1,2,3,4,5,6,7,8,9,10,11,12,13,14,0,1,2,3,4,5,6,7,8,9,10,11,12,13,14,0,1,2,3,4,5,6,7,8,9,10,11,12,13,14,0,1,2,3,4,5,6,7,8,9,10,11,12,13,14,0,1,2,3,4,5,6,7,8,9,10,11,12,13,14,0,1,2,3,4,5,6,7,8,9,10,11,12,13,14,0,1,2,3,4,5,6,7,8,9,10,11,12,13,14,0,1,2,3,4,5,6,7,8,9,10,11,12,13,14,0,1,2,3,4,5,6,7,8,9,10,11,12,13,14,0,1,2,3,4,5,6,7,8,9,10,11,12,13,14,0,1,2,3,4,5,6,7,8,9,10,11,12,13,14,0,1,2,3,4,5,6,7,8,9,10,11,12,13,14,0,1,2,3,4,5,6,7,8,9,10,11,12,13,14,0,1,2,3,4,5,6,7,8,9,10,11,12,13,14,0,1,2,3,4,5,6,7,8,9,10,11,12,13,14,0,1,2,3,4,5,6,7,8,9,10,11,12,13,14,0,1,2,3,4,5,6,7,8,9,10,11,12,13,14],"trees":[{"base_weights":[2.8432703E0,3.1623814E0,-5.1757437E-1,1.9131802E0,3.6340332E0,-5.7396793E-1,3.652284E0,9.17213E-1,3.4217591E0,7.637402E-1,3.6518304E0,-5.7652366E-1,3.2747468E-1,3.6623773E-1,3.6437627E-2,2.2396264E0,-3.78693E-1,3.532166E0,1.7567344E0,3.2380838E0,-2.1291472E-1,3.6561759E0,1.5481683E0,3.1988534E-1,-5.782017E-1,4.950999E-2,3.6800036E-1,-5.0042666E-2,3.6448428E-1,1.801828E-1,3.583773E-1,-5.6966927E-2,3.675015E-1,8.064679E-2,3.6404833E-1,-5.4587036E-2,3.6021432E-1,2.4800909E-1,3.6628494E-1,3.61977E-1,-5.728645E-2,-5.783668E-2,1.3743654E-1],"categories":[],"categories_nodes":[],"categories_segments":[],"categories_sizes":[],"default_left":[0,0,0,0,0,0,0,0,0,0,0,0,0,0,0,0,0,0,0,0,0,0,0,0,0,0,0,0,0,0,0,0,0,0,0,0,0,0,0,0,0,0,0],"id":0,"left_children":[1,3,5,7,9,11,13,15,17,19,21,23,-1,-1,-1,25,27,29,31,33,35,37,39,-1,41,-1,-1,-1,-1,-1,-1,-1,-1,-1,-1,-1,-1,-1,-1,-1,-1,-1,-1],"loss_changes":[4.5587375E5,2.2870675E5,8.670654E3,1.5986103E5,1.438725E4,3.601787E2,1.1645508E1,1.09840516E5,7.7630312E3,4.2058984E3,2.54575E3,2.3266504E2,0E0,0E0,0E0,7.970605E4,1.5858123E4,3.5275625E3,1.1766926E4,4.7379004E2,1.5886277E3,2.1725E3,2.5585508E3,0E0,1.2905273E1,0E0,0E0,0E0,0E0,0E0,0E0,0E0,0E0,0E0,0E0,0E0,0E0,0E0,0E0,0E0,0E0,0E0,0E0],"parents":[2147483647,0,0,1,1,2,2,3,3,4,4,5,5,6,6,7,7,8,8,9,9,10,10,11,11,15,15,16,16,17,17,18,18,19,19,20,20,21,21,22,22,24,24],"right_children":[2,4,6,8,10,12,14,16,18,20,22,24,-1,-1,-1,26,28,30,32,34,36,38,40,-1,42,-1,-1,-1,-1,-1,-1,-1,-1,-1,-1,-1,-1,-1,-1,-1,-1,-1,-1],"split_conditions":[1.4361926E3,8E0,8.8E1,2.4E1,2.2E1,2.45E2,2.987E3,6E0,1E0,3E0,4.3269675E6,2.27E2,3.2747468E-1,3.6623773E-1,3.6437627E-2,8.8E1,3.4641016E0,2.4E1,8.8E1,2.1529996E0,1E1,2.4E1,6.744263E6,3.1988534E-1,1E1,4.950999E-2,3.6800036E-1,-5.0042666E-2,3.6448428E-1,1.801828E-1,3.583773E-1,-5.6966927E-2,3.675015E-1,8.064679E-2,3.6404833E-1,-5.4587036E-2,3.6021432E-1,2.4800909E-1,3.6628494E-1,3.61977E-1,-5.728645E-2,-5.783668E-2,1.3743654E-1],"split_indices":[13,52,0,35,0,67,6,39,43,24,71,67,0,0,0,0,9,0,0,37,2,0,29,0,3,0,0,0,0,0,0,0,0,0,0,0,0,0,0,0,0,0,0],"split_type":[0,0,0,0,0,0,0,0,0,0,0,0,0,0,0,0,0,0,0,0,0,0,0,0,0,0,0,0,0,0,0,0,0,0,0,0,0,0,0,0,0,0,0],"sum_hessian":[4.2505778E5,3.8819872E5,3.6859066E4,1.0640069E5,2.8179803E5,3.636905E4,4.9001413E2,6.4091125E4,4.2309562E4,1.7372374E3,2.800608E5,3.6346746E4,2.2305387E1,4.8813577E2,1.8783484E0,3.1720607E4,3.2370516E4,3.9676117E4,2.6334443E3,4.904837E2,1.2467537E3,2.794818E5,5.7900085E2,1.4322406E1,3.633242E4,1.434706E4,1.7373549E4,3.1421715E4,9.488007E2,1.1514275E3,3.852469E4,1.1906381E3,1.4428063E3,7.067286E1,4.1981085E2,1.1483752E3,9.8378494E1,1.5815693E3,2.7790022E5,2.9231796E2,2.8668292E2,3.6331016E4,1.4087613E0],"tree_param":{"num_deleted":"0","num_feature":"78","num_nodes":"43","size_leaf_vector":"1"}},{"base_weights":[-5.2640164E-1,-5.296782E-1,-4.715887E-1,-5.082717E-1,-5.3192085E-1,-1.3407221E-1,-5.3205717E-2,-5.3230096E-2,-4.4348842E-1,-5.320781E-2,-4.8793814E-1,-2.9553735E-1,2.2419152E0,2.0353723E0,-5.216708E-1,-5.2691143E-2,8.5452074E-1,-5.2845466E-1,9.286827E-1,6.988115E-1,2.6809967E0,-5.1425606E-2,5.1109236E-1,-0E0,-5.2207023E-2,-3.7046697E-2,4.2762923E-1,-5.2987136E-2,-0E0,7.3671687E-1,-3.6503393E-2,-3.7045803E-2,1.1609814E-1,2.7869284E-1,-2.8286998E-3],"categories":[],"categories_nodes":[],"categories_segments":[],"categories_sizes":[],"default_left":[0,0,0,0,0,0,0,0,0,0,0,0,0,0,0,0,0,0,0,0,0,0,0,0,0,0,0,0,0,0,0,0,0,0,0],"id":1,"left_children":[1,3,5,7,9,11,-1,-1,13,-1,15,17,19,21,23,-1,25,27,29,31,33,-1,-1,-1,-1,-1,-1,-1,-1,-1,-1,-1,-1,-1,-1],"loss_changes":[3.6164062E1,8.316406E0,2.3827026E2,2.795996E1,1.9140625E-1,6.837226E2,0E0,0E0,9.7893475E2,0E0,3.5513885E1,4.7694043E2,7.138623E1,1.2185845E3,8.236084E-1,0E0,8.5406105E1,9.821167E-1,2.2354492E3,1.5128914E1,2.6595032E1,0E0,0E0,0E0,0E0,0E0,0E0,0E0,0E0,0E0,0E0,0E0,0E0,0E0,0E0],"parents":[2147483647,0,0,1,1,2,2,3,3,4,4,5,5,8,8,10,10,11,11,12,12,13,13,14,14,16,16,17,17,18,18,19,19,20,20],"right_children":[2,4,6,8,10,12,-1,-1,14,-1,16,18,20,22,24,-1,26,28,30,32,34,-1,-1,-1,-1,-1,-1,-1,-1,-1,-1,-1,-1,-1,-1],"split_conditions":[5.4E2,2.4E1,5.44691E5,2.37E2,1.6364E4,2.6258838E5,-5.3205717E-2,-5.3230096E-2,2.42E2,-5.320781E-2,1.9115957E3,3.9660367E4,4.4395044E2,2.56E2,2.45E2,-5.2691143E-2,1.610306E2,3.8326195E4,1.0721E5,9.92137E5,7.08E2,-5.1425606E-2,5.1109236E-1,-0E0,-5.2207023E-2,-3.7046697E-2,4.2762923E-1,-5.2987136E-2,-0E0,7.3671687E-1,-3.6503393E-2,-3.7045803E-2,1.1609814E-1,2.7869284E-1,-2.8286998E-3],"split_indices":[29,34,18,66,4,17,0,0,66,0,41,27,27,67,66,0,37,27,1,25,19,0,0,0,0,0,0,0,0,0,0,0,0,0,0],"split_type":[0,0,0,0,0,0,0,0,0,0,0,0,0,0,0,0,0,0,0,0,0,0,0,0,0,0,0,0,0,0,0,0,0,0,0],"sum_hessian":[2.069111E5,1.952151E5,1.1696006E4,1.8576084E4,1.76639E5,1.779285E3,9.916721E3,1.3533956E4,5.042127E3,1.7597631E5,6.6270044E2,1.667901E3,1.11383995E2,1.5243826E2,4.889689E3,6.455469E2,1.7153593E1,1.4025922E3,2.653089E2,2.6073462E1,8.531053E1,8.416696E1,6.82713E1,4.459934E0,4.885229E3,1.3837232E1,3.3163612E0,1.3985896E3,4.002505E0,4.2883984E1,2.2242493E2,7.661938E0,1.8411524E1,8.2222885E1,3.0876467E0],"tree_param":{"num_deleted":"0","num_feature":"78","num_nodes":"35","size_leaf_vector":"1"}},{"base_weights":[-1.5488629E-1,-3.8119557E-1,5.254352E0,3.2775435E-1,-5.228227E-1,7.8457785E0,-5.334101E-2,-4.8650187E-1,6.097384E0,-5.300496E-1,7.6397033E-3,7.851293E-1,-2.6976531E-2,-5.301047E-1,1.205806E0,-5.082174E-1,7.6142526E0,-5.3163904E-1,-9.5053524E-2,7.5071135E0,-5.332711E-2,-5.323691E-2,-1.8558426E-2,4.1921067E-1,-5.3073943E-2,-3.9150443E-2,-5.316032E-2,7.842083E-1,-5.17713E-2,-5.3271946E-2,-3.998363E-2,-5.262384E-2,6.8850154E-1,-2.9388443E-2,7.747189E-1],"categories":[],"categories_nodes":[],"categories_segments":[],"categories_sizes":[],"default_left":[0,0,0,0,0,0,0,0,0,0,0,0,0,0,0,0,0,0,0,0,0,0,0,0,0,0,0,0,0,0,0,0,0,0,0],"id":2,"left_children":[1,3,5,7,9,11,-1,13,15,17,19,-1,-1,21,23,25,27,29,31,33,-1,-1,-1,-1,-1,-1,-1,-1,-1,-1,-1,-1,-1,-1,-1],"loss_changes":[2.639943E5,2.0783977E4,1.2990078E5,1.619313E5,6.616836E2,2.7575E2,0E0,2.2298027E3,4.2724297E4,1.1726953E2,9.422495E3,0E0,0E0,2.2417969E1,3.9425134E3,1.2999878E0,6.4350156E3,2.3257812E1,1.8798466E3,3.0094434E2,0E0,0E0,0E0,0E0,0E0,0E0,0E0,0E0,0E0,0E0,0E0,0E0,0E0,0E0,0E0],"parents":[2147483647,0,0,1,1,2,2,3,3,4,4,5,5,7,7,8,8,9,9,10,10,13,13,14,14,15,15,16,16,17,17,18,18,19,19],"right_children":[2,4,6,8,10,12,-1,14,16,18,20,-1,-1,22,24,26,28,30,32,34,-1,-1,-1,-1,-1,-1,-1,-1,-1,-1,-1,-1,-1,-1,-1],"split_conditions":[1.9335E3,1E0,2.3E1,2.5702156E5,1.0092E3,1.1632E4,-5.334101E-2,1.0542729E4,2E0,3.8E7,3E1,7.851293E-1,-2.6976531E-2,4.9960864E3,8.8E1,2.58E2,8.8E1,1.020465E6,1.1601E4,2E1,-5.332711E-2,-5.323691E-2,-1.8558426E-2,4.1921067E-1,-5.3073943E-2,-3.9150443E-2,-5.316032E-2,7.842083E-1,-5.17713E-2,-5.3271946E-2,-3.998363E-2,-5.262384E-2,6.8850154E-1,-2.9388443E-2,7.747189E-1],"split_indices":[12,3,6,22,40,5,0,22,7,75,4,0,0,17,0,66,0,73,5,6,0,0,0,0,0,0,0,0,0,0,0,0,0,0,0],"split_type":[0,0,0,0,0,0,0,0,0,0,0,0,0,0,0,0,0,0,0,0,0,0,0,0,0,0,0,0,0,0,0,0,0,0,0],"sum_hessian":[2.1564998E5,2.0699189E5,8.658083E3,3.4464594E4,1.725273E5,5.9799717E3,2.6781116E3,3.0203744E4,4.260849E3,1.7020934E5,2.3179543E3,5.976037E3,3.9341917E0,2.944671E4,7.570339E2,7.958989E2,3.46495E3,1.6958811E5,6.212446E2,1.54268E2,2.1636863E3,2.9251908E4,1.9480211E2,2.7742014E2,4.7961374E2,1.423462E2,6.5355273E2,3.3706487E3,9.4301384E1,1.6819945E5,1.3886505E3,5.8690985E2,3.4334763E1,4.5302815E0,1.4973772E2],"tree_param":{"num_deleted":"0","num_feature":"78","num_nodes":"35","size_leaf_vector":"1"}},{"base_weights":[-5.007834E-1,-5.08036E-1,1.356814E0,-5.236467E-1,-5.1067445E-2,-3.5917902E-1,6.9817147E0,-5.2473813E-1,-7.83272E-2,7.9935746E0,-5.3165555E-1,-4.8452637E-1,2.3773992E0,-4.7116358E-2,8.049639E-1,-5.2978474E-1,-4.3973085E-1,-5.2916475E-2,7.539605E-1,-2.9898623E-2,8.098916E0,-9.310104E-2,-5.322754E-2,-5.2965518E-2,1.2015797E-2,-4.4357326E-2,6.24059E-1,-5.317809E-2,-5.0468683E-2,-5.3126633E-2,2.3062573E-1,-1.2440053E-2,8.140735E-1,9.730727E-2,-3.979787E-2,-3.2211766E-2,2.1999216E-1],"categories":[],"categories_nodes":[],"categories_segments":[],"categories_sizes":[],"default_left":[0,0,0,0,0,0,0,0,0,0,0,0,0,0,0,0,0,0,0,0,0,0,0,0,0,0,0,0,0,0,0,0,0,0,0,0,0],"id":3,"left_children":[1,3,5,7,9,11,13,15,17,19,21,23,25,-1,-1,27,29,-1,-1,-1,31,33,-1,-1,35,-1,-1,-1,-1,-1,-1,-1,-1,-1,-1,-1,-1],"loss_changes":[2.7971602E3,1.4744805E3,7.8021885E3,9.677734E1,2.642071E4,2.1421872E2,1.5149863E3,8.460156E1,1.6950017E3,3.4526562E2,1.3413086E0,1.360907E1,3.064145E2,0E0,0E0,8.375E0,2.8149656E3,0E0,0E0,0E0,1.3689453E2,4.6036315E0,0E0,0E0,3.9363007E1,0E0,0E0,0E0,0E0,0E0,0E0,0E0,0E0,0E0,0E0,0E0,0E0],"parents":[2147483647,0,0,1,1,2,2,3,3,4,4,5,5,6,6,7,7,8,8,9,9,10,10,11,11,12,12,15,15,16,16,20,20,21,21,24,24],"right_children":[2,4,6,8,10,12,14,16,18,20,22,24,26,-1,-1,28,30,-1,-1,-1,32,34,-1,-1,36,-1,-1,-1,-1,-1,-1,-1,-1,-1,-1,-1,-1],"split_conditions":[3.272101E6,1.1632E4,9.933363E6,3.33E7,9E0,5.019877E6,6.4E1,5.4E2,1.26E2,5.786857E5,1E1,4.734485E-1,3.1E1,-4.7116358E-2,8.049639E-1,1.2053065E6,8.728571E2,-5.2916475E-2,7.539605E-1,-2.9898623E-2,1.46E4,6.3E2,-5.322754E-2,-5.2965518E-2,4.032898E6,-4.4357326E-2,6.24059E-1,-5.317809E-2,-5.0468683E-2,-5.3126633E-2,2.3062573E-1,-1.2440053E-2,8.140735E-1,9.730727E-2,-3.979787E-2,-3.2211766E-2,2.1999216E-1],"split_indices":[19,5,74,16,3,74,34,29,6,26,3,36,69,0,0,26,12,0,0,0,66,40,0,0,18,0,0,0,0,0,0,0,0,0,0,0,0],"split_type":[0,0,0,0,0,0,0,0,0,0,0,0,0,0,0,0,0,0,0,0,0,0,0,0,0,0,0,0,0,0,0,0,0,0,0,0,0],"sum_hessian":[2.0754625E5,2.0674078E5,8.0546246E2,1.9991019E5,6.830606E3,6.185456E2,1.8691682E2,1.9941995E5,4.9022665E2,3.8323682E2,6.447369E3,5.932029E2,2.534271E1,2.3507944E1,1.6340887E2,1.8822903E5,1.1190929E4,4.646546E2,2.5572056E1,4.7015886E0,3.7853525E2,1.0664579E1,6.4367046E3,5.445816E2,4.8621307E1,1.5595514E1,9.747196E0,1.7430567E5,1.39233545E4,1.0831658E4,3.592702E2,1.8347664E0,3.7670047E2,1.0320561E0,9.632524E0,4.346103E1,5.16028E0],"tree_param":{"num_deleted":"0","num_feature":"78","num_nodes":"37","size_leaf_vector":"1"}},{"base_weights":[1.2382897E-1,-2.4153496E-1,6.3154197E0,9.5903045E-1,-4.3032312E-1,-4.8183462E-1,7.3319507E0,3.2268398E0,-5.352379E-2,-5.045639E-1,1.0913905E0,1.0361141E0,-5.324136E-1,-3.2933775E-1,7.5739856E0,5.761258E0,-3.8275328E-1,-5.3435063E-1,1.0591712E0,6.4232793E0,-5.3508688E-2,-4.9831625E-2,6.283679E-1,5.309091E-2,-5.3432453E-2,5.677435E-1,-5.3048134E-2,7.5748444E-1,-3.021517E-3,-5.3383525E-2,6.935466E-1,-4.376779E-2,6.555609E-1,-5.3495526E-2,1.600149E-2,7.3944044E-1,-5.347233E-2,-5.2965946E-2,7.546608E-1,-2.1858115E-2,6.1297238E-2],"categories":[],"categories_nodes":[],"categories_segments":[],"categories_sizes":[],"default_left":[0,0,0,0,0,0,0,0,0,0,0,0,0,0,0,0,0,0,0,0,0,0,0,0,0,0,0,0,0,0,0,0,0,0,0,0,0,0,0,0,0],"id":4,"left_children":[1,3,5,7,9,11,13,15,-1,17,19,21,23,25,27,29,31,33,35,37,-1,-1,-1,39,-1,-1,-1,-1,-1,-1,-1,-1,-1,-1,-1,-1,-1,-1,-1,-1,-1],"loss_changes":[5.0445375E5,4.7726293E4,8.586656E4,9.696492E4,2.0557102E4,1.2509955E2,2.005225E4,1.0397787E5,0E0,8.081992E3,7.34167E4,4.3224457E2,2.0514526E0,4.056453E2,7.26875E1,4.9366797E4,1.7899543E3,7.183984E1,3.2761996E4,1.5466664E4,0E0,0E0,0E0,1.3881646E0,0E0,0E0,0E0,0E0,0E0,0E0,0E0,0E0,0E0,0E0,0E0,0E0,0E0,0E0,0E0,0E0,0E0],"parents":[2147483647,0,0,1,1,2,2,3,3,4,4,5,5,6,6,7,7,9,9,10,10,11,11,12,12,13,13,14,14,15,15,16,16,17,17,18,18,19,19,23,23],"right_children":[2,4,6,8,10,12,14,16,-1,18,20,22,24,26,28,30,32,34,36,38,-1,-1,-1,40,-1,-1,-1,-1,-1,-1,-1,-1,-1,-1,-1,-1,-1,-1,-1,-1,-1],"split_conditions":[8.22E7,3E0,2.35E2,8.8E1,1.5477377E3,2E0,1.0822556E3,1.8957632E3,-5.352379E-2,1E0,1.1601E4,7.2E1,1.8E1,4.4E0,2.36E2,6.4E1,2.19E7,1.4361926E3,8.8E1,1.1595E4,-5.3508688E-2,-4.9831625E-2,6.283679E-1,1.16117944E8,-5.3432453E-2,5.677435E-1,-5.3048134E-2,7.5748444E-1,-3.021517E-3,-5.3383525E-2,6.935466E-1,-4.376779E-2,6.555609E-1,-5.3495526E-2,1.600149E-2,7.3944044E-1,-5.347233E-2,-5.2965946E-2,7.546608E-1,-2.1858115E-2,6.1297238E-2],"split_indices":[74,52,67,0,13,40,13,16,0,43,65,34,4,40,67,34,22,13,0,65,0,0,0,1,0,0,0,0,0,0,0,0,0,0,0,0,0,0,0,0,0],"split_type":[0,0,0,0,0,0,0,0,0,0,0,0,0,0,0,0,0,0,0,0,0,0,0,0,0,0,0,0,0,0,0,0,0,0,0,0,0,0,0,0,0],"sum_hessian":[2.2298942E5,2.1056584E5,1.2423587E4,2.8610643E4,1.819552E5,1.6163138E3,1.0807272E4,1.1363139E4,1.7247502E4,1.7349258E5,8.462625E3,5.054448E1,1.5657694E3,3.3088144E2,1.0476392E4,6.6752E3,4.687939E3,1.7025119E5,3.2413806E3,1.9767823E3,6.4858433E3,4.0435585E1,1.0108896E1,4.0682144E0,1.5617012E3,8.876104E0,3.2200534E2,1.0475282E4,1.109513E0,1.049476E3,5.625724E3,4.653051E3,3.488802E1,1.7010425E5,1.4694884E2,6.501746E2,2.591206E3,2.7503595E2,1.7017463E3,2.9587014E0,1.109513E0],"tree_param":{"num_deleted":"0","num_feature":"78","num_nodes":"41","size_leaf_vector":"1"}},{"base_weights":[-5.1551235E-1,-5.2443206E-1,3.356738E0,-5.27343E-1,1.9761317E0,6.71637E0,-4.0200588E-1,-5.281607E-1,4.018005E0,-5.2270677E-2,6.815215E0,7.978404E0,-4.9266424E-2,-5.2543756E-2,4.411106E-1,-5.287307E-1,-1.931452E-1,7.4100745E-1,-4.4510357E-2,7.9639024E-1,-4.130515E-2,8.0140156E-1,1.8912809E-1,-5.292778E-2,-3.6708657E-2,-2.832897E-2,5.1635647E-1],"categories":[],"categories_nodes":[],"categories_segments":[],"categories_sizes":[],"default_left":[0,0,0,0,0,0,0,0,0,0,0,0,0,0,0,0,0,0,0,0,0,0,0,0,0,0,0],"id":5,"left_children":[1,3,5,7,9,11,13,15,17,-1,19,21,-1,-1,-1,23,25,-1,-1,-1,-1,-1,-1,-1,-1,-1,-1],"loss_changes":[7.1587695E3,1.5061445E3,6.023727E3,7.6997656E2,2.9196167E3,2.301627E3,1.3733214E2,3.8859375E1,5.742133E2,0E0,6.923943E2,1.1205078E1,0E0,0E0,0E0,1.7386719E1,1.7206116E2,0E0,0E0,0E0,0E0,0E0,0E0,0E0,0E0,0E0,0E0],"parents":[2147483647,0,0,1,1,2,2,3,3,4,4,5,5,6,6,7,7,8,8,10,10,11,11,15,15,16,16],"right_children":[2,4,6,8,10,12,14,16,18,-1,20,22,-1,-1,-1,24,26,-1,-1,-1,-1,-1,-1,-1,-1,-1,-1],"split_conditions":[6.6476785E6,4.99E7,1.1192387E-1,3.56E2,1.7089568E2,8.8E1,2.7E7,3.7751652E6,8.8E1,-5.2270677E-2,6E0,7.015888E6,-4.9266424E-2,-5.2543756E-2,4.411106E-1,1.6618572E3,2.95E7,7.4100745E-1,-4.4510357E-2,7.9639024E-1,-4.130515E-2,8.0140156E-1,1.8912809E-1,-5.292778E-2,-3.6708657E-2,-2.832897E-2,5.1635647E-1],"split_indices":[70,27,15,38,9,0,29,71,0,0,5,73,0,0,0,52,27,0,0,0,0,0,0,0,0,0,0],"split_type":[0,0,0,0,0,0,0,0,0,0,0,0,0,0,0,0,0,0,0,0,0,0,0,0,0,0,0],"sum_hessian":[2.0720205E5,2.067277E5,4.7433597E2,2.0648911E5,2.3859912E2,2.4970474E2,2.2463123E2,2.0645384E5,3.526321E1,1.5845546E2,8.014366E1,2.1238069E2,3.7324047E1,2.2085303E2,3.778201E0,2.0610053E5,3.5331903E2,1.9348969E1,1.5914241E1,6.903804E1,1.1105621E1,2.1043436E2,1.946346E0,2.0539767E5,7.0285986E2,3.4942636E2,3.892692E0],"tree_param":{"num_deleted":"0","num_feature":"78","num_nodes":"27","size_leaf_vector":"1"}},{"base_weights":[-5.144116E-1,-5.1989985E-1,2.6591504E0,-5.230495E-1,8.93395E-1,-5.2529853E-2,7.5376883E0,-5.2810854E-1,-9.660156E-2,-5.284026E-2,7.9817545E-1,8.06621E-1,-3.862391E-2,-5.284407E-1,6.64029E-1,-5.277818E-2,2.2022226E0,-5.305462E-2,-4.8344124E-2,-4.8066646E-2,6.371638E-1,7.98207E-1,-5.226794E-2],"categories":[],"categories_nodes":[],"categories_segments":[],"categories_sizes":[],"default_left":[0,0,0,0,0,0,0,0,0,0,0,0,0,0,0,0,0,0,0,0,0,0,0],"id":6,"left_children":[1,3,5,7,9,-1,11,13,15,-1,-1,-1,-1,17,19,-1,21,-1,-1,-1,-1,-1,-1],"loss_changes":[3.611707E3,9.2176953E2,5.572958E3,4.449922E2,4.6528745E3,0E0,6.02999E2,8.14375E1,2.4042554E3,0E0,0E0,0E0,0E0,1.8308594E1,3.8347104E2,0E0,6.045177E3,0E0,0E0,0E0,0E0,0E0,0E0],"parents":[2147483647,0,0,1,1,2,2,3,3,4,4,6,6,7,7,8,8,13,13,14,14,16,16],"right_children":[2,4,6,8,10,-1,12,14,16,-1,-1,-1,-1,18,20,-1,22,-1,-1,-1,-1,-1,-1],"split_conditions":[4.3269675E6,9.88E7,1.64E7,3.39881E5,1E0,-5.2529853E-2,3.184E3,3.33E7,1.12E2,-5.284026E-2,7.9817545E-1,8.06621E-1,-3.862391E-2,1E0,1E0,-5.277818E-2,4E0,-5.305462E-2,-4.8344124E-2,-4.8066646E-2,6.371638E-1,7.98207E-1,-5.226794E-2],"split_indices":[71,26,26,19,44,0,4,16,34,0,0,0,0,44,44,0,2,0,0,0,0,0,0],"split_type":[0,0,0,0,0,0,0,0,0,0,0,0,0,0,0,0,0,0,0,0,0,0,0],"sum_hessian":[2.0726445E5,2.0690847E5,3.5598972E2,2.0645E5,4.5846988E2,2.1641061E2,1.3957912E2,2.040279E5,2.4220813E3,3.8335593E2,7.5113945E1,1.3087689E2,8.702226E0,2.0397261E5,5.530493E1,2.0410154E3,3.8106586E2,1.9482439E5,9.148215E3,4.751873E1,7.7862015E0,1.2091513E2,2.6015073E2],"tree_param":{"num_deleted":"0","num_feature":"78","num_nodes":"23","size_leaf_vector":"1"}},{"base_weights":[-5.0778025E-1,3.4124365E0,-5.324774E-2,-5.00091E-1,6.201116E0,-5.146815E-1,6.8383235E-1,8.155776E0,-5.2342355E-2,-5.2392483E-2,3.7607387E-1,2.2930637E-1,-2.7211318E-2,1.843913E-1,8.165906E-1,1.23650566E-1,-2.1818563E-2],"categories":[],"categories_nodes":[],"categories_segments":[],"categories_sizes":[],"default_left":[0,0,0,0,0,0,0,0,0,0,0,0,0,0,0,0,0],"id":7,"left_children":[1,3,-1,5,7,9,11,13,-1,-1,15,-1,-1,-1,-1,-1,-1],"loss_changes":[2.008148E4,1.4176922E4,0E0,9.984436E0,9.980518E3,4.8902893E0,1.3090937E1,2.4570312E0,0E0,0E0,4.180585E0,0E0,0E0,0E0,0E0,0E0,0E0],"parents":[2147483647,0,0,1,1,3,3,4,4,5,5,6,6,7,7,10,10],"right_children":[2,4,-1,6,8,10,12,14,-1,-1,16,-1,-1,-1,-1,-1,-1],"split_conditions":[2.2E1,7E0,-5.324774E-2,7.908776E5,1E1,3.7229E4,1.0303918E6,6.928203E0,-5.2342355E-2,-5.2392483E-2,9.21E4,2.2930637E-1,-2.7211318E-2,1.843913E-1,8.165906E-1,1.23650566E-1,-2.1818563E-2],"split_indices":[0,8,0,27,2,19,16,9,0,0,23,0,0,0,0,0,0],"split_type":[0,0,0,0,0,0,0,0,0,0,0,0,0,0,0,0,0],"sum_hessian":[2.0738989E5,1.2965198E3,2.0609336E5,5.401497E2,7.5637006E2,5.3510803E2,5.041703E0,5.857542E2,1.7061581E2,5.3098303E2,4.12503E0,1.0312575E0,4.0104456E0,1.6041783E0,5.841501E2,1.1458416E0,2.9791882E0],"tree_param":{"num_deleted":"0","num_feature":"78","num_nodes":"17","size_leaf_vector":"1"}},{"base_weights":[-5.323513E-1],"categories":[],"categories_nodes":[],"categories_segments":[],"categories_sizes":[],"default_left":[0],"id":8,"left_children":[-1],"loss_changes":[0E0],"parents":[2147483647],"right_children":[-1],"split_conditions":[-5.3235132E-2],"split_indices":[0],"split_type":[0],"sum_hessian":[2.0678942E5],"tree_param":{"num_deleted":"0","num_feature":"78","num_nodes":"1","size_leaf_vector":"1"}},{"base_weights":[-5.322647E-1],"categories":[],"categories_nodes":[],"categories_segments":[],"categories_sizes":[],"default_left":[0],"id":9,"left_children":[-1],"loss_changes":[0E0],"parents":[2147483647],"right_children":[-1],"split_conditions":[-5.322647E-2],"split_indices":[0],"split_type":[0],"sum_hessian":[2.0692464E5],"tree_param":{"num_deleted":"0","num_feature":"78","num_nodes":"1","size_leaf_vector":"1"}},{"base_weights":[-6.754193E-2,-4.8074746E-1,2.6256607E0,-9.457143E-2,-5.319864E-1,-5.3416293E-2,6.2544255E0,-5.038449E-1,7.430043E0,-5.338452E-2,-4.4263995E-1,7.716731E-1,-5.337379E-2,-5.0740397E-1,6.098001E-1,-4.9426448E-2,7.697358E-1,6.6067785E-1,-4.8363316E-1,-5.12922E-2,1.5577444E-1,1.9743497E-2,-5.3389788E-2],"categories":[],"categories_nodes":[],"categories_segments":[],"categories_sizes":[],"default_left":[0,0,0,0,0,0,0,0,0,0,0,0,0,0,0,0,0,0,0,0,0,0,0],"id":10,"left_children":[1,3,5,7,9,-1,11,13,15,-1,17,-1,-1,19,-1,-1,-1,-1,21,-1,-1,-1,-1],"loss_changes":[2.4258525E5,3.739207E3,3.324838E5,6.819334E4,2.6753906E1,0E0,1.3398488E5,4.9685742E2,2.430875E3,0E0,9.909189E2,0E0,0E0,2.4029541E2,0E0,0E0,0E0,0E0,1.16763306E2,0E0,0E0,0E0,0E0],"parents":[2147483647,0,0,1,1,2,2,3,3,4,4,6,6,7,7,8,8,10,10,13,13,18,18],"right_children":[2,4,6,8,10,-1,12,14,16,-1,18,-1,-1,20,-1,-1,-1,-1,22,-1,-1,-1,-1],"split_conditions":[1.3157895E4,4E0,1E0,3.7496414E4,2.92E4,-5.3416293E-2,2E0,4.180524E7,1E0,-5.338452E-2,2.4E1,7.716731E-1,-5.337379E-2,2.683671E3,6.098001E-1,-4.9426448E-2,7.697358E-1,6.6067785E-1,1.073E3,-5.12922E-2,1.5577444E-1,1.9743497E-2,-5.3389788E-2],"split_indices":[37,4,46,14,67,0,2,29,46,0,0,0,0,14,0,0,0,0,66,0,0,0,0],"split_type":[0,0,0,0,0,0,0,0,0,0,0,0,0,0,0,0,0,0,0,0,0,0,0],"sum_hessian":[2.17983E5,1.8898911E5,2.8993889E4,2.214008E4,1.6684903E5,1.54992E4,1.3494688E4,2.0999807E4,1.140274E3,1.634335E5,3.415523E3,1.1102738E4,2.39195E3,2.0990412E4,9.393892E0,3.7093834E1,1.1031802E3,1.782431E1,3.3976987E3,2.0936217E4,5.4195534E1,2.3243863E2,3.16526E3],"tree_param":{"num_deleted":"0","num_feature":"78","num_nodes":"23","size_leaf_vector":"1"}},{"base_weights":[-5.1422095E-1,9.54838E-1,-5.3245604E-2,2.756341E-1,8.124016E-1,-4.9474263E-1,2.6997828E0,-5.092413E-1,8.049777E-1,-5.2724417E-2,6.360656E0,-5.142599E-2,1.1275331E-2,-4.2176906E-2,2.906291E-1,7.451691E-1,-4.390995E-2],"categories":[],"categories_nodes":[],"categories_segments":[],"categories_sizes":[],"default_left":[0,0,0,0,0,0,0,0,0,0,0,0,0,0,0,0,0],"id":11,"left_children":[1,3,-1,5,-1,7,9,11,13,-1,15,-1,-1,-1,-1,-1,-1],"loss_changes":[5.5523477E3,1.2365382E4,0E0,4.3428125E3,0E0,3.392563E1,6.6344785E3,5.76947E0,5.489496E1,0E0,1.9608379E3,0E0,0E0,0E0,0E0,0E0,0E0],"parents":[2147483647,0,0,1,1,3,3,5,5,6,6,7,7,8,8,10,10],"right_children":[2,4,-1,6,-1,8,10,12,14,-1,16,-1,-1,-1,-1,-1,-1],"split_conditions":[2.4E1,4.69E2,-5.3245604E-2,8.368201E3,8.124016E-1,6.5E2,2.2E1,7.722008E3,4.8E1,-5.2724417E-2,1.1270906E0,-5.142599E-2,1.1275331E-2,-4.2176906E-2,2.906291E-1,7.451691E-1,-4.390995E-2],"split_indices":[0,6,0,37,0,24,0,37,34,0,14,0,0,0,0,0,0],"split_type":[0,0,0,0,0,0,0,0,0,0,0,0,0,0,0,0,0],"sum_hessian":[2.0723486E5,2.5392227E3,2.0469564E5,2.3214377E3,2.1778506E2,1.7626621E3,5.587756E2,1.7447996E3,1.7862497E1,2.9782278E2,2.6095276E2,1.7319752E3,1.2824357E1,1.2137338E1,5.7251596E0,2.2476976E2,3.6183006E1],"tree_param":{"num_deleted":"0","num_feature":"78","num_nodes":"17","size_leaf_vector":"1"}},{"base_weights":[-5.275436E-1,-5.314366E-1,-4.35076E-1,-5.3169228E-2,-3.590943E-1,6.0425144E-1,-5.32207E-2,-5.2373197E-2,4.640377E0,-4.0752274E-1,3.6818378E0,6.019959E-1,-1.4680936E-2,1.3165669E-1,-5.2663803E-2,4.7085495E0,-4.6306956E-1,-4.6614926E-2,3.1431156E-1,5.150425E-1,-4.1287728E-2,-0E0,-4.8804816E-2],"categories":[],"categories_nodes":[],"categories_segments":[],"categories_sizes":[],"default_left":[0,0,0,0,0,0,0,0,0,0,0,0,0,0,0,0,0,0,0,0,0,0,0],"id":12,"left_children":[1,3,5,-1,7,9,-1,-1,11,13,15,-1,-1,17,-1,19,21,-1,-1,-1,-1,-1,-1],"loss_changes":[7.357422E1,7.9257812E0,8.464684E2,0E0,2.524385E2,2.2360918E3,0E0,0E0,6.9262344E1,3.508172E1,7.6239795E2,0E0,0E0,1.8201308E2,0E0,3.2941797E2,4.7022724E-1,0E0,0E0,0E0,0E0,0E0,0E0],"parents":[2147483647,0,0,1,1,2,2,4,4,5,5,8,8,9,9,10,10,13,13,15,15,16,16],"right_children":[2,4,6,-1,8,10,-1,-1,12,14,16,-1,-1,18,-1,20,22,-1,-1,-1,-1,-1,-1],"split_conditions":[2.896E4,5.284E3,2.92E4,-5.3169228E-2,5.25E2,9.3E1,-5.32207E-2,-5.2373197E-2,4E7,1.981E3,1.981E3,6.019959E-1,-1.4680936E-2,6.5E2,-5.2663803E-2,2E0,3.352E3,-4.6614926E-2,3.1431156E-1,5.150425E-1,-4.1287728E-2,-0E0,-4.8804816E-2],"split_indices":[67,34,67,0,24,19,0,0,20,24,24,0,0,24,0,4,24,0,0,0,0,0,0],"split_type":[0,0,0,0,0,0,0,0,0,0,0,0,0,0,0,0,0,0,0,0,0,0,0],"sum_hessian":[2.0699266E5,1.9861572E5,8.376933E3,1.9831444E5,3.0128738E2,7.146285E2,7.6623037E3,2.935122E2,7.775158E0,5.390014E2,1.756271E2,5.717028E0,2.05813E0,9.673211E1,4.422693E2,1.4063889E2,3.4988213E1,8.198218E1,1.4749932E1,1.2954785E2,1.1091034E1,1.7151084E0,3.32731E1],"tree_param":{"num_deleted":"0","num_feature":"78","num_nodes":"23","size_leaf_vector":"1"}},{"base_weights":[-5.323224E-1],"categories":[],"categories_nodes":[],"categories_segments":[],"categories_sizes":[],"default_left":[0],"id":13,"left_children":[-1],"loss_changes":[0E0],"parents":[2147483647],"right_children":[-1],"split_conditions":[-5.323224E-2],"split_indices":[0],"split_type":[0],"sum_hessian":[2.067629E5],"tree_param":{"num_deleted":"0","num_feature":"78","num_nodes":"1","size_leaf_vector":"1"}},{"base_weights":[-5.303476E-1,-5.3225674E-2,-4.8482546E-1,2.02498E-2,-5.3219587E-2,-4.8758784E-1,1.6470314E0,-2.8524634E-1,-5.289293E-2,2.1629066E0,-4.8744347E-2,-4.910673E-2,8.914476E-2,5.277409E-2,2.7896973E-1],"categories":[],"categories_nodes":[],"categories_segments":[],"categories_sizes":[],"default_left":[0,0,0,0,0,0,0,0,0,0,0,0,0,0,0],"id":14,"left_children":[1,-1,3,5,-1,7,9,11,-1,13,-1,-1,-1,-1,-1],"loss_changes":[1.6941406E1,0E0,2.0021338E2,5.949989E2,0E0,3.8766022E0,1.9168384E2,2.4746555E1,0E0,1.3744708E2,0E0,0E0,0E0,0E0,0E0],"parents":[2147483647,0,0,2,2,3,3,5,5,6,6,7,7,9,9],"right_children":[2,-1,4,6,-1,8,10,12,-1,14,-1,-1,-1,-1,-1],"split_conditions":[2.896E4,-5.3225674E-2,2.92E4,9.3E1,-5.3219587E-2,9.84E2,9.156E3,6.5E2,-5.289293E-2,1.7453773E-1,-4.8744347E-2,-4.910673E-2,8.914476E-2,5.277409E-2,2.7896973E-1],"split_indices":[67,0,67,19,0,24,24,24,0,37,0,0,0,0,0],"split_type":[0,0,0,0,0,0,0,0,0,0,0,0,0,0,0],"sum_hessian":[2.0679164E5,1.984371E5,8.354553E3,7.155689E2,7.638984E3,5.4616425E2,1.6940465E2,9.739053E1,4.4877374E2,1.3659822E2,3.2806435E1,8.4245094E1,1.3145435E1,3.909338E1,9.750484E1],"tree_param":{"num_deleted":"0","num_feature":"78","num_nodes":"15","size_leaf_vector":"1"}},{"base_weights":[2.1252525E0,2.3068378E0,-5.278722E-1,1.5390441E0,2.5613139E0,-5.6815E-1,2.5945015E0,8.063329E-1,2.4506428E0,6.831823E-1,2.5705528E0,-5.702349E-1,2.3191555E-1,-2.8900034E-3,2.6018646E-1,1.7606761E0,-3.6752796E-1,2.5098734E0,1.4332886E0,2.3482127E0,-1.9393036E-1,2.5742662E0,1.3459474E0,2.2151159E-1,-5.712346E-1,4.71056E-2,2.5872105E-1,-4.9102936E-2,2.5709355E-1,2.5256854E-1,-4.4918407E-2,-5.603639E-2,2.585424E-1,2.4769202E-1,-5.236564E-2,-5.4097097E-2,2.5614333E-1,2.5764638E-1,1.3213314E-1,-6.6537643E-3,2.5867745E-1,-5.7135314E-2,9.495592E-2],"categories":[],"categories_nodes":[],"categories_segments":[],"categories_sizes":[],"default_left":[0,0,0,0,0,0,0,0,0,0,0,0,0,0,0,0,0,0,0,0,0,0,0,0,0,0,0,0,0,0,0,0,0,0,0,0,0,0,0,0,0,0,0],"id":15,"left_children":[1,3,5,7,9,11,13,15,17,19,21,23,-1,-1,-1,25,27,29,31,33,35,37,39,-1,41,-1,-1,-1,-1,-1,-1,-1,-1,-1,-1,-1,-1,-1,-1,-1,-1,-1,-1],"loss_changes":[2.558935E5,9.712075E4,4.2810713E3,8.2655625E4,6.4735E3,2.0399512E2,9.811035E0,7.686674E4,3.3137812E3,2.6755142E3,1.6805E3,9.519043E1,0E0,0E0,0E0,4.033628E4,1.116779E4,2.4413125E3,6.984452E3,2.3716968E2,1.1498774E3,1.01075E3,1.9783728E3,0E0,6.9472656E0,0E0,0E0,0E0,0E0,0E0,0E0,0E0,0E0,0E0,0E0,0E0,0E0,0E0,0E0,0E0,0E0,0E0,0E0],"parents":[2147483647,0,0,1,1,2,2,3,3,4,4,5,5,6,6,7,7,8,8,9,9,10,10,11,11,15,15,16,16,17,17,18,18,19,19,20,20,21,21,22,22,24,24],"right_children":[2,4,6,8,10,12,14,16,18,20,22,24,-1,-1,-1,26,28,30,32,34,36,38,40,-1,42,-1,-1,-1,-1,-1,-1,-1,-1,-1,-1,-1,-1,-1,-1,-1,-1,-1,-1],"split_conditions":[1.5477377E3,8E0,8.8E1,2.4E1,2.2E1,2.43E2,3.51E2,6E0,1E0,3E0,1.2991721E3,2.27E2,2.3191555E-1,-2.8900034E-3,2.6018646E-1,8.8E1,3.4641016E0,5.13E7,8.8E1,7.118055E6,1E1,4.3269675E6,8.8E1,2.2151159E-1,3.1088E4,4.71056E-2,2.5872105E-1,-4.9102936E-2,2.5709355E-1,2.5256854E-1,-4.4918407E-2,-5.603639E-2,2.585424E-1,2.4769202E-1,-5.236564E-2,-5.4097097E-2,2.5614333E-1,2.5764638E-1,1.3213314E-1,-6.6537643E-3,2.5867745E-1,-5.7135314E-2,9.495592E-2],"split_indices":[13,52,0,35,0,67,66,39,43,24,13,67,0,0,0,0,9,18,0,1,62,71,0,0,66,0,0,0,0,0,0,0,0,0,0,0,0,0,0,0,0,0,0],"split_type":[0,0,0,0,0,0,0,0,0,0,0,0,0,0,0,0,0,0,0,0,0,0,0,0,0,0,0,0,0,0,0,0,0,0,0,0,0,0,0,0,0,0,0],"sum_hessian":[5.311452E5,4.9712162E5,3.402357E4,1.2375369E5,3.7336794E5,3.3592035E4,4.3153232E2,6.861093E4,5.5142758E4,1.8286567E3,3.7153928E5,3.3569574E4,2.2461748E1,1.0013467E0,4.3053098E2,3.7843652E4,3.0767281E4,5.2105723E4,3.0370383E3,6.2997864E2,1.1986781E3,3.704134E5,1.1258741E3,1.027556E1,3.3559297E4,1.4782554E4,2.3061096E4,2.9528074E4,1.2392067E3,5.182923E4,2.7648953E2,1.1125234E3,1.9245149E3,6.0338605E2,2.6592552E1,1.0661805E3,1.3249762E2,3.697624E5,6.510132E2,5.272141E2,5.9866003E2,3.355826E4,1.0390049E0],"tree_param":{"num_deleted":"0","num_feature":"78","num_nodes":"43","size_leaf_vector":"1"}},{"base_weights":[-5.235688E-1,-5.2708995E-1,-4.6488178E-1,-5.0368947E-1,-5.2955455E-1,-5.2998632E-2,1.1617875E0,-5.3003747E-2,-4.331645E-1,-5.29746E-2,-4.7658706E-1,2.852491E0,-5.2288588E-2,1.6414366E0,-5.1834965E-1,-5.1614386E-1,1.0401943E0,4.338164E-1,1.8635728E0,2.8496036E-1,-4.135041E-2,5.516806E-3,-5.189925E-2,-5.275171E-2,-4.4991416E-3,-3.1745914E-2,3.4123477E-1,2.052255E-1,-1.7174313E-2],"categories":[],"categories_nodes":[],"categories_segments":[],"categories_sizes":[],"default_left":[0,0,0,0,0,0,0,0,0,0,0,0,0,0,0,0,0,0,0,0,0,0,0,0,0,0,0,0,0],"id":16,"left_children":[1,3,5,7,9,-1,11,-1,13,-1,15,17,-1,19,21,23,25,-1,27,-1,-1,-1,-1,-1,-1,-1,-1,-1,-1],"loss_changes":[3.90625E1,9.496094E0,1.1653748E3,3.1541992E1,6.6796875E-1,0E0,1.2103094E3,0E0,8.4423315E2,0E0,3.8302673E1,2.919298E2,0E0,4.7134158E2,1.979248E0,2.938385E0,5.5963734E1,0E0,5.190503E1,0E0,0E0,0E0,0E0,0E0,0E0,0E0,0E0,0E0,0E0],"parents":[2147483647,0,0,1,1,2,2,3,3,4,4,6,6,8,8,10,10,11,11,13,13,14,14,15,15,16,16,18,18],"right_children":[2,4,6,8,10,-1,12,-1,14,-1,16,18,-1,20,22,24,26,-1,28,-1,-1,-1,-1,-1,-1,-1,-1,-1,-1],"split_conditions":[5.4E2,2.4E1,7.911E3,2.37E2,1.6364E4,-5.2998632E-2,8.192E3,-5.3003747E-2,2.42E2,-5.29746E-2,2.0932249E3,3.8556332E4,-5.2288588E-2,9.8E1,2.45E2,1.6628995E3,1.610306E2,4.338164E-1,3.2863352E0,2.8496036E-1,-4.135041E-2,5.516806E-3,-5.189925E-2,-5.275171E-2,-4.4991416E-3,-3.1745914E-2,3.4123477E-1,2.052255E-1,-1.7174313E-2],"split_indices":[29,34,0,66,4,0,0,0,66,0,41,16,0,1,66,41,37,0,41,0,0,0,0,0,0,0,0,0,0],"split_type":[0,0,0,0,0,0,0,0,0,0,0,0,0,0,0,0,0,0,0,0,0,0,0,0,0,0,0,0,0],"sum_hessian":[1.938136E5,1.8282012E5,1.0993468E4,1.7478904E4,1.6534122E5,1.0571998E4,4.2146967E2,1.2710258E4,4.7686475E3,1.6471836E5,6.228585E2,2.0981453E2,2.1165515E2,1.8640974E2,4.582238E3,6.0863477E2,1.4223793E1,8.093898E1,1.2887555E2,1.1705764E2,6.9352104E1,4.069774E0,4.578168E3,5.930193E2,1.5615438E1,1.0014032E1,4.2097607E0,1.1815145E2,1.0724103E1],"tree_param":{"num_deleted":"0","num_feature":"78","num_nodes":"29","size_leaf_vector":"1"}},{"base_weights":[-1.4944474E-1,-3.7308216E-1,2.9451349E0,2.8890964E-1,-5.198702E-1,3.677946E0,-5.3065985E-2,-5.28812E-1,3.347837E0,-5.273277E-1,-3.5124246E-3,3.679249E-1,-2.5555437E-2,-5.301763E-1,-4.6501416E-1,3.7286572E0,-5.2942753E-2,-5.309021E-1,-4.2846915E-1,3.6579897E0,-5.3068575E-2,-5.3071596E-2,-4.4468053E-2,-5.105672E-2,5.8155097E-2,3.6802837E-1,4.9621773E-1,-5.310318E-2,-1.1736726E-2,5.42269E-1,-5.3136855E-2,-2.88418E-2,3.7226838E-1],"categories":[],"categories_nodes":[],"categories_segments":[],"categories_sizes":[],"default_left":[0,0,0,0,0,0,0,0,0,0,0,0,0,0,0,0,0,0,0,0,0,0,0,0,0,0,0,0,0,0,0,0,0],"id":17,"left_children":[1,3,5,7,9,11,-1,13,15,17,19,-1,-1,21,23,25,-1,27,29,31,-1,-1,-1,-1,-1,-1,-1,-1,-1,-1,-1,-1,-1],"loss_changes":[1.4680145E5,1.9223639E4,3.641961E4,8.981519E4,6.232461E2,6.4125E1,0E0,1.4755859E0,1.11888125E4,5.546875E1,4.457783E3,0E0,0E0,3.1933594E-1,2.9980148E1,3.706953E2,0E0,7.8125E0,3.3659805E3,7.806738E1,0E0,0E0,0E0,0E0,0E0,0E0,0E0,0E0,0E0,0E0,0E0,0E0,0E0],"parents":[2147483647,0,0,1,1,2,2,3,3,4,4,5,5,7,7,8,8,9,9,10,10,13,13,14,14,15,15,17,17,18,18,19,19],"right_children":[2,4,6,8,10,12,-1,14,16,18,20,-1,-1,22,24,26,-1,28,30,32,-1,-1,-1,-1,-1,-1,-1,-1,-1,-1,-1,-1,-1],"split_conditions":[1.9335E3,1E0,2.3E1,3E0,1.0092E3,1.1632E4,-5.3065985E-2,7.30004E5,8.8E1,1.1601E4,3E1,3.679249E-1,-2.5555437E-2,5.198955E6,2E0,5.7898293E1,-5.2942753E-2,1.77E7,6.4E1,2E1,-5.3068575E-2,-5.3071596E-2,-4.4468053E-2,-5.105672E-2,5.8155097E-2,3.6802837E-1,4.9621773E-1,-5.310318E-2,-1.1736726E-2,5.42269E-1,-5.3136855E-2,-2.88418E-2,3.7226838E-1],"split_indices":[54,64,6,68,40,5,0,22,0,5,4,0,0,76,7,14,0,14,4,6,0,0,0,0,0,0,0,0,0,0,0,0,0],"split_type":[0,0,0,0,0,0,0,0,0,0,0,0,0,0,0,0,0,0,0,0,0,0,0,0,0,0,0,0,0,0,0,0,0],"sum_hessian":[2.1211798E5,1.9782369E5,1.4294295E4,3.5902695E4,1.61921E5,1.1805365E4,2.4889294E3,2.8330729E4,7.571965E3,1.5961477E5,2.3062363E3,1.1801713E4,3.6528363E0,2.7715586E4,6.1514246E2,6.894956E3,6.770087E2,1.5403169E5,5.5830693E3,2.8864124E2,2.017595E3,2.7525566E4,1.9002034E2,5.9092377E2,2.4218645E1,6.6428237E3,2.5213214E2,1.5398162E5,5.0058678E1,9.461696E1,5.4884526E3,4.419216E0,2.8422205E2],"tree_param":{"num_deleted":"0","num_feature":"78","num_nodes":"33","size_leaf_vector":"1"}},{"base_weights":[-4.9649116E-1,-5.041505E-1,1.0855664E0,-5.208013E-1,-4.6262003E-2,-4.7586992E-1,3.3552558E0,-5.219249E-1,-8.1752785E-2,3.6831856E0,-5.293145E-1,-5.273686E-2,7.366896E-2,-4.9099773E-2,3.7713718E0,-5.27437E-1,-4.3043137E-1,-5.2630033E-2,3.982864E-1,-2.7861753E-2,3.7058876E0,-6.403882E-2,-5.299754E-2,2.282687E0,-3.3100545E-1,3.819401E-1,-2.7839456E-2,-5.2782632E-2,-4.026817E-2,-5.2968632E-2,1.7565058E-1,-1.2710856E-2,3.7160906E-1,-3.822819E-2,8.128893E-2,-1.9687286E-2,3.6460853E-1,3.043392E-3,-4.812481E-2],"categories":[],"categories_nodes":[],"categories_segments":[],"categories_sizes":[],"default_left":[0,0,0,0,0,0,0,0,0,0,0,0,0,0,0,0,0,0,0,0,0,0,0,0,0,0,0,0,0,0,0,0,0,0,0,0,0,0,0],"id":18,"left_children":[1,3,5,7,9,11,13,15,17,19,21,-1,23,-1,25,27,29,-1,-1,-1,31,33,-1,35,37,-1,-1,-1,-1,-1,-1,-1,-1,-1,-1,-1,-1,-1,-1],"loss_changes":[2.3644023E3,1.4796562E3,3.3363608E3,9.2015625E1,1.2278738E4,1.6112518E1,6.19188E2,9.328906E1,8.7273895E2,7.407324E1,1.4909668E0,0E0,4.6096004E1,0E0,7.128223E1,7.6679688E0,2.3090312E3,0E0,0E0,0E0,3.3140625E1,3.7295492E0,0E0,3.0197266E1,2.5781145E0,0E0,0E0,0E0,0E0,0E0,0E0,0E0,0E0,0E0,0E0,0E0,0E0,0E0,0E0],"parents":[2147483647,0,0,1,1,2,2,3,3,4,4,5,5,6,6,7,7,8,8,9,9,10,10,12,12,14,14,15,15,16,16,20,20,21,21,23,23,24,24],"right_children":[2,4,6,8,10,12,14,16,18,20,22,-1,24,-1,26,28,30,-1,-1,-1,32,34,-1,36,38,-1,-1,-1,-1,-1,-1,-1,-1,-1,-1,-1,-1,-1,-1],"split_conditions":[3.272101E6,1.1632E4,5.019877E6,3.33E7,9E0,4.734485E-1,3.1E1,5.4E2,1.88E2,2.4E1,1E1,-5.273686E-2,4.963528E-1,-4.9099773E-2,3E0,9.99878E5,3.333E3,-5.2630033E-2,3.982864E-1,-2.7861753E-2,1.738023E6,1.132E3,-5.299754E-2,6E1,1E0,3.819401E-1,-2.7839456E-2,-5.2782632E-2,-4.026817E-2,-5.2968632E-2,1.7565058E-1,-1.2710856E-2,3.7160906E-1,-3.822819E-2,8.128893E-2,-1.9687286E-2,3.6460853E-1,3.043392E-3,-4.812481E-2],"split_indices":[19,5,74,16,3,36,69,29,6,69,3,0,15,0,52,24,10,0,0,0,25,4,0,34,48,0,0,0,0,0,0,0,0,0,0,0,0,0,0],"split_type":[0,0,0,0,0,0,0,0,0,0,0,0,0,0,0,0,0,0,0,0,0,0,0,0,0,0,0,0,0,0,0,0,0,0,0,0,0,0,0],"sum_hessian":[1.9505311E5,1.94115E5,9.3811035E2,1.8730252E5,6.8124805E3,5.5657446E2,3.8153586E2,1.8682288E5,4.7963565E2,7.795574E2,6.032923E3,5.097912E2,4.6783287E1,3.709519E1,3.4444067E2,1.7619308E5,1.0629794E4,4.3402982E2,4.5605835E1,4.1876454E0,7.7536975E2,9.908382E0,6.0230146E3,5.9976354E0,4.0785652E1,3.4063803E2,3.8026543E0,1.7563448E5,5.5860236E2,1.016997E4,4.5982367E2,1.8675092E0,7.735022E2,8.516129E0,1.3922541E0,2.6048207E0,3.3928149E0,1.1466811E1,2.9318842E1],"tree_param":{"num_deleted":"0","num_feature":"78","num_nodes":"39","size_leaf_vector":"1"}},{"base_weights":[1.08450614E-1,-2.4401052E-1,3.2245336E0,7.92939E-1,-4.3514565E-1,-2.9785746E-1,3.5270429E0,2.1614094E0,-5.327589E-2,-5.003819E-1,7.8426737E-1,2.5449874E0,-5.3166073E-2,-5.2986152E-2,3.6444008E0,3.174796E0,-4.7340223E-1,-2.9318863E-1,-5.311065E-1,3.269934E0,-5.321615E-2,-4.7534245E-1,3.8945234E0,3.6447617E-1,-1.1926748E-2,-5.323572E-2,3.5490945E-1,-4.9046725E-2,3.955687E-1,2.2933136E-1,-5.252117E-2,-5.317709E-2,1.1929965E-2,-5.276897E-2,3.6383113E-1,-0E0,-4.9639728E-2,3.9786553E-1,-1.21387355E-2],"categories":[],"categories_nodes":[],"categories_segments":[],"categories_sizes":[],"default_left":[0,0,0,0,0,0,0,0,0,0,0,0,0,0,0,0,0,0,0,0,0,0,0,0,0,0,0,0,0,0,0,0,0,0,0,0,0,0,0],"id":19,"left_children":[1,3,5,7,9,11,13,15,-1,17,19,21,-1,-1,23,25,27,29,31,33,-1,35,37,-1,-1,-1,-1,-1,-1,-1,-1,-1,-1,-1,-1,-1,-1,-1,-1],"loss_changes":[2.489683E5,4.0363375E4,2.4548797E4,5.7504746E4,1.3679738E4,1.2137444E3,1.0105344E4,4.1649188E4,0E0,1.0383555E3,2.8579543E4,5.7099976E2,0E0,0E0,3.065625E1,1.5636094E4,3.297259E2,1.265548E4,6.176172E1,4.2357754E3,0E0,5.581217E-1,3.5410156E1,0E0,0E0,0E0,0E0,0E0,0E0,0E0,0E0,0E0,0E0,0E0,0E0,0E0,0E0,0E0,0E0],"parents":[2147483647,0,0,1,1,2,2,3,3,4,4,5,5,6,6,7,7,9,9,10,10,11,11,14,14,15,15,16,16,17,17,18,18,19,19,21,21,22,22],"right_children":[2,4,6,8,10,12,14,16,-1,18,20,22,-1,-1,24,26,28,30,32,34,-1,36,38,-1,-1,-1,-1,-1,-1,-1,-1,-1,-1,-1,-1,-1,-1,-1,-1],"split_conditions":[8.09E7,2E0,1.0822556E3,8.8E1,1.5477377E3,6E0,6.9E1,3.5625E3,-5.327589E-2,6E0,1.1601E4,7.6E1,-5.3166073E-2,-5.2986152E-2,3.91E2,6.4E1,1.81E7,1.8E1,1.4361926E3,1.1595E4,-5.321615E-2,1.8E1,8.8E1,3.6447617E-1,-1.1926748E-2,-5.323572E-2,3.5490945E-1,-4.9046725E-2,3.955687E-1,2.2933136E-1,-5.252117E-2,-5.317709E-2,1.1929965E-2,-5.276897E-2,3.6383113E-1,-0E0,-4.9639728E-2,3.9786553E-1,-1.21387355E-2],"split_indices":[76,40,13,0,13,8,4,16,0,40,65,34,0,0,66,34,26,66,13,65,0,66,0,0,0,0,0,0,0,0,0,0,0,0,0,0,0,0,0],"split_type":[0,0,0,0,0,0,0,0,0,0,0,0,0,0,0,0,0,0,0,0,0,0,0,0,0,0,0,0,0,0,0,0,0,0,0,0,0,0,0],"sum_hessian":[2.2668075E5,2.0364777E5,2.303298E4,3.169369E4,1.7195408E5,1.8215385E3,2.1211443E4,1.5594826E4,1.6098863E4,1.6322352E5,8.730555E3,1.3675899E2,1.6847795E3,5.9603455E2,2.0615408E4,1.1262778E4,4.332048E3,2.1083418E4,1.421401E5,3.0219512E3,5.708603E3,4.2520657E1,9.4238335E1,2.0613627E4,1.7813314E0,1.0326775E3,1.0230101E4,4.3173047E3,1.4742908E1,1.7339625E3,1.9349457E4,1.4199617E5,1.4392744E2,2.6701837E2,2.7549329E3,1.4316008E0,4.1089058E1,9.244471E1,1.7936227E0],"tree_param":{"num_deleted":"0","num_feature":"78","num_nodes":"39","size_leaf_vector":"1"}},{"base_weights":[-5.1236904E-1,-5.217882E-1,2.1892378E0,-5.2474076E-1,1.4765916E0,-3.8392812E-1,3.4275432E0,-5.2552915E-1,2.5973015E0,-5.1976927E-2,3.642193E0,-4.638985E-1,2.8615347E-1,3.748377E0,-4.8723813E-2,-5.266591E-1,6.091442E-2,3.9798895E-1,-4.3879997E-2,3.974809E-1,-4.0212385E-2,-5.2265774E-2,9.297314E-2,-8.42161E-3,3.762357E-1,-5.2696224E-2,-1.0161979E-2,7.943943E-1,-5.2571874E-2,-4.504577E-2,2.70813E-1],"categories":[],"categories_nodes":[],"categories_segments":[],"categories_sizes":[],"default_left":[0,0,0,0,0,0,0,0,0,0,0,0,0,0,0,0,0,0,0,0,0,0,0,0,0,0,0,0,0,0,0],"id":20,"left_children":[1,3,5,7,9,11,13,15,17,-1,19,21,-1,23,-1,25,27,-1,-1,-1,-1,-1,29,-1,-1,-1,-1,-1,-1,-1,-1],"loss_changes":[4.9517734E3,1.1449219E3,2.1584316E3,4.7813672E2,1.2430186E3,5.8898342E1,5.789844E2,1.2854297E2,2.1113565E2,0E0,1.9020178E2,7.4410744E0,0E0,2.511084E1,0E0,2.4464844E1,1.737548E3,0E0,0E0,0E0,0E0,0E0,3.4380215E1,0E0,0E0,0E0,0E0,0E0,0E0,0E0,0E0],"parents":[2147483647,0,0,1,1,2,2,3,3,4,4,5,5,6,6,7,7,8,8,10,10,11,11,13,13,15,15,16,16,22,22],"right_children":[2,4,6,8,10,12,14,16,18,-1,20,22,-1,24,-1,26,28,-1,-1,-1,-1,-1,30,-1,-1,-1,-1,-1,-1,-1,-1],"split_conditions":[6.6476785E6,4.99E7,9.922754E6,3.52E2,1.7089568E2,2.8E7,8.8E1,2.5E2,8.8E1,-5.1976927E-2,6E0,4.8939715E6,2.8615347E-1,1.19E7,-4.8723813E-2,1.82E2,8.8E1,3.9798895E-1,-4.3879997E-2,3.974809E-1,-4.0212385E-2,-5.2265774E-2,3.26E2,-8.42161E-3,3.762357E-1,-5.2696224E-2,-1.0161979E-2,7.943943E-1,-5.2571874E-2,-4.504577E-2,2.70813E-1],"split_indices":[70,27,16,38,9,27,0,7,0,0,5,16,0,17,0,38,0,0,0,0,0,0,6,0,0,0,0,0,0,0,0],"split_type":[0,0,0,0,0,0,0,0,0,0,0,0,0,0,0,0,0,0,0,0,0,0,0,0,0,0,0,0,0,0,0],"sum_hessian":[1.9453327E5,1.9385917E5,6.740925E2,1.935749E5,2.8427783E2,2.1932243E2,4.547701E2,1.9352786E5,4.704435E1,1.4858957E2,1.3568828E2,2.158714E2,3.4510317E0,4.2051938E2,3.425072E1,1.9315673E5,3.7112277E2,3.201036E1,1.5033989E1,1.2552293E2,1.0165349E1,1.9619077E2,1.9680635E1,1.3618125E0,4.1915756E2,1.9301742E5,1.393071E2,2.4026733E1,3.4709604E2,1.7506985E1,2.1736507E0],"tree_param":{"num_deleted":"0","num_feature":"78","num_nodes":"31","size_leaf_vector":"1"}},{"base_weights":[-5.11197E-1,-5.1685965E-1,1.8149221E0,-5.2016664E-1,7.5409067E-1,-5.230763E-2,3.5919497E0,-5.255343E-1,-9.209762E-2,-5.2587826E-2,3.9696273E-1,3.7324056E-1,-3.879599E-2,4.744816E-1,-5.2586627E-1,-5.2681286E-2,1.6272578E0,-4.7954377E-2,3.835054E-1,-5.2640747E-2,-4.2959726E-3,3.7549463E-1,-5.2323896E-2],"categories":[],"categories_nodes":[],"categories_segments":[],"categories_sizes":[],"default_left":[0,0,0,0,0,0,0,0,0,0,0,0,0,0,0,0,0,0,0,0,0,0,0],"id":21,"left_children":[1,3,5,7,9,-1,11,13,15,-1,-1,-1,-1,17,19,-1,21,-1,-1,-1,-1,-1,-1],"loss_changes":[2.5614648E3,8.156172E2,1.9673379E3,4.4396875E2,2.0787202E3,0E0,1.5476587E2,6.3929688E1,1.7939478E3,0E0,0E0,0E0,0E0,2.1032837E2,4.957422E1,0E0,2.2215957E3,0E0,0E0,0E0,0E0,0E0,0E0],"parents":[2147483647,0,0,1,1,2,2,3,3,4,4,6,6,7,7,8,8,13,13,14,14,16,16],"right_children":[2,4,6,8,10,-1,12,14,16,-1,-1,-1,-1,18,20,-1,22,-1,-1,-1,-1,-1,-1],"split_conditions":[4.3269675E6,9.9E7,1.64E7,3.39881E5,1E0,-5.230763E-2,3.184E3,4.0046297E-2,1.12E2,-5.2587826E-2,3.9696273E-1,3.7324056E-1,-3.879599E-2,1E0,4.99E7,-5.2681286E-2,3.198235E6,-4.7954377E-2,3.835054E-1,-5.2640747E-2,-4.2959726E-3,3.7549463E-1,-5.2323896E-2],"split_indices":[71,29,26,19,30,0,4,15,55,0,0,0,0,30,27,0,1,0,0,0,0,0,0],"split_type":[0,0,0,0,0,0,0,0,0,0,0,0,0,0,0,0,0,0,0,0,0,0,0],"sum_hessian":[1.943661E5,1.9389584E5,4.7024863E2,1.9339422E5,5.016274E2,2.0355952E2,2.6668912E2,1.9099762E5,2.396597E3,3.5988846E2,1.4173894E2,2.5783966E2,8.849455E0,6.1932602E1,1.9093569E5,1.9142766E3,4.8232037E2,4.9457924E1,1.2474678E1,1.9072072E5,2.1497089E2,2.418127E2,2.4050768E2],"tree_param":{"num_deleted":"0","num_feature":"78","num_nodes":"23","size_leaf_vector":"1"}},{"base_weights":[-5.0434345E-1,2.1801195E0,-5.3013932E-2,-4.9705046E-1,3.2140098E0,-5.1031645E-2,5.380558E-1,3.7205103E-1,-5.205906E-2,1.9703667E-1,-2.7352968E-2],"categories":[],"categories_nodes":[],"categories_segments":[],"categories_sizes":[],"default_left":[0,0,0,0,0,0,0,0,0,0,0],"id":22,"left_children":[1,3,-1,5,7,-1,9,-1,-1,-1,-1],"loss_changes":[1.3493434E4,5.137955E3,0E0,7.6522675E0,2.5370283E3,0E0,1.0127335E1,0E0,0E0,0E0,0E0],"parents":[2147483647,0,0,1,1,3,3,4,4,6,6],"right_children":[2,4,-1,6,8,-1,10,-1,-1,-1,-1],"split_conditions":[2.2E1,7E0,-5.3013932E-2,7.908776E5,1E1,-5.1031645E-2,4.742866E6,3.7205103E-1,-5.205906E-2,1.9703667E-1,-2.7352968E-2],"split_indices":[0,8,0,27,2,0,1,0,0,0,0],"split_type":[0,0,0,0,0,0,0,0,0,0,0],"sum_hessian":[1.948329E5,1.8526199E3,1.929803E5,5.162889E2,1.336331E3,5.112339E2,5.0549784E0,1.176862E3,1.5946898E2,1.0183111E0,4.0366673E0],"tree_param":{"num_deleted":"0","num_feature":"78","num_nodes":"11","size_leaf_vector":"1"}},{"base_weights":[-5.300149E-1],"categories":[],"categories_nodes":[],"categories_segments":[],"categories_sizes":[],"default_left":[0],"id":23,"left_children":[-1],"loss_changes":[0E0],"parents":[2147483647],"right_children":[-1],"split_conditions":[-5.300149E-2],"split_indices":[0],"split_type":[0],"sum_hessian":[1.9372725E5],"tree_param":{"num_deleted":"0","num_feature":"78","num_nodes":"1","size_leaf_vector":"1"}},{"base_weights":[-5.299224E-1],"categories":[],"categories_nodes":[],"categories_segments":[],"categories_sizes":[],"default_left":[0],"id":24,"left_children":[-1],"loss_changes":[0E0],"parents":[2147483647],"right_children":[-1],"split_conditions":[-5.2992243E-2],"split_indices":[0],"split_type":[0],"sum_hessian":[1.9370905E5],"tree_param":{"num_deleted":"0","num_feature":"78","num_nodes":"1","size_leaf_vector":"1"}},{"base_weights":[-6.718752E-2,-4.7586828E-1,1.8272561E0,-9.3984865E-2,-5.2935416E-1,-5.3173583E-2,3.2676077E0,-5.0159955E-1,3.587361E0,-5.3133138E-2,-4.352817E-1,3.660979E-1,-5.3133875E-2,-5.091673E-1,1.9357096E0,-4.9788162E-2,3.6680746E-1,3.7109528E0,-4.801476E-1,-5.1327366E-2,1.1513497E-1,-4.9052168E-2,5.4495823E-1,3.8715264E-1,-6.542706E-3,1.7266281E-2,-5.3146183E-2],"categories":[],"categories_nodes":[],"categories_segments":[],"categories_sizes":[],"default_left":[0,0,0,0,0,0,0,0,0,0,0,0,0,0,0,0,0,0,0,0,0,0,0,0,0,0,0],"id":25,"left_children":[1,3,5,7,9,-1,11,13,15,-1,17,-1,-1,19,21,-1,-1,23,25,-1,-1,-1,-1,-1,-1,-1,-1],"loss_changes":[1.6778097E5,3.6405195E3,1.3066349E5,3.2868406E4,2.8136719E1,0E0,3.568622E4,3.650122E2,7.2521875E2,0E0,6.037172E2,0E0,0E0,1.3493066E2,5.30059E2,0E0,0E0,2.347522E1,1.07629944E2,0E0,0E0,0E0,0E0,0E0,0E0,0E0,0E0],"parents":[2147483647,0,0,1,1,2,2,3,3,4,4,6,6,7,7,8,8,10,10,13,13,14,14,17,17,18,18],"right_children":[2,4,6,8,10,-1,12,14,16,-1,18,-1,-1,20,22,-1,-1,24,26,-1,-1,-1,-1,-1,-1,-1,-1],"split_conditions":[1.3157895E4,4E0,1E0,2.7554463E4,2.92E4,-5.3173583E-2,2E0,1.6E7,1E0,-5.3133138E-2,2.4E1,3.660979E-1,-5.3133875E-2,2.683671E3,3.841961E6,-4.9788162E-2,3.6680746E-1,9.55E2,1.073E3,-5.1327366E-2,1.1513497E-1,-4.9052168E-2,5.4495823E-1,3.8715264E-1,-6.542706E-3,1.7266281E-2,-5.3146183E-2],"split_indices":[37,4,46,14,67,0,3,28,46,0,0,0,0,14,24,0,0,1,66,0,0,0,0,0,0,0,0],"split_type":[0,0,0,0,0,0,0,0,0,0,0,0,0,0,0,0,0,0,0,0,0,0,0,0,0,0,0],"sum_hessian":[2.1670556E5,1.7825342E5,3.845214E4,2.1900564E4,1.5635286E5,1.4577761E4,2.3874379E4,1.9719049E4,2.1815156E3,1.5311997E5,3.23289E3,2.1634398E4,2.2399807E3,1.9659793E4,5.9255672E1,4.194558E1,2.13957E3,3.2739464E1,3.2001504E3,1.9612975E4,4.6818836E1,3.5986507E1,2.3269167E1,3.148281E1,1.2566555E0,2.3216127E2,2.9679893E3],"tree_param":{"num_deleted":"0","num_feature":"78","num_nodes":"27","size_leaf_vector":"1"}},{"base_weights":[-5.11098E-1,7.789148E-1,-5.3011972E-2,2.4106841E-1,3.864506E0,-4.7665155E-1,1.8660864E0,-1.3812426E-2,3.8853312E-1,-4.894377E-1,1.33858E0,-5.250674E-2,3.387865E0,-5.0413866E-2,7.354216E-2,-3.098315E-2,2.7029684E-1,-5.0938457E-2,3.8123032E-1],"categories":[],"categories_nodes":[],"categories_segments":[],"categories_sizes":[],"default_left":[0,0,0,0,0,0,0,0,0,0,0,0,0,0,0,0,0,0,0],"id":26,"left_children":[1,3,-1,5,7,9,11,-1,-1,13,15,-1,17,-1,-1,-1,-1,-1,-1],"loss_changes":[4.770422E3,4.68433E3,0E0,2.8108438E3,3.787744E1,3.968338E1,2.6915493E3,0E0,0E0,3.05466E1,2.97571E1,0E0,7.5249414E2,0E0,0E0,0E0,0E0,0E0,0E0],"parents":[2147483647,0,0,1,1,3,3,4,4,5,5,6,6,9,9,10,10,12,12],"right_children":[2,4,-1,6,8,10,12,-1,-1,14,16,-1,18,-1,-1,-1,-1,-1,-1],"split_conditions":[2.4E1,8.2E1,-5.3011972E-2,8.368201E3,1.563069E6,1.09E7,2.2E1,-1.3812426E-2,3.8853312E-1,6.5E2,2.58E1,-5.250674E-2,2.8E1,-5.0413866E-2,7.354216E-2,-3.098315E-2,2.7029684E-1,-5.0938457E-2,3.8123032E-1],"split_indices":[0,8,0,37,1,25,0,0,0,24,8,0,69,0,0,0,0,0,0],"split_type":[0,0,0,0,0,0,0,0,0,0,0,0,0,0,0,0,0,0,0],"sum_hessian":[1.9437755E5,2.8229695E3,1.9155458E5,2.405915E3,4.170544E2,1.6696072E3,7.36308E2,1.9760725E0,4.1507834E2,1.6596531E3,9.954078E0,2.8673923E2,4.4956873E2,1.6415361E3,1.8116947E1,5.0419354E0,4.9121423E0,4.399769E1,4.0557104E2],"tree_param":{"num_deleted":"0","num_feature":"78","num_nodes":"19","size_leaf_vector":"1"}},{"base_weights":[-5.2514255E-1,-5.2914363E-1,-4.313894E-1,-5.2937794E-2,-3.699758E-1,5.071666E-1,-5.299445E-2,-5.244572E-2,3.241549E0,-3.942391E-1,2.5331695E0,3.8161537E-1,-9.156619E-3,1.5770099E-1,-5.2415203E-2,3.057821E0,-4.599252E-1,-4.7331776E-2,2.4595475E-1,3.248565E-1,-4.004059E-2,-0E0,-4.8576877E-2],"categories":[],"categories_nodes":[],"categories_segments":[],"categories_sizes":[],"default_left":[0,0,0,0,0,0,0,0,0,0,0,0,0,0,0,0,0,0,0,0,0,0,0],"id":27,"left_children":[1,3,5,-1,7,9,-1,-1,11,13,15,-1,-1,17,-1,19,21,-1,-1,-1,-1,-1,-1],"loss_changes":[7.177734E1,6.09375E0,7.358884E2,0E0,1.5991583E2,1.3836831E3,0E0,0E0,2.5071312E1,3.7976135E1,3.7034802E2,0E0,0E0,1.497148E2,0E0,1.3518872E2,5.774431E-1,0E0,0E0,0E0,0E0,0E0,0E0],"parents":[2147483647,0,0,1,1,2,2,4,4,5,5,8,8,9,9,10,10,13,13,15,15,16,16],"right_children":[2,4,6,-1,8,10,-1,-1,12,14,16,-1,-1,18,-1,20,22,-1,-1,-1,-1,-1,-1],"split_conditions":[2.896E4,5.284E3,2.92E4,-5.2937794E-2,6.5E2,9.3E1,-5.299445E-2,-5.244572E-2,3.842673E7,1.981E3,1.981E3,3.8161537E-1,-9.156619E-3,6.5E2,-5.2415203E-2,2E0,3.352E3,-4.7331776E-2,2.4595475E-1,3.248565E-1,-4.004059E-2,-0E0,-4.8576877E-2],"split_indices":[67,34,67,0,24,19,0,0,1,24,24,0,0,24,0,4,24,0,0,0,0,0,0],"split_type":[0,0,0,0,0,0,0,0,0,0,0,0,0,0,0,0,0,0,0,0,0,0,0],"sum_hessian":[1.9383316E5,1.8588548E5,7.9476606E3,1.8560452E5,2.8097266E2,7.539841E2,7.193677E3,2.712194E2,9.753282E0,5.2276184E2,2.3122224E2,8.199855E0,1.5534273E0,9.87866E1,4.2397522E2,1.9684213E2,3.4380116E1,7.860867E1,2.0177925E1,1.8680449E2,1.0037643E1,1.32088E0,3.3059235E1],"tree_param":{"num_deleted":"0","num_feature":"78","num_nodes":"23","size_leaf_vector":"1"}},{"base_weights":[-5.299736E-1],"categories":[],"categories_nodes":[],"categories_segments":[],"categories_sizes":[],"default_left":[0],"id":28,"left_children":[-1],"loss_changes":[0E0],"parents":[2147483647],"right_children":[-1],"split_conditions":[-5.2997362E-2],"split_indices":[0],"split_type":[0],"sum_hessian":[1.9373773E5],"tree_param":{"num_deleted":"0","num_feature":"78","num_nodes":"1","size_leaf_vector":"1"}},{"base_weights":[-5.278943E-1,-5.2991625E-2,-4.80089E-1,2.8866949E-2,-5.2993428E-2,-4.8243558E-1,1.3953767E0,-4.9723303E-1,1.06170036E-1,1.7509825E0,1.7525326E-1,-5.1906776E-2,-3.82172E-2,-2.2811348E-2,3.0201182E-2,-1.4136675E-3,1.9439079E-1,3.5216227E-2,-3.9273493E-2],"categories":[],"categories_nodes":[],"categories_segments":[],"categories_sizes":[],"default_left":[0,0,0,0,0,0,0,0,0,0,0,0,0,0,0,0,0,0,0],"id":29,"left_children":[1,-1,3,5,-1,7,9,11,13,15,17,-1,-1,-1,-1,-1,-1,-1,-1],"loss_changes":[1.7722656E1,0E0,2.0058313E2,4.9458627E2,0E0,4.7820587E0,8.208444E1,4.1641235E-1,1.0543379E0,5.1679718E1,4.884012E0,0E0,0E0,0E0,0E0,0E0,0E0,0E0,0E0],"parents":[2147483647,0,0,2,2,3,3,5,5,6,6,7,7,8,8,9,9,10,10],"right_children":[2,-1,4,6,-1,8,10,12,14,16,18,-1,-1,-1,-1,-1,-1,-1,-1],"split_conditions":[2.896E4,-5.2991625E-2,2.92E4,9.3E1,-5.2993428E-2,9E1,5.760436E6,7E1,3.706153E6,3.5496548E6,6.005778E6,-5.1906776E-2,-3.82172E-2,-2.2811348E-2,3.0201182E-2,-1.4136675E-3,1.9439079E-1,3.5216227E-2,-3.9273493E-2],"split_indices":[67,0,67,19,0,19,20,19,22,22,1,0,0,0,0,0,0,0,0],"split_type":[0,0,0,0,0,0,0,0,0,0,0,0,0,0,0,0,0,0,0],"sum_hessian":[1.9379781E5,1.8590427E5,7.8935337E3,7.032863E2,7.1902476E3,5.1246643E2,1.9081989E2,5.0103052E2,1.1435887E1,1.4676512E2,4.405477E1,4.1156183E2,8.946869E1,3.1597838E0,8.276104E0,1.4387969E1,1.3237715E2,3.4842712E1,9.212055E0],"tree_param":{"num_deleted":"0","num_feature":"78","num_nodes":"19","size_leaf_vector":"1"}},{"base_weights":[1.7184753E0,1.8422909E0,-5.2010506E-1,1.2972329E0,2.011017E0,-5.6248224E-1,2.0507202E0,7.192567E-1,1.9365267E0,6.1595505E-1,2.0169473E0,-5.6444067E-1,1.903526E-1,-8.044192E-3,2.057294E-1,1.4606737E0,-3.5423735E-1,1.9753474E0,1.2072002E0,1.8833402E0,-1.7569059E-1,2.0194209E0,1.1305716E0,-5.651463E-1,1.7067319E-1,4.3453027E-2,2.0285462E-1,2.4245274E-1,-4.287117E-2,1.9857071E-1,-5.6380313E-2,-5.5719372E-2,2.0577E-1,-5.4420024E-2,1.9726996E-1,-5.3249706E-2,2.0166619E-1,-6.482569E-2,2.0201586E-1,-6.448678E-3,2.0336032E-1,1.3559105E-1,-5.6548398E-2],"categories":[],"categories_nodes":[],"categories_segments":[],"categories_sizes":[],"default_left":[0,0,0,0,0,0,0,0,0,0,0,0,0,0,0,0,0,0,0,0,0,0,0,0,0,0,0,0,0,0,0,0,0,0,0,0,0,0,0,0,0,0,0],"id":30,"left_children":[1,3,5,7,9,11,13,15,17,19,21,23,-1,-1,-1,25,27,29,31,33,35,37,39,41,-1,-1,-1,-1,-1,-1,-1,-1,-1,-1,-1,-1,-1,-1,-1,-1,-1,-1,-1],"loss_changes":[1.7015312E5,5.3490375E4,3.5069072E3,5.0806234E4,3.671E3,1.5436133E2,8.632568E0,5.7484566E4,1.8422344E3,1.8912166E3,9.6375E2,5.2055664E1,0E0,0E0,0E0,2.489057E4,6.10716E3,1.6335469E3,4.9633174E3,1.6003345E2,9.0951135E2,8.71375E2,1.3351255E3,2.1649414E1,0E0,0E0,0E0,0E0,0E0,0E0,0E0,0E0,0E0,0E0,0E0,0E0,0E0,0E0,0E0,0E0,0E0,0E0,0E0],"parents":[2147483647,0,0,1,1,2,2,3,3,4,4,5,5,6,6,7,7,8,8,9,9,10,10,11,11,15,15,16,16,17,17,18,18,19,19,20,20,21,21,22,22,23,23],"right_children":[2,4,6,8,10,12,14,16,18,20,22,24,-1,-1,-1,26,28,30,32,34,36,38,40,42,-1,-1,-1,-1,-1,-1,-1,-1,-1,-1,-1,-1,-1,-1,-1,-1,-1,-1,-1],"split_conditions":[1.5477377E3,8E0,8.8E1,2.4E1,2.2E1,1E1,3.51E2,6E0,1E0,3E0,1.2991721E3,3.1088E4,1.903526E-1,-8.044192E-3,2.057294E-1,8.8E1,2.5E2,4.62E7,8.8E1,2.35E2,1E1,6E0,8.8E1,1.32E2,1.7067319E-1,4.3453027E-2,2.0285462E-1,2.4245274E-1,-4.287117E-2,1.9857071E-1,-5.6380313E-2,-5.5719372E-2,2.0577E-1,-5.4420024E-2,1.9726996E-1,-5.3249706E-2,2.0166619E-1,-6.482569E-2,2.0201586E-1,-6.448678E-3,2.0336032E-1,1.3559105E-1,-5.6548398E-2],"split_indices":[13,52,0,35,0,64,66,39,43,24,13,66,0,0,0,0,66,23,0,66,62,40,0,67,0,0,0,0,0,0,0,0,0,0,0,0,0,0,0,0,0,0,0],"split_type":[0,0,0,0,0,0,0,0,0,0,0,0,0,0,0,0,0,0,0,0,0,0,0,0,0,0,0,0,0,0,0,0,0,0,0,0,0,0,0,0,0,0,0],"sum_hessian":[6.13881E5,5.8170744E5,3.2173568E4,1.3751039E5,4.4419706E5,3.1653553E4,5.200164E2,7.222126E4,6.528914E4,1.8814479E3,4.4231562E5,3.1630178E4,2.3375E1,1.2961118E0,5.1872034E2,4.271769E4,2.950356E4,6.198565E4,3.3034905E3,7.225519E2,1.158896E3,4.410816E5,1.2340166E3,3.1622074E4,8.102692E0,1.5219865E4,2.7497828E4,7.6827014E2,2.8735291E4,6.1734406E4,2.5124179E2,1.0745004E3,2.22899E3,2.509317E1,6.974587E2,9.981835E2,1.6071257E2,1.2128364E2,4.409603E5,5.3168976E2,7.0232684E2,3.8852718E0,3.161819E4],"tree_param":{"num_deleted":"0","num_feature":"78","num_nodes":"43","size_leaf_vector":"1"}},{"base_weights":[-5.210126E-1,-5.24795E-1,-4.585678E-1,-4.9953288E-1,-5.274666E-1,-5.2789982E-2,1.0352068E0,-5.2687686E-2,-4.2303264E-1,-5.276501E-2,-4.761439E-1,2.225244E0,-5.204122E-2,-2.9827085E-1,-5.0318E-1,-5.1835377E-2,7.1924615E-1,1.5725521E0,3.0831233E-1,-1.6591037E-2,-5.2587E-2,-4.2116594E-2,-5.2773114E-2,-4.2389788E-2,2.8362435E-1,1.7080705E-1,-3.1155726E-2],"categories":[],"categories_nodes":[],"categories_segments":[],"categories_sizes":[],"default_left":[0,0,0,0,0,0,0,0,0,0,0,0,0,0,0,0,0,0,0,0,0,0,0,0,0,0,0],"id":31,"left_children":[1,3,5,7,9,-1,11,-1,13,-1,15,17,-1,19,21,-1,23,25,-1,-1,-1,-1,-1,-1,-1,-1,-1],"loss_changes":[4.2023438E1,1.0542969E1,1.0799033E3,3.3527832E1,4.5703125E-1,0E0,8.593611E2,0E0,4.280902E1,0E0,3.0061646E1,1.3501294E2,0E0,5.0972427E1,4.404785E0,0E0,5.2779755E1,4.096814E1,0E0,0E0,0E0,0E0,0E0,0E0,0E0,0E0,0E0],"parents":[2147483647,0,0,1,1,2,2,3,3,4,4,6,6,8,8,10,10,11,11,13,13,14,14,16,16,17,17],"right_children":[2,4,6,8,10,-1,12,-1,14,-1,16,18,-1,20,22,-1,24,26,-1,-1,-1,-1,-1,-1,-1,-1,-1],"split_conditions":[5.4E2,2.4E1,7.911E3,2.56E2,1.6364E4,-5.2789982E-2,8.192E3,-5.2687686E-2,2.57E2,-5.276501E-2,2.3764985E3,2.702917E1,-5.204122E-2,5.419E4,3.333E3,-5.1835377E-2,3.5137035E1,1.13E2,3.0831233E-1,-1.6591037E-2,-5.2587E-2,-4.2116594E-2,-5.2773114E-2,-4.2389788E-2,2.8362435E-1,1.7080705E-1,-3.1155726E-2],"split_indices":[29,34,0,67,4,0,0,0,67,0,9,15,0,0,0,0,37,67,0,0,0,0,0,0,0,0,0],"split_type":[0,0,0,0,0,0,0,0,0,0,0,0,0,0,0,0,0,0,0,0,0,0,0,0,0,0,0],"sum_hessian":[1.8201875E5,1.7160169E5,1.0417052E4,1.646605E4,1.5513564E5,9.956557E3,4.604956E2,1.2116763E4,4.3492886E3,1.5455464E5,5.8099713E2,2.6059943E2,1.998962E2,1.7072974E3,2.6419912E3,5.626796E2,1.8317507E1,1.5154774E2,1.0905168E2,1.0830837E3,6.242136E2,6.217345E2,2.0202566E3,1.2779909E1,5.537597E0,1.4180069E2,9.74706E0],"tree_param":{"num_deleted":"0","num_feature":"78","num_nodes":"27","size_leaf_vector":"1"}},{"base_weights":[-1.4288586E-1,-3.6514056E-1,2.1834576E0,2.658435E-1,-5.1677984E-1,2.5863528E0,-5.2843936E-2,-5.105388E-1,2.2674148E0,-5.2495015E-1,1.6020356E-1,-2.5944835E-2,2.5870857E-1,-5.2593505E-1,4.17604E-1,-5.0740075E-1,2.532055E0,-5.2668583E-1,-8.984068E-2,2.5781355E0,-5.2812386E-2,-5.2744854E-2,-2.3165172E-2,-5.2974906E-2,1.5009083E-1,-3.9192084E-2,-5.292028E-2,2.6038215E-1,-5.2259516E-2,-5.2777555E-2,-4.2302184E-2,-5.223268E-2,2.264012E-1,-2.8863257E-2,2.6129124E-1],"categories":[],"categories_nodes":[],"categories_segments":[],"categories_sizes":[],"default_left":[0,0,0,0,0,0,0,0,0,0,0,0,0,0,0,0,0,0,0,0,0,0,0,0,0,0,0,0,0,0,0,0,0,0,0],"id":32,"left_children":[1,3,5,7,9,11,-1,13,15,17,19,-1,-1,21,23,25,27,29,31,33,-1,-1,-1,-1,-1,-1,-1,-1,-1,-1,-1,-1,-1,-1,-1],"loss_changes":[1.06818336E5,1.8044082E4,1.968875E4,5.6784957E4,8.413281E2,3.5234375E1,0E0,3.767295E2,7.5029688E3,1.1305078E2,3.0226475E3,0E0,0E0,1.0912109E1,4.435845E2,1.3671112E0,2.0477539E3,1.5984375E1,6.127495E2,4.2793213E1,0E0,0E0,0E0,0E0,0E0,0E0,0E0,0E0,0E0,0E0,0E0,0E0,0E0,0E0,0E0],"parents":[2147483647,0,0,1,1,2,2,3,3,4,4,5,5,7,7,8,8,9,9,10,10,13,13,14,14,15,15,16,16,17,17,18,18,19,19],"right_children":[2,4,6,8,10,12,-1,14,16,18,20,-1,-1,22,24,26,28,30,32,34,-1,-1,-1,-1,-1,-1,-1,-1,-1,-1,-1,-1,-1,-1,-1],"split_conditions":[1.9335E3,1E0,2.3E1,3.0020566E4,1.1627E3,1.4E1,-5.2843936E-2,8.652817E3,2E0,3.8E7,3E1,-2.5944835E-2,2.5870857E-1,4.9960864E3,4E0,2.4E1,8.8E1,1.5071185E6,1.1601E4,2E1,-5.2812386E-2,-5.2744854E-2,-2.3165172E-2,-5.2974906E-2,1.5009083E-1,-3.9192084E-2,-5.292028E-2,2.6038215E-1,-5.2259516E-2,-5.2777555E-2,-4.2302184E-2,-5.223268E-2,2.264012E-1,-2.8863257E-2,2.6129124E-1],"split_indices":[54,64,6,22,52,6,0,22,7,75,4,0,0,17,2,69,0,70,5,6,0,0,0,0,0,0,0,0,0,0,0,0,0,0,0],"split_type":[0,0,0,0,0,0,0,0,0,0,0,0,0,0,0,0,0,0,0,0,0,0,0,0,0,0,0,0,0,0,0,0,0,0,0],"sum_hessian":[2.0659227E5,1.8857778E5,1.8014482E4,3.6537465E4,1.5204033E5,1.5684568E4,2.329914E3,2.632687E4,1.0210596E4,1.5022844E5,1.8118839E3,3.6810684E0,1.5680887E4,2.5898662E4,4.2820654E2,8.88695E2,9.3219E3,1.4963E5,5.9844214E2,4.0044617E2,1.4114377E3,2.5762879E4,1.3578261E2,2.2873633E2,1.9947021E2,1.5080496E2,7.3789E2,9.108366E3,2.1353397E2,1.4806062E5,1.5693787E3,5.0704807E2,9.139408E1,4.4522634E0,3.959939E2],"tree_param":{"num_deleted":"0","num_feature":"78","num_nodes":"35","size_leaf_vector":"1"}},{"base_weights":[-4.9279413E-1,-5.008504E-1,9.328409E-1,-5.1819295E-1,-4.551068E-2,-4.681554E-1,2.433779E0,-5.258942E-1,-4.4440225E-1,2.5835197E0,-5.273515E-1,-5.2535135E-2,1.21494345E-1,-4.8714E-2,2.6594431E0,-5.2725375E-1,-9.114823E-2,1.0065272E0,-5.1672995E-1,-2.8843492E-2,2.5969636E0,-1.3125747E-1,-5.2787732E-2,-2.928855E-1,1.8433317E0,2.6895535E-1,-2.9685209E-2,-5.2769262E-2,-4.2894375E-2,-5.2431148E-2,2.9070958E-1,-5.2557852E-2,5.443594E-1,-2.964802E-2,-5.224337E-2,-1.49858445E-2,2.6033232E-1,5.8948416E-2,-3.7764493E-2,-0E0,-4.7009133E-2,-2.1860752E-2,2.8511816E-1],"categories":[],"categories_nodes":[],"categories_segments":[],"categories_sizes":[],"default_left":[0,0,0,0,0,0,0,0,0,0,0,0,0,0,0,0,0,0,0,0,0,0,0,0,0,0,0,0,0,0,0,0,0,0,0,0,0,0,0,0,0,0,0],"id":33,"left_children":[1,3,5,7,9,11,13,15,17,19,21,-1,23,-1,25,27,29,31,33,-1,35,37,-1,39,41,-1,-1,-1,-1,-1,-1,-1,-1,-1,-1,-1,-1,-1,-1,-1,-1,-1,-1],"loss_changes":[2.1081445E3,1.4405078E3,2.1721406E3,9.893359E1,8.486089E3,1.837194E1,3.3222485E2,9.364844E1,1.7459158E3,4.271338E1,7.110596E-1,0E0,3.621364E1,0E0,4.4021973E1,5.9140625E0,6.507652E2,5.3782905E3,1.918164E1,0E0,2.00542E1,2.3688648E0,0E0,2.2739303E0,2.3031105E1,0E0,0E0,0E0,0E0,0E0,0E0,0E0,0E0,0E0,0E0,0E0,0E0,0E0,0E0,0E0,0E0,0E0,0E0],"parents":[2147483647,0,0,1,1,2,2,3,3,4,4,5,5,6,6,7,7,8,8,9,9,10,10,12,12,14,14,15,15,16,16,17,17,18,18,20,20,21,21,23,23,24,24],"right_children":[2,4,6,8,10,12,14,16,18,20,22,-1,24,-1,26,28,30,32,34,-1,36,38,-1,40,42,-1,-1,-1,-1,-1,-1,-1,-1,-1,-1,-1,-1,-1,-1,-1,-1,-1,-1],"split_conditions":[3.272101E6,1.1632E4,5.019877E6,2.3293872E6,9E0,4.734485E-1,3.1E1,5.63E7,6.996103E6,2.4E1,1E1,-5.2535135E-2,4.0364268E6,-4.8714E-2,2E0,9.98095E5,1.88E2,6.84E2,1.955E3,-2.8843492E-2,3.076046E6,7.056667E2,-5.2787732E-2,4.62E2,6E1,2.6895535E-1,-2.9685209E-2,-5.2769262E-2,-4.2894375E-2,-5.2431148E-2,2.9070958E-1,-5.2557852E-2,5.443594E-1,-2.964802E-2,-5.224337E-2,-1.49858445E-2,2.6033232E-1,5.8948416E-2,-3.7764493E-2,-0E0,-4.7009133E-2,-2.1860752E-2,2.8511816E-1],"split_indices":[19,5,74,27,3,36,69,17,18,69,3,0,21,0,39,19,6,54,70,0,25,52,0,66,34,0,0,0,0,0,0,0,0,0,0,0,0,0,0,0,0,0,0],"split_type":[0,0,0,0,0,0,0,0,0,0,0,0,0,0,0,0,0,0,0,0,0,0,0,0,0,0,0,0,0,0,0,0,0,0,0,0,0,0,0,0,0,0,0],"sum_hessian":[1.8348698E5,1.8245756E5,1.0294199E3,1.7576192E5,6.6956357E3,5.329759E2,4.9644397E2,1.5913461E5,1.6627309E4,1.0355708E3,5.660065E3,4.868205E2,4.6155426E1,3.5278454E1,4.611655E2,1.5863697E5,4.976486E2,7.879479E2,1.5839361E4,4.4611244E0,1.0311096E3,9.428842E0,5.650636E3,3.830605E1,7.849377E0,4.5686188E2,4.303627E0,1.5791816E5,7.1881476E2,4.3641562E2,6.1232956E1,5.869323E2,2.0101555E2,4.047183E2,1.5434643E4,2.0959065E0,1.0290137E3,1.1755979E0,8.253243E0,1.437018E1,2.393587E1,2.9283698E0,4.921007E0],"tree_param":{"num_deleted":"0","num_feature":"78","num_nodes":"43","size_leaf_vector":"1"}},{"base_weights":[1.02441944E-1,-2.4034023E-1,2.328668E0,6.981872E-1,-4.364791E-1,-2.530037E-1,2.4697719E0,1.7014762E0,-5.3048402E-2,-4.9758402E-1,6.545409E-1,2.5839002E0,-5.2919876E-2,-5.28601E-2,2.570974E-1,2.3223073E0,-4.7490412E-1,-5.301847E-1,7.462194E-1,2.3006833E0,-5.2988615E-2,-3.6468778E-2,2.728535E-1,-5.308063E-2,2.5345108E-1,-4.9520567E-2,3.1553677E-1,-5.303983E-2,-3.5758335E-2,2.876308E-1,-5.3279337E-2,-5.249011E-2,2.5818288E-1],"categories":[],"categories_nodes":[],"categories_segments":[],"categories_sizes":[],"default_left":[0,0,0,0,0,0,0,0,0,0,0,0,0,0,0,0,0,0,0,0,0,0,0,0,0,0,0,0,0,0,0,0,0],"id":34,"left_children":[1,3,5,7,9,11,13,15,-1,17,19,21,-1,-1,-1,23,25,27,29,31,-1,-1,-1,-1,-1,-1,-1,-1,-1,-1,-1,-1,-1],"loss_changes":[1.7252447E5,3.6064633E4,1.0991297E4,4.1749523E4,1.0803895E4,1.2278925E3,8.683047E3,2.5193742E4,0E0,6.223168E3,1.6761336E4,6.2460022E1,0E0,0E0,0E0,8.786359E3,3.0686713E2,4.6875E0,1.0683594E4,2.861248E3,0E0,0E0,0E0,0E0,0E0,0E0,0E0,0E0,0E0,0E0,0E0,0E0,0E0],"parents":[2147483647,0,0,1,1,2,2,3,3,4,4,5,5,6,6,7,7,9,9,10,10,11,11,15,15,16,16,17,17,18,18,19,19],"right_children":[2,4,6,8,10,12,14,16,-1,18,20,22,-1,-1,-1,24,26,28,30,32,-1,-1,-1,-1,-1,-1,-1,-1,-1,-1,-1,-1,-1],"split_conditions":[2.7E7,3E0,2.74E2,8.8E1,1.4361926E3,6E0,1.2854667E3,4.3598335E3,-5.3048402E-2,1E0,1.1601E4,8.29E7,-5.2919876E-2,-5.28601E-2,2.570974E-1,6.4E1,1.81E7,1.2991721E3,8.8E1,1.1595E4,-5.2988615E-2,-3.6468778E-2,2.728535E-1,-5.308063E-2,2.5345108E-1,-4.9520567E-2,3.1553677E-1,-5.303983E-2,-3.5758335E-2,2.876308E-1,-5.3279337E-2,-5.249011E-2,2.5818288E-1],"split_indices":[22,52,6,0,13,8,12,16,0,43,5,76,0,0,0,34,26,13,0,5,0,0,0,0,0,0,0,0,0,0,0,0,0],"split_type":[0,0,0,0,0,0,0,0,0,0,0,0,0,0,0,0,0,0,0,0,0,0,0,0,0,0,0,0,0,0,0,0,0],"sum_hessian":[2.2607572E5,1.9591184E5,3.0163877E4,3.3864074E4,1.6204777E5,1.562932E3,2.8600945E4,1.8641625E4,1.522245E4,1.5345475E5,8.593019E3,1.3702061E2,1.4259114E3,9.333913E2,2.7667555E4,1.4504258E4,4.1373677E3,1.4953688E5,3.9178782E3,3.5950613E3,4.997957E3,6.1029716E0,1.3091763E2,1.00371844E3,1.350054E4,4.1162134E3,2.115418E1,1.49345E5,1.918796E2,1.4691031E3,2.4487751E3,3.2501956E2,3.2700417E3],"tree_param":{"num_deleted":"0","num_feature":"78","num_nodes":"33","size_leaf_vector":"1"}},{"base_weights":[-5.089412E-1,-5.1889944E-1,1.7368559E0,-5.222094E-1,1.3307152E0,2.4602904E0,-5.1591318E-2,-5.2307224E-1,2.0961504E0,-5.168901E-2,2.7034595E0,2.6550348E0,-4.888655E-2,-5.243104E-1,7.2459616E-2,2.918465E-1,-4.3315645E-2,2.896412E-1,-4.0440004E-2,3.0986288E-1,2.6714545E-1,-5.2461054E-2,-1.2307306E-2,4.0323362E-1,-5.233875E-2,1.24844015E-1,-2.5705311E-2],"categories":[],"categories_nodes":[],"categories_segments":[],"categories_sizes":[],"default_left":[0,0,0,0,0,0,0,0,0,0,0,0,0,0,0,0,0,0,0,0,0,0,0,0,0,0,0],"id":35,"left_children":[1,3,5,7,9,11,-1,13,15,-1,17,19,-1,21,23,-1,-1,-1,-1,25,-1,-1,-1,-1,-1,-1,-1],"loss_changes":[4.0871797E3,1.1145898E3,1.3183687E3,4.116172E2,8.2875256E2,3.547102E2,0E0,1.3414453E2,1.2861185E2,0E0,1.1576697E2,1.8949219E1,0E0,2.1355469E1,8.967697E2,0E0,0E0,0E0,0E0,4.5768385E0,0E0,0E0,0E0,0E0,0E0,0E0,0E0],"parents":[2147483647,0,0,1,1,2,2,3,3,4,4,5,5,7,7,8,8,10,10,11,11,13,13,14,14,19,19],"right_children":[2,4,6,8,10,12,-1,14,16,-1,18,20,-1,22,24,-1,-1,-1,-1,26,-1,-1,-1,-1,-1,-1,-1],"split_conditions":[6.6476785E6,4.99E7,1.9658138E-1,3.56E2,1.7089568E2,8.8E1,-5.1591318E-2,2.5E2,8.8E1,-5.168901E-2,6E0,1.19E7,-4.888655E-2,1.82E2,8.8E1,2.918465E-1,-4.3315645E-2,2.896412E-1,-4.0440004E-2,8.753565E6,2.6714545E-1,-5.2461054E-2,-1.2307306E-2,4.0323362E-1,-5.233875E-2,1.24844015E-1,-2.5705311E-2],"split_indices":[70,27,15,38,9,0,0,7,0,0,5,17,0,38,0,0,0,0,0,17,0,0,0,0,0,0,0],"split_type":[0,0,0,0,0,0,0,0,0,0,0,0,0,0,0,0,0,0,0,0,0,0,0,0,0,0,0],"sum_hessian":[1.8270019E5,1.8189539E5,8.047946E2,1.8157217E5,3.2322485E2,6.091994E2,1.9559525E2,1.8151414E5,5.8022945E1,1.3815791E2,1.8506693E2,5.718096E2,3.738984E1,1.8113861E5,3.7553824E2,4.3704075E1,1.4318871E1,1.7452824E2,1.0538682E1,4.4637284E0,5.673458E2,1.8100139E5,1.3722006E2,4.7718082E1,3.2782016E2,1.1076175E0,3.356111E0],"tree_param":{"num_deleted":"0","num_feature":"78","num_nodes":"27","size_leaf_vector":"1"}},{"base_weights":[-5.080293E-1,-5.1401865E-1,1.4725504E0,-5.175048E-1,6.6470534E-1,-5.2181005E-2,2.5932176E0,-5.231366E-1,-8.888269E-2,-5.2355826E-2,2.723674E-1,2.673672E-1,-3.8759883E-2,-5.234863E-1,5.968855E-1,-5.223856E-2,1.3213962E0,-5.2406695E-2,-3.6232048E-3,2.7428707E-1,-4.6217907E-2,2.6532733E-1,-5.1651746E-2],"categories":[],"categories_nodes":[],"categories_segments":[],"categories_sizes":[],"default_left":[0,0,0,0,0,0,0,0,0,0,0,0,0,0,0,0,0,0,0,0,0,0,0],"id":36,"left_children":[1,3,5,7,9,-1,11,13,15,-1,-1,-1,-1,17,19,-1,21,-1,-1,-1,-1,-1,-1],"loss_changes":[2.1688203E3,7.4928906E2,1.2357439E3,4.3811328E2,1.3195211E3,0E0,8.797119E1,7.081641E1,1.4434843E3,0E0,0E0,0E0,0E0,5.039453E1,1.3197842E2,0E0,1.3625066E3,0E0,0E0,0E0,0E0,0E0,0E0],"parents":[2147483647,0,0,1,1,2,2,3,3,4,4,6,6,7,7,8,8,13,13,14,14,16,16],"right_children":[2,4,6,8,10,-1,12,14,16,-1,-1,-1,-1,18,20,-1,22,-1,-1,-1,-1,-1,-1],"split_conditions":[4.3269675E6,9.9E7,1.64E7,3.39881E5,1E0,-5.2181005E-2,1.9254546E2,3.33E7,1.12E2,-5.2355826E-2,2.723674E-1,2.673672E-1,-3.8759883E-2,4.99E7,5.019877E6,-5.223856E-2,3.198235E6,-5.2406695E-2,-3.6232048E-3,2.7428707E-1,-4.6217907E-2,2.6532733E-1,-5.1651746E-2],"split_indices":[71,29,26,19,30,0,8,16,55,0,0,0,0,27,74,0,1,0,0,0,0,0,0],"split_type":[0,0,0,0,0,0,0,0,0,0,0,0,0,0,0,0,0,0,0,0,0,0,0],"sum_hessian":[1.8274227E5,1.8219305E5,5.492278E2,1.8165733E5,5.357138E2,1.9781502E2,3.5141275E2,1.7929983E5,2.3574988E3,3.4047107E2,1.9524272E2,3.4254114E2,8.871613E0,1.7924538E5,5.4452938E1,1.8044471E3,5.5305176E2,1.7903086E5,2.1451155E2,1.7098507E1,3.735443E1,3.2031473E2,2.3273703E2],"tree_param":{"num_deleted":"0","num_feature":"78","num_nodes":"23","size_leaf_vector":"1"}},{"base_weights":[-5.0074244E-1,1.7061051E0,-5.2805144E-2,-4.8838246E-1,2.3346717E0,-5.040887E-1,6.92458E-1,2.609652E-1,-5.181716E-2,-5.180053E-2,4.502149E-1,2.2455524E-1,-2.6769135E-2,1.7921971E-1,-2.8895987E-2],"categories":[],"categories_nodes":[],"categories_segments":[],"categories_sizes":[],"default_left":[0,0,0,0,0,0,0,0,0,0,0,0,0,0,0],"id":37,"left_children":[1,3,-1,5,7,9,11,-1,-1,-1,13,-1,-1,-1,-1],"loss_changes":[1.1042375E4,3.0925146E3,0E0,9.879868E0,1.3699082E3,7.0762634E0,1.2614271E1,0E0,0E0,0E0,9.396299E0,0E0,0E0,0E0,0E0],"parents":[2147483647,0,0,1,1,3,3,4,4,5,5,6,6,10,10],"right_children":[2,4,-1,6,8,10,12,-1,-1,-1,14,-1,-1,-1,-1],"split_conditions":[2.2E1,7E0,-5.2805144E-2,2.3472E4,1E1,7.908776E5,4.6145E4,2.609652E-1,-5.181716E-2,-5.180053E-2,4.742866E6,2.2455524E-1,-2.6769135E-2,1.7921971E-1,-2.8895987E-2],"split_indices":[0,53,0,19,2,27,19,0,0,0,1,0,0,0,0],"split_type":[0,0,0,0,0,0,0,0,0,0,0,0,0,0,0],"sum_hessian":[1.8320277E5,2.2376343E3,1.8096512E5,4.9814233E2,1.739492E3,4.9315262E2,4.9897366E0,1.5868812E3,1.5261072E2,4.87482E2,5.6706104E0,1.0823011E0,3.9074354E0,1.2423508E0,4.4282594E0],"tree_param":{"num_deleted":"0","num_feature":"78","num_nodes":"15","size_leaf_vector":"1"}},{"base_weights":[-5.2794933E-1],"categories":[],"categories_nodes":[],"categories_segments":[],"categories_sizes":[],"default_left":[0],"id":38,"left_children":[-1],"loss_changes":[0E0],"parents":[2147483647],"right_children":[-1],"split_conditions":[-5.2794933E-2],"split_indices":[0],"split_type":[0],"sum_hessian":[1.8167292E5],"tree_param":{"num_deleted":"0","num_feature":"78","num_nodes":"1","size_leaf_vector":"1"}},{"base_weights":[-5.2782345E-1],"categories":[],"categories_nodes":[],"categories_segments":[],"categories_sizes":[],"default_left":[0],"id":39,"left_children":[-1],"loss_changes":[0E0],"parents":[2147483647],"right_children":[-1],"split_conditions":[-5.2782346E-2],"split_indices":[0],"split_type":[0],"sum_hessian":[1.8164886E5],"tree_param":{"num_deleted":"0","num_feature":"78","num_nodes":"1","size_leaf_vector":"1"}},{"base_weights":[-6.4262256E-2,-4.7104293E-1,1.4745903E0,-8.939609E-2,-5.269344E-1,-5.2956145E-2,2.365857E0,-5.0801164E-1,2.1209679E0,-5.290405E-2,-4.2730647E-1,2.577513E-1,-5.291124E-2,-5.297478E-1,-3.4100643E-1,2.5745373E0,-2.2451471E-1,2.7545671E0,-4.731342E-1,-5.2981E-2,-0E0,-5.047348E-2,7.1922654E-1,-4.2633463E-2,2.5884154E-1,-5.010859E-2,3.4501347E-1,2.8354946E-1,-2.8192147E-3,2.0727387E-2,-5.2922506E-2],"categories":[],"categories_nodes":[],"categories_segments":[],"categories_sizes":[],"default_left":[0,0,0,0,0,0,0,0,0,0,0,0,0,0,0,0,0,0,0,0,0,0,0,0,0,0,0,0,0,0,0],"id":40,"left_children":[1,3,5,7,9,-1,11,13,15,-1,17,-1,-1,19,21,23,25,27,29,-1,-1,-1,-1,-1,-1,-1,-1,-1,-1,-1,-1],"loss_changes":[1.3306247E5,3.585871E3,7.938784E4,1.9876775E4,2.984375E1,0E0,1.8853172E4,6.476807E1,3.6412021E3,0E0,4.4640186E2,0E0,0E0,7.495117E-1,2.5796575E3,1.22671875E2,5.669795E2,1.1351135E1,1.15250244E2,0E0,0E0,0E0,0E0,0E0,0E0,0E0,0E0,0E0,0E0,0E0,0E0],"parents":[2147483647,0,0,1,1,2,2,3,3,4,4,6,6,7,7,8,8,10,10,13,13,14,14,15,15,16,16,17,17,18,18],"right_children":[2,4,6,8,10,-1,12,14,16,-1,18,-1,-1,20,22,24,26,28,30,-1,-1,-1,-1,-1,-1,-1,-1,-1,-1,-1,-1],"split_conditions":[1.3157895E4,4E0,1E0,6E0,2.92E4,-5.2956145E-2,2E0,1.04E2,4.33E2,-5.290405E-2,2.4E1,2.577513E-1,-5.291124E-2,8.47E7,9.522903E1,1E0,1.09E7,9.55E2,1.073E3,-5.2981E-2,-0E0,-5.047348E-2,7.1922654E-1,-4.2633463E-2,2.5884154E-1,-5.010859E-2,3.4501347E-1,2.8354946E-1,-2.8192147E-3,2.0727387E-2,-5.2922506E-2],"split_indices":[37,4,46,11,67,0,2,34,1,0,0,0,0,25,37,46,25,1,66,0,0,0,0,0,0,0,0,0,0,0,0],"split_type":[0,0,0,0,0,0,0,0,0,0,0,0,0,0,0,0,0,0,0,0,0,0,0,0,0,0,0,0,0,0,0],"sum_hessian":[2.125648E5,1.6812445E5,4.4440348E4,2.147815E4,1.466463E5,1.3679689E4,3.0760656E4,1.8059645E4,3.4185063E3,1.4359698E5,3.0493096E3,2.8665285E4,2.0953716E3,1.5973336E4,2.0863083E3,2.864573E3,5.539334E2,4.1461548E1,3.0078481E3,1.5972255E4,1.0810317E0,2.0438202E3,4.2488087E1,1.2747376E1,2.8518257E3,5.1689294E2,3.704042E1,4.042762E1,1.033926E0,2.2798463E2,2.7798635E3],"tree_param":{"num_deleted":"0","num_feature":"78","num_nodes":"31","size_leaf_vector":"1"}},{"base_weights":[-5.08138E-1,6.970671E-1,-5.2803554E-2,-5.1035327E-1,2.820651E0,-5.239541E-1,7.874674E-1,2.9156753E-1,-4.778664E-2,-5.250144E-2,7.4450165E-2,-4.2963393E-2,3.0850246E0,3.138959E-2,-4.2893044E-3,4.2720547E-1,-1.2356064E-2],"categories":[],"categories_nodes":[],"categories_segments":[],"categories_sizes":[],"default_left":[0,0,0,0,0,0,0,0,0,0,0,0,0,0,0,0,0],"id":41,"left_children":[1,3,-1,5,7,9,11,-1,-1,-1,13,-1,15,-1,-1,-1,-1],"loss_changes":[4.382617E3,7.614833E3,0E0,3.4122864E1,3.4138867E2,1.4937134E0,6.007125E1,0E0,0E0,0E0,2.8143558E-1,0E0,3.1059425E1,0E0,0E0,0E0,0E0],"parents":[2147483647,0,0,1,1,3,3,4,4,5,5,6,6,10,10,12,12],"right_children":[2,4,-1,6,8,10,12,-1,-1,-1,14,-1,16,-1,-1,-1,-1],"split_conditions":[2.4E1,2.47E2,-5.2803554E-2,3.85E2,2.85E2,3.98E2,2.2E1,2.9156753E-1,-4.778664E-2,-5.250144E-2,1.2779E4,-4.2963393E-2,6E0,3.138959E-2,-4.2893044E-3,4.2720547E-1,-1.2356064E-2],"split_indices":[0,67,0,24,67,29,0,0,0,0,26,0,10,0,0,0,0],"split_type":[0,0,0,0,0,0,0,0,0,0,0,0,0,0,0,0,0],"sum_hessian":[1.8272773E5,2.9662625E3,1.7976148E5,1.8918721E3,1.0743905E3,1.8738129E3,1.8059181E1,1.044679E3,2.9711527E1,1.8715774E3,2.2354996E0,1.2726087E1,5.3330946E0,1.0348283E0,1.2006713E0,3.5227718E0,1.8103228E0],"tree_param":{"num_deleted":"0","num_feature":"78","num_nodes":"17","size_leaf_vector":"1"}},{"base_weights":[-5.227964E-1,-5.2695423E-1,-4.259815E-1,-5.2719604E-2,-3.6701557E-1,4.632239E-1,-5.278635E-2,-5.1834255E-2,2.3734174E0,-4.26487E-1,1.9407933E0,2.8877082E-1,-1.5685083E-2,-2.5978252E-2,-5.2411187E-2,2.333446E0,-4.6754143E-1,-4.22413E-2,1.5028279E-1,2.4547839E-1,-4.0045388E-2,-0E0,-4.9023278E-2],"categories":[],"categories_nodes":[],"categories_segments":[],"categories_sizes":[],"default_left":[0,0,0,0,0,0,0,0,0,0,0,0,0,0,0,0,0,0,0,0,0,0,0],"id":42,"left_children":[1,3,5,-1,7,9,-1,-1,11,13,15,-1,-1,17,-1,19,21,-1,-1,-1,-1,-1,-1],"loss_changes":[7.228125E1,5.90625E0,6.80324E2,0E0,1.1472267E2,1.0172141E3,0E0,0E0,2.1099464E1,1.8592438E1,2.7800806E2,0E0,0E0,6.0012444E1,0E0,8.607617E1,6.644659E-1,0E0,0E0,0E0,0E0,0E0,0E0],"parents":[2147483647,0,0,1,1,2,2,4,4,5,5,8,8,9,9,10,10,13,13,15,15,16,16],"right_children":[2,4,6,-1,8,10,-1,-1,12,14,16,-1,-1,18,-1,20,22,-1,-1,-1,-1,-1,-1],"split_conditions":[2.896E4,5.284E3,2.92E4,-5.2719604E-2,6.5E2,9E1,-5.278635E-2,-5.1834255E-2,3.842673E7,3.352E3,1.981E3,2.8877082E-1,-1.5685083E-2,6.8E1,-5.2411187E-2,2E0,3.352E3,-4.22413E-2,1.5028279E-1,2.4547839E-1,-4.0045388E-2,-0E0,-4.9023278E-2],"split_indices":[67,34,67,0,24,19,0,0,1,24,24,0,0,19,0,6,24,0,0,0,0,0,0],"split_type":[0,0,0,0,0,0,0,0,0,0,0,0,0,0,0,0,0,0,0,0,0,0,0],"sum_hessian":[1.8185455E5,1.7435272E5,7.501834E3,1.7408178E5,2.7094266E2,7.699413E2,6.731893E3,2.5847385E2,1.2468792E1,4.8124585E2,2.8869543E2,1.0291969E1,2.1768222E0,9.581517E1,3.854307E2,2.4845702E2,4.0238426E1,7.7494514E1,1.8320658E1,2.3826907E2,1.0187945E1,1.0548408E0,3.9183586E1],"tree_param":{"num_deleted":"0","num_feature":"78","num_nodes":"23","size_leaf_vector":"1"}},{"base_weights":[-5.279002E-1],"categories":[],"categories_nodes":[],"categories_segments":[],"categories_sizes":[],"default_left":[0],"id":43,"left_children":[-1],"loss_changes":[0E0],"parents":[2147483647],"right_children":[-1],"split_conditions":[-5.2790023E-2],"split_indices":[0],"split_type":[0],"sum_hessian":[1.8170022E5],"tree_param":{"num_deleted":"0","num_feature":"78","num_nodes":"1","size_leaf_vector":"1"}},{"base_weights":[-5.256673E-1,-5.2781004E-2,-4.7544035E-1,4.0809415E-2,-5.2785676E-2,9.544064E-1,-5.250889E-2,-4.8725757E-1,1.6326172E0,-5.0872285E-2,-1.128222E-2,4.103883E-2,1.9952355E-1],"categories":[],"categories_nodes":[],"categories_segments":[],"categories_sizes":[],"default_left":[0,0,0,0,0,0,0,0,0,0,0,0,0],"id":44,"left_children":[1,-1,3,5,-1,7,-1,9,11,-1,-1,-1,-1],"loss_changes":[1.8542969E1,0E0,2.0219751E2,3.5730066E2,0E0,2.6076843E2,0E0,2.65028E-1,7.7187164E1,0E0,0E0,0E0,0E0],"parents":[2147483647,0,0,2,2,3,3,5,5,7,7,8,8],"right_children":[2,-1,4,6,-1,8,-1,10,12,-1,-1,-1,-1],"split_conditions":[2.896E4,-5.2781004E-2,2.92E4,9.156E3,-5.2785676E-2,6.5E2,-5.250889E-2,5.25E2,1.7453773E-1,-5.0872285E-2,-1.128222E-2,4.103883E-2,1.9952355E-1],"split_indices":[67,0,67,24,0,24,0,24,37,0,0,0,0],"split_type":[0,0,0,0,0,0,0,0,0,0,0,0,0],"sum_hessian":[1.816389E5,1.741793E5,7.459607E3,6.8674585E2,6.7728613E3,2.6248904E2,4.242568E2,8.3922325E1,1.7856673E2,7.743082E1,6.491504E0,4.214764E1,1.364191E2],"tree_param":{"num_deleted":"0","num_feature":"78","num_nodes":"13","size_leaf_vector":"1"}},{"base_weights":[1.453992E0,1.5427504E0,-2.9837707E-1,1.126945E0,1.6666021E0,-5.597214E-1,1.6877621E0,6.5119493E-1,1.613247E0,1.6729995E0,1.0408133E0,1.4674203E-1,-5.6073558E-2,-4.347928E-2,1.6909196E0,1.2547693E0,-3.434938E-1,1.6214131E0,-5.4528034E-1,-6.462435E-2,1.6735723E0,1.3800781E0,-5.6016345E-2,1.6920713E-1,5.530193E-1,1.8175176E-1,7.823907E-2,1.961479E-1,-4.1943792E-2,1.6488464E-1,1.07955694E-1,-5.6313843E-2,1.0651597E-1,1.6738616E-1,4.9348366E-2,-6.330793E-2,1.6881905E-1,9.2885904E-2,-1.5762871E-2],"categories":[],"categories_nodes":[],"categories_segments":[],"categories_sizes":[],"default_left":[0,0,0,0,0,0,0,0,0,0,0,0,0,0,0,0,0,0,0,0,0,0,0,0,0,0,0,0,0,0,0,0,0,0,0,0,0,0,0],"id":45,"left_children":[1,3,5,7,9,11,13,15,17,19,21,-1,-1,-1,23,25,27,29,31,-1,33,35,-1,-1,37,-1,-1,-1,-1,-1,-1,-1,-1,-1,-1,-1,-1,-1,-1],"loss_changes":[1.05255375E5,3.3164375E4,1.6935742E4,3.4197484E4,1.982E3,6.0469727E1,2.7523438E1,4.4865375E4,1.2908281E3,6.55375E2,2.732915E3,0E0,0E0,0E0,1.9716797E0,1.2359047E4,4.94105E3,1.0776094E3,8.908501E0,0E0,1.6475E2,2.576583E3,0E0,0E0,2.6123502E0,0E0,0E0,0E0,0E0,0E0,0E0,0E0,0E0,0E0,0E0,0E0,0E0,0E0,0E0],"parents":[2147483647,0,0,1,1,2,2,3,3,4,4,5,5,6,6,7,7,8,8,9,9,10,10,14,14,15,15,16,16,17,17,18,18,20,20,21,21,24,24],"right_children":[2,4,6,8,10,12,14,16,18,20,22,-1,-1,-1,24,26,28,30,32,-1,34,36,-1,-1,38,-1,-1,-1,-1,-1,-1,-1,-1,-1,-1,-1,-1,-1,-1],"split_conditions":[1.6564286E3,8E0,1.3139E4,2.4E1,2.8E7,1.0822E4,1.983E3,6E0,4.62E7,6E0,1.1808451E3,1.4674203E-1,-5.6073558E-2,-4.347928E-2,2.244769E3,3.1E1,2.51E2,1E0,3.1088E4,-6.462435E-2,3.56E2,1.2E1,-5.6016345E-2,1.6920713E-1,1.18054696E8,1.8175176E-1,7.823907E-2,1.961479E-1,-4.1943792E-2,1.6488464E-1,1.07955694E-1,-5.6313843E-2,1.0651597E-1,1.6738616E-1,4.9348366E-2,-6.330793E-2,1.6881905E-1,9.2885904E-2,-1.5762871E-2],"split_indices":[12,52,5,35,27,5,10,39,23,40,12,0,0,0,41,69,66,43,66,0,38,5,0,0,1,0,0,0,0,0,0,0,0,0,0,0,0,0,0],"split_type":[0,0,0,0,0,0,0,0,0,0,0,0,0,0,0,0,0,0,0,0,0,0,0,0,0,0,0,0,0,0,0,0,0,0,0,0,0,0,0],"sum_hessian":[6.7670906E5,6.440863E5,3.2622766E4,1.4782389E5,4.9626244E5,2.8830781E4,3.7919844E3,7.4725516E4,7.3098375E4,4.9123647E5,5.025955E3,1.2724096E1,2.8818057E4,4.9911313E0,3.7869934E3,4.6505863E4,2.8219648E4,7.28236E4,2.7477432E2,1.2053921E2,4.9111594E5,4.147617E3,8.783378E2,3.7817527E3,5.240659E0,2.12198E4,2.5286064E4,8.9832837E2,2.732132E4,6.930957E4,3.514033E3,2.7335425E2,1.4200908E0,4.909944E5,1.21549034E2,5.500362E2,3.597581E3,3.486318E0,1.7543409E0],"tree_param":{"num_deleted":"0","num_feature":"78","num_nodes":"39","size_leaf_vector":"1"}},{"base_weights":[-5.1886004E-1,-5.2596938E-2,-4.9046376E-1,-5.040998E-1,3.7065923E-1,-5.1302314E-1,8.101092E-2,2.8107355E0,-5.196613E-1,-4.5722765E-1,-5.259761E-2,-5.2148815E-2,1.258485E0,5.9390396E-1,2.4392508E-1,-0E0,-5.2216996E-2,-5.421726E-3,-4.77185E-2,1.433005E-1,-4.3608442E-2],"categories":[],"categories_nodes":[],"categories_segments":[],"categories_sizes":[],"default_left":[0,0,0,0,0,0,0,0,0,0,0,0,0,0,0,0,0,0,0,0,0],"id":46,"left_children":[1,-1,3,5,7,9,11,13,15,17,-1,-1,19,-1,-1,-1,-1,-1,-1,-1,-1],"loss_changes":[3.3421875E1,0E0,4.021455E2,1.761377E2,1.1638494E3,2.3001953E1,3.6120947E2,1.3322876E2,5.091629E-1,5.0134766E1,0E0,0E0,5.2735626E1,0E0,0E0,0E0,0E0,0E0,0E0,0E0,0E0],"parents":[2147483647,0,0,2,2,3,3,4,4,5,5,6,6,7,7,8,8,9,9,12,12],"right_children":[2,-1,4,6,8,10,12,14,16,18,-1,-1,20,-1,-1,-1,-1,-1,-1,-1,-1],"split_conditions":[2.323E3,-5.2596938E-2,1.27E2,1.78798E5,1.31E2,2.4E1,4.6204725E5,6.482562E1,3.242857E1,5.001E3,-5.259761E-2,-5.2148815E-2,2.2072533E5,5.9390396E-1,2.4392508E-1,-0E0,-5.2216996E-2,-5.421726E-3,-4.77185E-2,1.433005E-1,-4.3608442E-2],"split_indices":[0,0,10,24,10,34,26,15,40,0,0,0,16,0,0,0,0,0,0,0,0],"split_type":[0,0,0,0,0,0,0,0,0,0,0,0,0,0,0,0,0,0,0,0,0],"sum_hessian":[1.7063198E5,1.3642392E5,3.4208074E4,3.3676215E4,5.3185925E2,3.317143E4,5.0478705E2,1.4117969E2,3.9067957E2,6.2707866E3,2.6900643E4,3.34379E2,1.7040805E2,1.1660995E1,1.2951869E2,1.8966458E0,3.8878293E2,2.9741397E2,5.9733726E3,1.5504416E2,1.5363891E1],"tree_param":{"num_deleted":"0","num_feature":"78","num_nodes":"21","size_leaf_vector":"1"}},{"base_weights":[-1.382259E-1,-3.5901156E-1,1.7592173E0,2.4634829E-1,-5.142752E-1,2.0272822E0,-5.2638125E-2,-5.2441895E-1,1.9152166E0,-5.225E-1,1.383081E-1,2.027785E-1,-2.5441224E-2,-5.259018E-1,-4.5589226E-1,2.0488656E0,-5.2531134E-2,-5.2442443E-1,-6.678839E-2,2.026228E0,-5.2599426E-2,-5.2655578E-2,-4.2269405E-2,-5.0050672E-2,4.5817E-2,2.0518005E-1,-4.4725545E-2,-5.2571606E-2,-3.7742898E-2,-5.1786162E-2,1.8463272E-1,-2.4937432E-2,2.0461316E-1],"categories":[],"categories_nodes":[],"categories_segments":[],"categories_sizes":[],"default_left":[0,0,0,0,0,0,0,0,0,0,0,0,0,0,0,0,0,0,0,0,0,0,0,0,0,0,0,0,0,0,0,0,0],"id":47,"left_children":[1,3,5,7,9,11,-1,13,15,17,19,-1,-1,21,23,25,-1,27,29,31,-1,-1,-1,-1,-1,-1,-1,-1,-1,-1,-1,-1,-1],"loss_changes":[8.377575E4,1.6837195E4,1.2773625E4,4.7038652E4,7.655586E2,2.3320312E1,0E0,1.5712891E0,3.7713086E3,1.2311328E2,2.2293938E3,0E0,0E0,7.324219E-1,2.299099E1,8.288672E1,0E0,2.5769531E1,5.150967E2,2.2875732E1,0E0,0E0,0E0,0E0,0E0,0E0,0E0,0E0,0E0,0E0,0E0,0E0,0E0],"parents":[2147483647,0,0,1,1,2,2,3,3,4,4,5,5,7,7,8,8,9,9,10,10,13,13,14,14,15,15,17,17,18,18,19,19],"right_children":[2,4,6,8,10,12,-1,14,16,18,20,-1,-1,22,24,26,-1,28,30,32,-1,-1,-1,-1,-1,-1,-1,-1,-1,-1,-1,-1,-1],"split_conditions":[1.9335E3,1E0,2.3E1,3E0,1.1627E3,7E0,-5.2638125E-2,7.302368E5,8.8E1,3.8E7,3E1,2.027785E-1,-2.5441224E-2,5.198518E6,2E0,1.24E2,-5.2531134E-2,1.020465E6,1.1601E4,2E1,-5.2599426E-2,-5.2655578E-2,-4.2269405E-2,-5.0050672E-2,4.5817E-2,2.0518005E-1,-4.4725545E-2,-5.2571606E-2,-3.7742898E-2,-5.1786162E-2,1.8463272E-1,-2.4937432E-2,2.0461316E-1],"split_indices":[12,3,6,68,52,3,0,17,0,75,4,0,0,74,7,34,0,73,5,6,0,0,0,0,0,0,0,0,0,0,0,0,0],"split_type":[0,0,0,0,0,0,0,0,0,0,0,0,0,0,0,0,0,0,0,0,0,0,0,0,0,0,0,0,0,0,0,0,0],"sum_hessian":[1.9997305E5,1.791313E5,2.0841754E4,3.65646E4,1.4256669E5,1.8654336E4,2.1874172E3,2.5013283E4,1.1551319E4,1.4079338E5,1.7733163E3,1.8650668E4,3.6685584E0,2.4463273E4,5.5001025E2,1.0952084E4,5.992356E2,1.4019992E5,5.934523E2,4.6069434E2,1.312622E3,2.4296275E4,1.6699725E2,5.2579846E2,2.4211802E1,1.0939777E4,1.2306649E1,1.3897028E5,1.2296472E3,4.816169E2,1.1183536E2,3.5767906E0,4.5711752E2],"tree_param":{"num_deleted":"0","num_feature":"78","num_nodes":"33","size_leaf_vector":"1"}},{"base_weights":[-4.8942015E-1,-4.9761608E-1,8.1031656E-1,-5.1556206E-1,-4.5526862E-2,-4.6205312E-1,1.9412768E0,-5.168363E-1,-4.676491E-2,2.0239437E0,-5.24959E-1,-5.2331544E-2,-2.7093224E-2,-4.834489E-2,2.0877843E0,-5.2292156E-1,-4.177708E-1,-5.217706E-2,2.3456152E-1,-2.8117219E-2,2.0328586E0,-0E0,-5.2589085E-2,1.4253237E0,-3.5693207E-1,2.114489E-1,-3.2649662E-2,-5.234256E-2,-3.6541827E-2,-5.24888E-2,1.2373964E-1,-1.4362628E-2,2.0371094E-1,-3.7874825E-2,1.2978135E-1,2.433921E-1,-2.8314127E-2,-4.2576366E-3,-4.866464E-2],"categories":[],"categories_nodes":[],"categories_segments":[],"categories_sizes":[],"default_left":[0,0,0,0,0,0,0,0,0,0,0,0,0,0,0,0,0,0,0,0,0,0,0,0,0,0,0,0,0,0,0,0,0,0,0,0,0,0,0],"id":48,"left_children":[1,3,5,7,9,11,13,15,17,19,21,-1,23,-1,25,27,29,-1,-1,-1,31,33,-1,35,37,-1,-1,-1,-1,-1,-1,-1,-1,-1,-1,-1,-1,-1,-1],"loss_changes":[1.8408555E3,1.3924375E3,1.5607864E3,9.830078E1,6.507572E3,1.3312492E1,2.0668848E2,9.836328E1,5.138529E2,2.7370605E1,2.6087646E0,0E0,3.2198185E1,0E0,3.7203125E1,1.14921875E1,1.6930682E3,0E0,0E0,0E0,1.2905273E1,6.6044693E0,0E0,2.377227E1,1.9704986E0,0E0,0E0,0E0,0E0,0E0,0E0,0E0,0E0,0E0,0E0,0E0,0E0,0E0,0E0],"parents":[2147483647,0,0,1,1,2,2,3,3,4,4,5,5,6,6,7,7,8,8,9,9,10,10,12,12,14,14,15,15,16,16,20,20,21,21,23,23,24,24],"right_children":[2,4,6,8,10,12,14,16,18,20,22,-1,24,-1,26,28,30,-1,-1,-1,32,34,-1,36,38,-1,-1,-1,-1,-1,-1,-1,-1,-1,-1,-1,-1,-1,-1],"split_conditions":[3.272101E6,1.1632E4,5.019877E6,3.33E7,9E0,4.722833E-1,6.4E1,5.4E2,1.26E2,2.32E2,1E1,-5.2331544E-2,4.963528E-1,-4.834489E-2,8.8E1,9.99878E5,8.728571E2,-5.217706E-2,2.3456152E-1,-2.8117219E-2,3.076046E6,5.000298E6,-5.2589085E-2,2E0,8.8E1,2.114489E-1,-3.2649662E-2,-5.234256E-2,-3.6541827E-2,-5.24888E-2,1.2373964E-1,-1.4362628E-2,2.0371094E-1,-3.7874825E-2,1.2978135E-1,2.433921E-1,-2.8314127E-2,-4.2576366E-3,-4.866464E-2],"split_indices":[19,5,74,16,3,15,34,29,6,34,3,0,15,0,0,24,54,0,0,0,25,28,0,4,0,0,0,0,0,0,0,0,0,0,0,0,0,0,0],"split_type":[0,0,0,0,0,0,0,0,0,0,0,0,0,0,0,0,0,0,0,0,0,0,0,0,0,0,0,0,0,0,0,0,0,0,0,0,0,0,0],"sum_hessian":[1.7274617E5,1.716653E5,1.0808723E3,1.6510977E5,6.5555366E3,5.0898608E2,5.718863E2,1.6466094E5,4.4882697E2,1.2316462E3,5.3238906E3,4.4478424E2,6.420185E1,3.212922E1,5.397571E2,1.551189E5,9.542024E3,3.7595428E2,7.2872696E1,4.293633E0,1.2273525E3,9.423099E0,5.3144673E3,1.0371854E1,5.3829998E1,5.3430255E2,5.454506E0,1.5461627E5,5.0264343E2,8.963597E3,5.784278E2,2.0352871E0,1.2253173E3,8.386552E0,1.0365467E0,6.1717534E0,4.2001004E0,1.7625832E1,3.6204166E1],"tree_param":{"num_deleted":"0","num_feature":"78","num_nodes":"39","size_leaf_vector":"1"}},{"base_weights":[9.786985E-2,-2.7194405E-1,1.6661941E0,6.360231E-1,-4.9192372E-1,1.9976052E0,-5.241145E-1,1.4245474E0,-5.28341E-2,-5.266401E-1,6.8933004E-1,-5.192332E-1,2.0187714E0,-5.278358E-2,1.57984E-1,-4.0516254E-1,1.8503683E0,-5.2813727E-2,2.806414E-1,2.187244E0,-5.3037174E-2,2.4277858E-2,-5.2539885E-2,-5.152638E-2,2.019545E0,-4.722386E-2,1.5694632E-1,-5.2942287E-2,1.9922169E-1,-3.4594603E-2,1.9918674E-1,4.7776148E-2,2.2168748E-1,2.2254048E-1,2.0179887E-1],"categories":[],"categories_nodes":[],"categories_segments":[],"categories_sizes":[],"default_left":[0,0,0,0,0,0,0,0,0,0,0,0,0,0,0,0,0,0,0,0,0,0,0,0,0,0,0,0,0,0,0,0,0,0,0],"id":49,"left_children":[1,3,5,7,9,11,13,15,-1,17,19,21,23,-1,-1,25,27,-1,29,31,-1,-1,-1,-1,33,-1,-1,-1,-1,-1,-1,-1,-1,-1,-1],"loss_changes":[1.298022E5,3.6171918E4,3.100086E4,3.2429586E4,5.978926E3,1.9787812E3,4.509265E1,1.6409945E4,0E0,1.7157812E2,7.608132E3,1.8563156E0,7.496875E1,0E0,0E0,5.277077E2,5.7698594E3,0E0,2.8402655E2,9.119336E1,0E0,0E0,0E0,0E0,6.875E-1,0E0,0E0,0E0,0E0,0E0,0E0,0E0,0E0,0E0,0E0],"parents":[2147483647,0,0,1,1,2,2,3,3,4,4,5,5,6,6,7,7,9,9,10,10,11,11,12,12,15,15,16,16,18,18,19,19,24,24],"right_children":[2,4,6,8,10,12,14,16,-1,18,20,22,24,-1,-1,26,28,-1,30,32,-1,-1,-1,-1,34,-1,-1,-1,-1,-1,-1,-1,-1,-1,-1],"split_conditions":[1.4361926E3,3E0,1.1601E4,8.8E1,1E0,1.1595E4,2.25E7,2.9653058E2,-5.28341E-2,1.2991721E3,8.8E1,5.9796315E-2,7E0,-5.278358E-2,1.57984E-1,8.65E7,6.4E1,-5.2813727E-2,6.51E7,1.39E2,-5.3037174E-2,2.4277858E-2,-5.2539885E-2,-5.152638E-2,1.5477377E3,-4.722386E-2,1.5694632E-1,-5.2942287E-2,1.9922169E-1,-3.4594603E-2,1.9918674E-1,4.7776148E-2,2.2168748E-1,2.2254048E-1,2.0179887E-1],"split_indices":[13,52,5,0,43,5,27,15,0,13,0,37,8,0,0,76,34,0,74,21,0,0,0,0,13,0,0,0,0,0,0,0,0,0,0],"split_type":[0,0,0,0,0,0,0,0,0,0,0,0,0,0,0,0,0,0,0,0,0,0,0,0,0,0,0,0,0,0,0,0,0,0,0],"sum_hessian":[2.237967E5,1.8109539E5,4.2701312E4,3.5317242E4,1.4577816E5,3.7089742E4,5.6115693E3,2.1057072E4,1.4260171E4,1.4161762E5,4.1605337E3,3.087281E2,3.6781016E4,5.6033945E3,8.1748495E0,3.9751536E3,1.7081918E4,1.4135678E5,2.608398E2,1.8667743E3,2.2937593E3,1.2110221E0,3.0751706E2,1.0624481E1,3.677039E4,3.8462744E3,1.2887909E2,9.603952E2,1.6121523E4,1.918829E2,6.895691E1,3.2676834E1,1.8340974E3,2.520839E2,3.6518305E4],"tree_param":{"num_deleted":"0","num_feature":"78","num_nodes":"35","size_leaf_vector":"1"}},{"base_weights":[-5.06439E-1,-5.166576E-1,1.4558496E0,-5.19968E-1,1.1494722E0,1.9636973E0,-5.0793048E-2,-5.20903E-1,1.7890432E0,2.195089E0,-5.1430684E-2,2.0171707E0,-5.7369053E-2,-5.221674E-1,6.606662E-2,2.3570378E-1,-4.273434E-2,-3.9952796E-2,2.3360203E-1,-1.8788029E-2,2.0439266E-1,7.041941E-1,-3.7184632E-1,-5.228714E-2,-1.2551314E-2,2.3997796E-1,-4.851175E-2,-3.7189543E-2,8.619217E-2,1.296302E-1,-1.37463985E-2,-4.2721514E-2,-0E0],"categories":[],"categories_nodes":[],"categories_segments":[],"categories_sizes":[],"default_left":[0,0,0,0,0,0,0,0,0,0,0,0,0,0,0,0,0,0,0,0,0,0,0,0,0,0,0,0,0,0,0,0,0],"id":50,"left_children":[1,3,5,7,9,11,-1,13,15,17,-1,19,21,23,25,-1,-1,-1,-1,27,-1,29,31,-1,-1,-1,-1,-1,-1,-1,-1,-1,-1],"loss_changes":[3.4395078E3,9.4178125E2,8.8894495E2,3.688086E2,5.921428E2,7.758081E1,0E0,1.2659766E2,9.003209E1,7.907074E1,0E0,3.8606934E1,5.1278224E0,4.6964844E1,4.7501453E2,0E0,0E0,0E0,0E0,3.7152267E0,0E0,3.9496665E0,4.991107E-1,0E0,0E0,0E0,0E0,0E0,0E0,0E0,0E0,0E0,0E0],"parents":[2147483647,0,0,1,1,2,2,3,3,4,4,5,5,7,7,8,8,9,9,11,11,12,12,13,13,14,14,19,19,21,21,22,22],"right_children":[2,4,6,8,10,12,-1,14,16,18,-1,20,22,24,26,-1,-1,-1,-1,28,-1,30,32,-1,-1,-1,-1,-1,-1,-1,-1,-1,-1],"split_conditions":[6.6476785E6,4.99E7,1.9658138E-1,3.56E2,6E0,7.015888E6,-5.0793048E-2,2.5E2,7.79E2,2.52E2,-5.1430684E-2,1.19E7,6.4E7,3.7751652E6,2.02E2,2.3570378E-1,-4.273434E-2,-3.9952796E-2,2.3360203E-1,1E0,2.0439266E-1,8.016131E6,8.4E1,-5.228714E-2,-1.2551314E-2,2.3997796E-1,-4.851175E-2,-3.7189543E-2,8.619217E-2,1.296302E-1,-1.37463985E-2,-4.2721514E-2,-0E0],"split_indices":[70,27,15,38,5,73,0,7,4,6,0,22,20,71,1,0,0,0,0,3,0,77,35,0,0,0,0,0,0,0,0,0,0],"split_type":[0,0,0,0,0,0,0,0,0,0,0,0,0,0,0,0,0,0,0,0,0,0,0,0,0,0,0,0,0,0,0,0,0],"sum_hessian":[1.7147631E5,1.7058969E5,8.866203E2,1.702531E5,3.3659448E2,7.0464795E2,1.8197235E2,1.7018594E5,6.71501E1,2.0648744E2,1.3010704E2,6.8672974E2,1.7918188E1,1.6982122E5,3.6473157E2,5.3530487E1,1.3619611E1,1.0266061E1,1.9622137E2,8.673019E0,6.7805676E2,4.0476446E0,1.38705435E1,1.6951844E5,3.0277286E2,6.857682E1,2.9615475E2,7.420906E0,1.2521136E0,2.0906096E0,1.9570348E0,1.2758013E1,1.1125306E0],"tree_param":{"num_deleted":"0","num_feature":"78","num_nodes":"33","size_leaf_vector":"1"}},{"base_weights":[-5.050051E-1,-5.1136464E-1,1.2884294E0,-5.1499474E-1,6.0441804E-1,-5.20027E-2,2.1042912E0,-5.2157354E-1,-2.7792025E-1,-5.2127153E-2,2.1073036E-1,2.157629E-1,-3.786404E-2,-5.222323E-1,1.6444926E-1,-4.9247444E-1,1.1397686E0,-5.2447498E-2,-4.7488645E-2,7.440593E-1,-4.8277203E-2,-5.2502524E-2,-1.0347999E-2,2.0866168E-1,-5.1811766E-2],"categories":[],"categories_nodes":[],"categories_segments":[],"categories_sizes":[],"default_left":[0,0,0,0,0,0,0,0,0,0,0,0,0,0,0,0,0,0,0,0,0,0,0,0,0],"id":51,"left_children":[1,3,5,7,9,-1,11,13,15,-1,-1,-1,-1,17,19,21,23,-1,-1,-1,-1,-1,-1,-1,-1],"loss_changes":[1.9580312E3,6.9316016E2,8.9801E2,2.651289E2,9.4188617E2,0E0,5.796216E1,7.5296875E1,1.4024935E3,0E0,0E0,0E0,0E0,1.659375E1,7.6361115E2,5.0278748E1,9.5428613E2,0E0,0E0,0E0,0E0,0E0,0E0,0E0,0E0],"parents":[2147483647,0,0,1,1,2,2,3,3,4,4,6,6,7,7,8,8,13,13,14,14,15,15,16,16],"right_children":[2,4,6,8,10,-1,12,14,16,-1,-1,-1,-1,18,20,22,24,-1,-1,-1,-1,-1,-1,-1,-1],"split_conditions":[4.3269675E6,9.9E7,1.64E7,5.00624E5,1E0,-5.20027E-2,2.52E2,4.99E7,3.6E1,-5.2127153E-2,2.1073036E-1,2.157629E-1,-3.786404E-2,1E0,3.0142857E1,2.35E2,2.036073E6,-5.2447498E-2,-4.7488645E-2,7.440593E-1,-4.8277203E-2,-5.2502524E-2,-1.0347999E-2,2.0866168E-1,-5.1811766E-2],"split_indices":[71,29,26,24,44,0,6,27,69,0,0,0,0,44,40,67,23,0,0,0,0,0,0,0,0],"split_type":[0,0,0,0,0,0,0,0,0,0,0,0,0,0,0,0,0,0,0,0,0,0,0,0,0],"sum_hessian":[1.715932E5,1.709886E5,6.046141E2,1.7043561E5,5.529745E2,1.8800053E2,4.1661356E2,1.6582938E5,4.606244E3,3.1671936E2,2.3625514E2,4.0830582E2,8.307728E0,1.6567148E5,1.5788617E2,4.0022048E3,6.0403906E2,1.5814947E5,7.522013E3,1.1245291E1,1.4664088E2,3.691332E3,3.108729E2,3.8432733E2,2.197117E2],"tree_param":{"num_deleted":"0","num_feature":"78","num_nodes":"25","size_leaf_vector":"1"}},{"base_weights":[-4.981173E-1,-5.1135176E-1,-2.4756822E-1,-5.2596744E-2,-2.6599655E-1,1.698542E0,-5.2499663E-2,2.0390296E-1,-5.2581E-1,-5.1364046E-2,1.9791695E0,-0E0,-5.2592482E-2,-4.5077767E-2,2.02879E0,-2.6996935E-2,2.0398831E-1],"categories":[],"categories_nodes":[],"categories_segments":[],"categories_sizes":[],"default_left":[0,0,0,0,0,0,0,0,0,0,0,0,0,0,0,0,0],"id":52,"left_children":[1,3,5,-1,7,9,-1,-1,11,-1,13,-1,-1,-1,15,-1,-1],"loss_changes":[5.701094E2,5.8558203E2,4.6668003E3,0E0,5.5092993E3,6.7225977E2,0E0,0E0,5.2734375E-1,0E0,1.1808667E2,0E0,0E0,0E0,2.5932861E1,0E0,0E0],"parents":[2147483647,0,0,1,1,2,2,4,4,5,5,8,8,10,10,14,14],"right_children":[2,4,6,-1,8,10,-1,-1,12,-1,14,-1,-1,-1,16,-1,-1],"split_conditions":[1E0,4.88E2,7.142857E0,-5.2596744E-2,4.9E1,7E0,-5.2499663E-2,2.0390296E-1,5E1,-5.1364046E-2,2.29E2,-0E0,-5.2592482E-2,-4.5077767E-2,2.4E1,-2.6996935E-2,2.0398831E-1],"split_indices":[44,35,8,0,39,8,0,0,39,0,66,0,0,0,69,0,0],"split_type":[0,0,0,0,0,0,0,0,0,0,0,0,0,0,0,0,0],"sum_hessian":[1.7212127E5,1.6348177E5,8.639506E3,1.5428669E5,9.195069E3,1.0764384E3,7.563068E3,9.29861E2,8.265208E3,1.2079227E2,9.556461E2,1.7013053E0,8.263507E3,1.8598898E1,9.370472E2,4.0596423E0,9.3298755E2],"tree_param":{"num_deleted":"0","num_feature":"78","num_nodes":"17","size_leaf_vector":"1"}},{"base_weights":[-5.259898E-1],"categories":[],"categories_nodes":[],"categories_segments":[],"categories_sizes":[],"default_left":[0],"id":53,"left_children":[-1],"loss_changes":[0E0],"parents":[2147483647],"right_children":[-1],"split_conditions":[-5.259898E-2],"split_indices":[0],"split_type":[0],"sum_hessian":[1.7022055E5],"tree_param":{"num_deleted":"0","num_feature":"78","num_nodes":"1","size_leaf_vector":"1"}},{"base_weights":[-5.258854E-1],"categories":[],"categories_nodes":[],"categories_segments":[],"categories_sizes":[],"default_left":[0],"id":54,"left_children":[-1],"loss_changes":[0E0],"parents":[2147483647],"right_children":[-1],"split_conditions":[-5.258854E-2],"split_indices":[0],"split_type":[0],"sum_hessian":[1.7028814E5],"tree_param":{"num_deleted":"0","num_feature":"78","num_nodes":"1","size_leaf_vector":"1"}},{"base_weights":[-6.226436E-2,1.0447421E0,-5.248686E-1,-5.115654E-1,1.9827863E0,-5.26963E-2,-4.3769953E-1,-5.275032E-1,-3.4213018E-1,2.0177891E0,-2.6399544E-1,2.2245235E0,-4.7735822E-1,-5.275504E-1,-0E0,3.2653985E0,-4.2109036E-1,2.023296E0,-5.1533785E-2,-5.251507E-2,2.592987E0,2.2818835E-1,-2.5787526E-3,-3.11321E-1,-5.2760657E-2,-5.2759793E-2,-0E0,-3.9905433E-2,4.3553835E-1,5.086842E-2,-4.8339244E-2,2.0240127E-1,-4.1004382E-2,3.402127E-1,1.8416849E-1,2.2130494E-1,-5.256894E-2],"categories":[],"categories_nodes":[],"categories_segments":[],"categories_sizes":[],"default_left":[0,0,0,0,0,0,0,0,0,0,0,0,0,0,0,0,0,0,0,0,0,0,0,0,0,0,0,0,0,0,0,0,0,0,0,0,0],"id":55,"left_children":[1,3,5,7,9,-1,11,13,15,17,19,21,23,25,-1,27,29,31,-1,-1,33,-1,-1,35,-1,-1,-1,-1,-1,-1,-1,-1,-1,-1,-1,-1,-1],"loss_changes":[1.06091805E5,8.913964E4,2.5730469E1,6.1214355E1,2.998E3,0E0,3.6503693E2,7.1240234E-1,5.660977E2,5.261406E2,4.3887708E2,7.7955627E0,2.7592285E1,7.5341797E-1,0E0,1.754455E2,1.1298035E2,6.771875E1,0E0,0E0,1.4787537E1,0E0,0E0,4.3242947E2,0E0,0E0,0E0,0E0,0E0,0E0,0E0,0E0,0E0,0E0,0E0,0E0,0E0],"parents":[2147483647,0,0,1,1,2,2,3,3,4,4,6,6,7,7,8,8,9,9,10,10,11,11,12,12,13,13,15,15,16,16,17,17,20,20,23,23],"right_children":[2,4,6,8,10,-1,12,14,16,18,20,22,24,26,-1,28,30,32,-1,-1,34,-1,-1,36,-1,-1,-1,-1,-1,-1,-1,-1,-1,-1,-1,-1,-1],"split_conditions":[4E0,6E0,2.92E4,1.04E2,1.2E1,-5.26963E-2,2.4E1,9.1E7,2.4E1,9.55E2,1.09E7,9.55E2,3.0016E4,7.5798295E6,-0E0,2.95E2,9.55E2,1E0,-5.1533785E-2,-5.251507E-2,3.842673E7,2.2818835E-1,-2.5787526E-3,2.1908903E0,-5.2760657E-2,-5.2759793E-2,-0E0,-3.9905433E-2,4.3553835E-1,5.086842E-2,-4.8339244E-2,2.0240127E-1,-4.1004382E-2,3.402127E-1,1.8416849E-1,2.2130494E-1,-5.256894E-2],"split_indices":[4,11,67,34,5,0,0,25,0,1,25,1,67,27,0,20,1,47,0,0,1,0,0,41,0,0,0,0,0,0,0,0,0,0,0,0,0],"split_type":[0,0,0,0,0,0,0,0,0,0,0,0,0,0,0,0,0,0,0,0,0,0,0,0,0,0,0,0,0,0,0,0,0,0,0,0,0],"sum_hessian":[2.0716406E5,6.1055465E4,1.461086E5,2.2961107E4,3.809436E4,1.42665E5,3.4435923E3,2.0980422E4,1.9806844E3,3.7510406E4,5.839512E2,4.8743305E1,3.394849E3,2.0979227E4,1.1946789E0,4.055954E1,1.9401249E3,3.7429637E4,8.07711E1,5.3669916E2,4.7252003E1,4.772104E1,1.0222689E0,7.9436E2,2.600489E3,2.0978154E4,1.0735452E0,9.484012E0,3.107553E1,1.2043525E2,1.8196897E3,3.741916E4,1.0475906E1,1.9032356E1,2.8219646E1,6.053454E1,7.3382544E2],"tree_param":{"num_deleted":"0","num_feature":"78","num_nodes":"37","size_leaf_vector":"1"}},{"base_weights":[-5.049927E-1,6.488739E-1,-5.260849E-2,-5.071192E-1,2.274225E0,-5.2242744E-1,7.5507426E-1,2.3290639E-1,-4.6550922E-2,-5.2410334E-2,2.6147795E-1,-4.285045E-2,2.5009427E0,-7.136879E-3,6.2070966E-2,3.298814E-1,-1.3599356E-2],"categories":[],"categories_nodes":[],"categories_segments":[],"categories_sizes":[],"default_left":[0,0,0,0,0,0,0,0,0,0,0,0,0,0,0,0,0],"id":56,"left_children":[1,3,-1,5,7,9,11,-1,-1,-1,13,-1,15,-1,-1,-1,-1],"loss_changes":[4.1779297E3,5.7933E3,0E0,3.5496765E1,1.956167E2,2.7468262E0,4.868824E1,0E0,0E0,0E0,9.0133166E-1,0E0,2.2174286E1,0E0,0E0,0E0,0E0],"parents":[2147483647,0,0,1,1,3,3,4,4,5,5,6,6,10,10,12,12],"right_children":[2,4,-1,6,8,10,12,-1,-1,-1,14,-1,16,-1,-1,-1,-1],"split_conditions":[2.4E1,2.47E2,-5.260849E-2,3.85E2,2.85E2,3.98E2,2.2E1,2.3290639E-1,-4.6550922E-2,-5.2410334E-2,3.3333333E0,-4.285045E-2,6E0,-7.136879E-3,6.2070966E-2,3.298814E-1,-1.3599356E-2],"split_indices":[0,67,0,24,67,29,0,0,0,0,40,0,5,0,0,0,0],"split_type":[0,0,0,0,0,0,0,0,0,0,0,0,0,0,0,0,0],"sum_hessian":[1.7163861E5,3.0796577E3,1.6855895E5,1.8003027E3,1.2793551E3,1.7802792E3,2.0023468E1,1.2547225E3,2.46325E1,1.7777792E3,2.5000136E0,1.266214E1,7.361328E0,1.4070804E0,1.0929332E0,5.4115396E0,1.9497886E0],"tree_param":{"num_deleted":"0","num_feature":"78","num_nodes":"17","size_leaf_vector":"1"}},{"base_weights":[-5.204309E-1,-5.248833E-1,-4.177863E-1,-5.2518595E-2,-3.3039922E-1,4.5804787E-1,-5.2590925E-2,